5751 16
的 1.714626 1.200638 -0.109048 -1.401674 -0.019710 -0.046711 -1.013158 -0.430958 -0.780274 -0.187249 -0.720292 0.495803 -1.077031 -1.235577 -0.024307 0.232860
： 3.529797 3.543281 -1.494763 -0.894102 -1.289446 -0.944142 -0.058447 -1.344169 -5.456945 1.449181 0.361477 -1.578636 3.260044 1.980690 -0.181869 -1.486992
他 0.173225 2.574404 -0.150213 -0.033718 0.138475 -0.130453 -0.356597 0.083489 1.693702 0.631486 1.096235 -0.738810 0.850379 -0.538231 -0.233435 1.215675
道 4.820787 2.688805 -3.284267 1.257009 -1.150145 -1.450925 -0.893818 2.518510 -2.159669 -1.879355 0.747302 1.444881 1.084055 0.314784 3.378005 0.970900
你 1.166555 4.619769 -2.408288 0.848206 -0.824548 -0.770665 -1.534228 -0.721688 -1.818879 1.582026 2.863624 0.472726 2.146375 -0.320783 1.375348 -0.192294
我 0.643760 4.169346 -1.710770 0.830729 -0.823379 -0.642940 -1.492401 -0.960056 -1.159573 1.571918 3.076658 0.837645 1.760547 -0.482345 1.334848 0.272011
杨过 1.302650 2.153813 -0.373033 1.038660 0.150083 -0.149898 -0.692074 0.813945 0.963384 0.861925 1.020754 -0.407178 0.794063 0.914106 -1.132185 0.913089
在 0.977470 1.941435 1.423586 -1.612923 0.234301 -0.368176 0.856146 1.608709 0.380027 -0.922857 -0.750042 1.404253 -0.216971 -0.033479 -0.249851 -0.822399
是 2.059383 1.680435 -2.943980 -0.632192 0.862102 1.389686 -0.228953 -3.764915 -1.049735 0.331235 0.109566 1.482008 -0.595757 -0.280159 -0.276678 0.468522
也 -0.245768 2.697346 0.388945 0.039650 -0.155000 -0.642388 -0.345909 -1.291016 -0.753917 0.213240 1.350065 1.291732 0.082679 -0.355651 1.551969 1.885792
这 1.027761 1.976515 -0.323326 0.424574 -0.030337 -0.209844 -1.670717 -1.487048 -0.852067 0.571752 1.148416 0.050694 -0.523909 -0.296593 0.020522 1.157611
不 0.644491 2.850969 -0.145308 1.112402 0.288057 0.736225 -0.047429 -1.675256 1.080269 -0.766918 1.901919 0.824276 0.984669 -0.072719 0.660090 0.715102
又 1.186131 1.778134 -0.107561 -0.122851 -0.127611 -0.012988 -0.923549 -0.467790 -0.317632 -0.507500 0.280390 0.120601 0.385448 0.326234 0.322708 0.837199
那 1.499099 2.252118 -1.070641 0.353747 -0.913093 -0.469078 -2.623296 -0.516090 -1.302864 0.137635 0.884301 0.277396 -0.726185 -0.467072 0.398945 -0.278952
得 1.196518 3.007846 2.624024 2.196036 -1.161209 1.533072 -1.037114 0.353352 0.363089 -0.223680 -0.013798 -0.733521 0.691928 -0.982235 0.593582 1.125662
小龙女 1.163137 1.995397 -0.810615 0.633636 0.672575 0.217191 -0.669417 0.463895 0.928463 0.785305 1.301826 0.066762 0.494564 0.716239 -0.923737 0.893486
说 -0.033124 3.307437 -0.928620 0.381218 -0.304482 1.430833 -3.518048 -0.260589 -0.492635 0.539158 0.879615 0.459763 1.869397 0.485654 2.686263 2.015838
但 0.470045 2.156739 0.951570 -0.387188 0.929132 0.849935 -0.021073 -1.365216 1.510694 -0.270930 0.539575 0.125071 -0.507863 -1.415349 -0.428971 2.085565
便 -0.592163 2.614470 0.315715 -0.849488 -0.282508 0.224429 -0.165710 0.130420 0.244778 1.028779 0.463967 0.305226 -0.351626 0.179584 1.117102 -0.366989
却 0.318159 2.224100 0.920106 -0.346280 0.266632 0.310135 0.848676 -1.085907 1.204457 -0.751283 0.923538 0.584835 -0.260022 -0.656014 0.022779 1.673938
见 1.631621 0.927661 1.368170 -1.414245 0.516016 1.029395 0.970245 0.056686 0.262319 -0.952537 -1.458609 0.892110 0.410110 1.187593 0.704557 1.738649
去 0.341948 3.241875 -0.599517 -0.495303 -1.445475 -0.033202 0.882821 2.146349 0.299198 0.764222 0.239289 0.560877 0.843511 0.667180 1.005885 -1.332340
着 0.758252 3.975762 -0.692872 0.699215 -0.481335 1.380337 -0.481365 2.784674 1.385431 -0.391484 -2.391986 0.427340 1.270840 -0.587703 -1.358147 -1.704615
将 0.837833 1.498173 0.683104 -1.791843 -0.140721 0.740893 1.410781 0.627650 1.329374 -0.050304 -1.629063 0.796739 -0.699208 1.365101 0.632495 -0.607696
有 0.457372 2.084227 -0.310860 -0.373310 0.436684 0.554913 -1.042398 -2.665304 0.192440 -0.350569 0.820039 1.403235 -0.854866 -0.648257 0.364603 0.515431
中 0.146260 1.269563 0.805309 -1.324782 0.441584 -0.102914 -0.348978 -0.731013 2.040221 0.209229 -1.308643 0.092990 -2.325100 0.466128 -0.014761 0.882682
上 0.204451 1.752253 0.919369 -1.502013 -0.217581 -0.094972 0.521041 0.373950 2.122720 0.221267 -1.550589 -0.018168 -1.551465 1.428168 -0.522680 -0.326270
与 2.446561 0.502676 0.678441 -1.088338 1.578650 0.738037 1.945648 -1.202038 -0.562994 0.429521 -1.391662 1.092237 0.298867 0.397254 0.560217 1.571926
来 1.078693 2.041450 -0.908602 -0.085780 -1.553919 -0.670576 -0.198964 0.716537 0.481864 0.204240 0.370632 0.348801 0.719295 0.993690 1.384066 -0.186769
已 0.286311 1.559055 2.052039 -1.146040 0.571883 0.271157 0.616733 -0.274920 2.365434 -0.101894 -0.290973 0.414839 -0.536716 0.340881 -0.003437 1.141084
听 0.415020 2.774217 3.070861 1.564287 -0.927849 2.709915 -1.620262 1.150161 -2.022132 0.727526 -2.560190 1.769442 1.029633 2.719577 -0.085677 2.898908
要 0.350274 2.876813 -1.164189 -0.330555 -0.489699 0.124783 0.052245 -0.926951 0.214905 0.725557 1.558828 0.960639 1.170025 -0.326135 1.521568 -0.526461
说道 3.567790 1.209535 -2.729072 1.320704 -0.804568 -0.559219 -1.423171 2.431586 -0.460669 -1.286268 0.495900 2.316679 -0.826150 0.449688 2.599882 1.190532
到 -0.016308 3.398726 0.987143 -0.044690 -0.808303 0.545473 0.785792 1.206298 -0.004134 0.359208 -1.561197 0.768466 0.751326 0.185969 0.297712 -1.721478
郭靖 2.229976 1.245466 -0.377851 0.499764 0.759544 -0.402485 -0.328285 0.110544 0.050886 1.436442 0.600243 -0.275666 0.523326 0.696777 -0.780569 1.143133
叫 3.275562 2.254476 -1.603736 1.162760 -1.197523 1.203227 -0.794889 1.601331 -2.486048 0.701430 0.867028 1.196303 0.637104 2.639810 0.410081 0.118151
黄蓉 2.235915 1.522344 -0.603484 1.098508 0.498809 0.002603 -0.818946 0.449043 -0.354348 1.048232 0.300741 -0.209147 0.657720 0.911758 -0.760632 1.418880
和 2.385481 0.893840 -0.892628 -1.210866 0.737633 0.720434 1.849988 -0.641121 -1.180723 0.601265 -0.965124 1.091495 0.761041 0.841807 0.992293 0.751314
向 2.339212 1.546864 0.326131 -0.766712 -0.266437 1.104548 1.295155 2.472551 0.323380 -0.239436 -2.228103 0.400457 0.223028 2.256865 -0.493579 -0.515889
自己 -0.180082 2.481818 -0.107611 -0.335440 0.872944 -0.337019 -0.070110 -1.455390 0.867137 0.762398 1.282650 0.465269 0.550535 -0.484761 0.033247 1.072770
只 1.164267 2.736741 2.173982 1.855920 0.178412 2.211621 -1.523502 0.579191 0.490360 -0.904777 0.090679 -0.537880 -0.050699 -0.452316 -0.061162 1.351050
都 0.448505 1.892794 0.093726 -0.367860 -0.152291 -0.961663 -1.600760 -0.992818 -0.060317 -0.090642 0.037024 0.076372 -0.327992 -0.742731 0.101480 1.727884
给 0.632810 2.380218 -0.509484 -0.539042 -0.614158 1.390585 0.492631 -0.401001 -0.376057 -0.647194 -0.662930 1.198156 0.302810 0.509816 1.264205 -0.025123
人 1.127553 1.639952 0.427934 0.968706 0.699458 -0.301098 -1.580690 -2.964141 0.499424 1.664920 0.966578 0.120461 -0.456459 -0.524768 1.473173 0.508227
国师 2.884809 0.320847 -0.122274 -1.384677 -1.426288 -1.009485 2.084354 0.527178 0.291317 2.484708 2.400601 -1.616629 -0.162423 1.084611 -0.430701 2.868284
之 0.323063 2.037377 1.870124 -0.836577 3.667510 1.836061 -2.196402 -2.889127 0.162307 0.149422 -1.934855 3.011209 -3.019995 -2.541901 -0.974599 1.238156
就 -0.308622 3.016602 0.148542 0.045908 -0.932375 0.539960 -1.083931 -0.695500 -1.112792 0.847697 1.121304 0.838064 0.419176 0.568076 1.665245 0.315916
李莫愁 1.674527 1.400257 -0.375869 0.085270 0.602269 -0.560723 -0.678492 0.278647 0.954562 1.146054 0.838456 -0.640455 -0.321995 0.495881 -0.930354 0.414055
好 1.667078 3.558176 -2.149478 1.224068 -1.352193 0.137515 -1.498799 -0.460085 -2.042074 1.301046 1.761214 0.935669 1.098693 0.843158 1.418028 0.111407
武功 0.509920 1.084074 -0.634067 -1.767252 1.304164 0.714241 0.116967 -3.226383 0.134096 1.370164 0.603166 1.643741 -0.725882 -0.546151 0.551256 2.678247
一个 0.403506 2.174876 0.115259 -0.118179 -0.685159 -0.483720 -2.841836 -0.796106 -0.216027 -0.212912 -0.454712 0.386107 -1.996158 -0.361973 0.511302 -0.648171
为 0.982957 1.490628 -0.124485 -1.314197 1.096891 0.292289 0.553648 -2.676245 -1.178616 0.814106 -0.037030 1.420370 -0.213806 -0.592587 0.784621 0.985681
一 1.335436 1.237796 1.159358 -1.048128 0.561389 -0.395481 -1.102229 1.020155 0.740726 -0.165281 -1.829335 0.124503 0.822756 1.976466 -1.617177 0.788350
再 -0.149834 2.983458 0.331803 0.121766 -1.039419 -0.508915 0.105105 -0.405802 0.323507 0.647973 1.771642 0.800056 0.188814 -0.438835 1.983280 -0.089160
心中 1.827179 1.378904 0.365900 0.741858 0.849297 0.613054 -0.043744 -0.028289 0.431111 -1.060646 -0.390484 0.616440 -0.018723 0.648285 -0.117583 1.908818
对 1.274893 2.010145 -0.141006 0.045644 1.140951 0.867932 0.738364 -1.336894 -1.144783 -0.265203 0.017785 1.338915 1.290842 0.012922 0.489333 2.442536
而 0.390487 1.182852 1.654568 -1.180467 0.174678 -0.732973 0.165409 -0.507392 1.662664 0.911907 -0.194977 0.872259 -1.682999 0.523976 1.454230 -0.032802
过 0.358904 2.913906 0.218437 0.814629 -0.163937 0.980148 -0.313827 -0.264055 0.184060 -0.097138 -0.083743 0.238168 0.334497 -0.643975 0.625309 0.393885
郭芙 2.359605 1.825504 -0.620483 1.136812 0.315888 -0.268157 -0.821604 0.811036 0.411042 0.855115 0.872172 -0.371125 0.869693 0.694282 -0.589467 0.768831
跟 0.441096 3.986321 -1.642720 0.226846 -1.259969 1.213470 -0.297500 -0.961420 -2.098694 1.121905 0.621940 2.108446 1.431697 0.538439 2.666823 0.093636
郭襄 1.799039 1.909937 -0.968286 0.668247 0.037810 -0.010567 -1.001009 0.879909 0.166273 0.964378 1.029220 -0.147283 0.753523 0.821922 -0.365237 0.654706
大 1.629763 1.452165 -1.041492 -0.672940 -0.453578 -1.063357 -1.136864 -0.612294 -1.156269 0.661693 0.808301 0.036421 -0.564590 0.228652 0.314739 0.064519
心想 2.689391 1.048883 -1.518771 0.680488 0.786147 0.389765 -0.613173 0.160873 -0.041677 -1.343885 0.425015 1.680354 -0.016582 -0.346187 1.487731 2.160518
等 2.601707 0.402409 -0.000157 -1.366678 0.815798 1.034942 0.186016 -0.777383 -0.434733 0.069722 -0.791526 0.499384 0.396823 0.209162 1.032153 2.127285
咱们 0.987089 3.167762 -1.474762 0.930843 -0.963493 -0.376324 -1.561959 -0.272505 -1.229427 1.551953 2.001912 1.196287 0.615228 0.336543 1.676213 -0.343980
一声 3.579818 1.581369 -1.302372 0.198742 0.161009 -0.345342 -0.507636 1.913683 -0.033306 1.064684 -1.992053 -1.306232 -0.059764 2.734242 -2.255541 -1.188371
二人 0.795169 1.482893 0.631228 -0.476650 0.717608 0.437259 0.297716 -0.612803 1.628044 0.411353 0.164886 -0.041675 -0.069819 0.009343 -0.280840 1.433919
瞧 0.320583 2.045347 -0.819040 0.110941 -0.795722 1.206574 -0.910025 0.350373 -0.022483 0.352842 -0.238377 0.767393 1.228881 2.030681 1.667850 1.962778
什 1.926911 3.126410 -1.812225 0.750089 -0.207172 0.024808 -1.627436 -1.443572 -2.249153 0.121954 1.150324 0.670812 1.469969 -0.114623 0.926277 0.809427
不知 0.796969 1.930189 -0.228826 -0.278253 0.314933 0.267741 -0.022167 -2.448748 -0.361914 -0.424142 0.704450 1.005983 0.608669 -0.045442 1.070435 1.656264
蒙古 1.828431 -0.015940 0.119762 -2.186488 0.614074 -1.591910 -0.391972 -1.416295 1.537778 1.304620 0.535167 -0.037305 -2.053164 0.117113 0.433967 0.626057
师父 1.838975 2.094187 -1.671403 0.294059 -0.264033 -0.178383 -0.832785 -0.845323 -1.057231 1.159543 1.542142 0.388631 1.032358 -0.419414 0.858745 1.146265
没 0.479213 2.867869 -0.101587 0.809383 -0.082172 1.025021 -0.628819 -1.706998 -0.060446 -0.587495 1.413127 1.021256 0.760144 0.013959 1.385952 0.835484
从 1.177798 1.302164 1.732180 -1.872199 0.431059 0.114237 0.611589 1.137379 1.773579 -0.054078 -1.881696 0.171073 -1.621304 0.825663 -0.315032 -0.343658
罢 1.144015 3.703684 -1.532756 0.760034 -1.598248 0.312319 -0.863140 0.993918 -1.517856 1.100999 0.577077 1.034368 1.323887 1.108284 1.908764 -0.972427
啊 3.273333 3.078891 -2.380874 0.685791 -1.024769 -0.275741 -1.530950 -0.412683 -3.262953 0.029221 0.763483 0.437763 1.522636 0.764269 0.770777 0.800471
还 -0.049683 3.289843 -0.533709 0.172134 -0.520273 0.262816 -0.928192 -0.964007 -1.444770 0.820936 1.150591 0.922738 0.630122 0.078153 1.103230 0.432138
想 0.872803 1.886711 -1.027302 -0.058233 -0.158386 0.517717 -0.244903 -1.105618 -0.077672 -0.391303 0.807988 1.689560 0.378180 0.227199 1.385784 1.490354
可 0.123076 2.820086 -0.531962 -0.067763 -0.177822 0.316536 -0.623176 -1.798439 -0.576672 0.347337 1.458098 1.415543 0.307563 -0.500993 1.791875 0.488645
出 0.793106 2.227286 2.271047 -1.358773 0.048534 0.160170 1.178651 1.520806 2.435996 0.046893 -1.727214 -0.559912 -0.856138 0.756814 -0.901447 -0.117068
竟 -0.276387 2.170812 1.682069 -0.837114 0.352637 -0.100784 0.252524 -0.813764 1.294651 -0.161643 0.080738 0.276321 -0.847478 -0.225117 0.293071 1.144452
下 0.876124 1.340279 0.376976 -0.998943 -0.054781 -0.488004 0.145903 0.602368 1.245889 0.559698 -0.738514 -0.047380 -1.156655 1.103427 -0.305237 0.020180
弟子 2.180470 0.612721 -1.362672 -1.441726 0.575483 -0.951711 -0.376460 -1.103777 -0.326396 1.531906 0.467258 0.298880 -0.859562 -0.088501 0.157785 0.176630
周伯通 2.121828 1.516105 -0.492763 0.707189 0.139622 -0.381782 -1.015534 0.450716 -0.103106 0.919481 0.856544 -0.208334 0.137444 0.800353 -0.451139 0.845078
走 0.254606 2.961223 -0.312615 0.410093 -1.754520 0.767094 -0.444467 2.151669 0.309855 1.546720 0.038401 0.874377 0.309948 1.842277 2.010007 -0.490080
突然 2.196663 1.206039 1.078134 -0.488226 0.394360 -0.076644 -0.139158 1.292655 0.931501 -0.334716 -1.316976 -0.145661 -1.250057 1.305026 -1.140813 0.052605
陆无双 2.044498 1.683820 -0.863235 0.641442 0.122791 -0.302476 -0.681381 0.816717 0.222153 0.955195 0.652707 -0.250632 0.345738 1.014575 -0.593671 0.462849
如此 0.811497 1.933298 0.257624 0.067345 0.637297 0.570683 -0.369202 -2.085512 0.113416 0.094618 0.594191 0.493966 0.385513 -0.490090 0.287954 1.678727
此时 0.516133 1.562846 1.480263 -0.596586 0.471298 0.377932 0.721047 -0.513757 1.785021 0.057015 -0.037686 0.383512 -0.458094 0.380226 0.401113 1.431880
两人 0.707456 1.513986 1.048474 -0.740902 0.334961 0.143090 0.081331 0.260680 1.697037 0.233605 -1.000745 0.083278 -0.777926 0.678173 -0.183193 0.489236
谁 1.548900 3.165627 -2.141007 0.362565 -0.537176 -0.855189 -1.357106 -2.106928 -1.777779 0.117973 1.444435 0.800555 1.173429 -0.403834 1.258276 1.305931
啦 1.723388 3.853166 -1.800861 0.922354 -1.610906 0.086595 -0.867279 0.297485 -2.211736 0.705738 1.592334 1.175135 1.419362 1.011325 2.101428 0.014234
虽 0.399579 1.569202 1.530393 -0.720083 0.788928 0.274482 0.261622 -1.670383 0.498984 -0.171743 -0.136119 0.876945 -0.391310 -0.238778 0.418523 2.435576
时 1.042645 1.064762 1.981817 0.677279 1.401959 -0.292122 0.376162 -1.970794 2.464432 2.259652 -0.595552 0.313959 -0.252202 0.030824 0.851892 0.977137
无 0.242909 1.925234 1.522757 -0.696577 1.269578 0.420760 0.907384 -2.481471 2.158041 -0.484308 0.224668 1.346907 -0.845724 -0.388733 0.152129 1.293517
死 -0.159609 2.998765 -0.810947 -0.219986 -0.618976 -0.071363 0.349913 -1.160879 -0.552778 0.943354 1.603633 1.288676 0.390420 0.251109 1.608192 0.426771
以 0.942779 1.074151 0.980394 -1.385093 1.052890 -0.576174 0.394811 -1.916476 1.032849 0.408693 -0.336547 0.454028 -0.882526 -0.665560 0.264295 1.457342
不是 1.672675 2.684645 -1.967124 0.066912 0.034127 0.518635 -0.591080 -1.924648 -1.299507 0.094804 1.453782 1.313331 1.152583 -0.097061 1.359364 0.684305
笑 2.768088 2.182887 -1.758906 1.199728 -0.089057 0.818838 -1.260437 0.772216 -1.937134 0.618319 0.706657 0.814280 1.044371 1.674497 -0.077260 0.397280
赵志敬 1.818329 1.394531 -0.413683 0.529743 0.207105 -0.311640 -0.927293 0.325159 0.443354 0.842797 0.691884 -0.122530 0.004491 0.612303 -0.394651 0.647041
打 -0.168098 2.667095 -0.105095 -0.204518 -1.232977 0.887964 -0.229476 -0.139352 -0.424387 0.667246 0.172607 1.084102 0.564314 1.254441 1.417941 0.272632
后 0.768357 1.352267 0.897886 -0.996855 0.132546 -0.117508 -0.077121 0.633796 1.679927 0.695426 -0.757678 -0.078122 -1.051043 0.785902 0.131035 0.213789
不能 -0.012182 2.730410 -0.154596 -0.649423 0.085604 0.123306 0.015093 -2.104754 0.019903 0.249113 1.097389 1.194800 0.126871 -0.478740 1.312834 0.446506
如何 0.455911 2.257053 0.385165 -0.458901 0.119026 0.279394 0.475906 -1.210505 0.253372 -0.013161 0.605866 0.709272 0.155321 -0.416079 0.483727 1.033138
他们 0.605610 2.688671 -0.839349 0.288207 -0.343542 -0.402245 -0.697435 -0.994457 -0.418357 0.943656 1.615768 0.453944 0.560240 -0.482744 0.980506 0.608947
能 -0.065329 2.310019 0.295246 -0.611674 0.152447 0.310591 -0.221806 -1.892805 0.456621 0.121703 0.971622 1.248145 -0.314003 -0.551788 1.297988 0.766039
之中 0.569660 1.223332 0.858278 -1.054141 0.548881 -0.104278 -0.054590 -0.969158 1.483342 0.153218 -0.563032 0.180275 -1.081775 0.279553 0.225004 1.029279
不敢 0.765594 1.750607 0.154058 -0.225726 0.085226 0.173754 0.225832 -0.556880 0.780703 -0.060514 0.426285 0.772254 0.066811 0.363200 0.673058 0.975644
知道 1.281318 2.721875 -1.026914 0.183367 -0.034030 0.447663 -0.057886 -1.090065 -1.703128 -0.028080 1.025044 1.418690 1.042170 0.169697 1.074842 1.441943
起 1.437082 2.061595 0.878228 -0.737141 -0.769961 -0.302915 0.434299 2.509103 1.213361 0.354931 -1.270882 -0.041880 -0.224212 1.714109 -0.727575 -0.929399
若 0.192750 2.315408 -0.517570 -0.582768 0.022885 -0.143095 -0.069887 -1.680045 -0.660565 0.553264 1.159240 1.218005 0.254200 -0.326926 1.036380 1.353381
自 1.050610 1.168700 0.318039 -1.037215 0.732221 -0.381380 0.253229 -1.249807 0.480628 0.269311 0.218914 0.522054 -0.510372 -0.382420 0.217858 1.436247
出来 0.628986 2.498209 -0.250032 -0.223742 -0.192228 -0.022662 -0.294869 0.159618 -0.170484 0.322862 -0.032797 0.217685 0.398240 0.161563 0.175820 -0.442450
功夫 0.469754 1.497036 -0.592999 -0.947374 0.334804 0.015041 -0.441735 -1.721521 -0.044156 0.914949 0.278498 0.738994 -0.285792 0.056642 0.454966 1.102598
姑姑 1.855068 3.116649 -2.135497 0.876017 -0.701979 -0.346766 -0.910813 -0.255087 -1.531913 0.861093 1.868767 0.834465 1.425109 0.667839 1.202504 0.641020
如 0.149993 2.107410 0.571276 -0.480702 -0.110656 0.245179 0.064453 -1.132652 0.182239 0.296410 0.681847 1.110721 -0.191675 -0.074921 1.043754 0.554443
站 1.720739 1.148198 0.064679 -0.492542 -1.427452 0.051858 -0.449243 2.045297 1.665140 0.568071 -1.061239 -0.040503 -0.404957 3.210739 0.981259 0.648921
今日 1.171386 2.098491 -0.750190 0.356592 0.050981 -0.211211 -0.394465 -1.611971 -0.863583 0.901574 1.231396 1.046940 0.351648 -0.165067 1.005616 1.015768
这时 1.020047 1.559933 1.043349 -0.217662 0.463202 0.293922 0.197485 -0.240613 1.133076 0.181374 -0.232118 0.150143 -0.266539 0.307168 0.072195 0.957093
倒 0.346037 2.084517 0.231025 -0.333925 0.008382 0.114390 -0.214693 -0.885247 0.289345 -0.191419 0.235039 0.619785 -0.057820 0.045399 0.308415 0.536146
剑 0.574576 1.479448 1.230028 -2.031777 0.600174 -0.156680 0.262813 0.240471 2.330297 0.441098 -1.252172 -0.007838 -0.916540 0.913782 -0.214686 -0.131043
才 0.917998 2.110370 -0.411918 0.009620 -0.403752 -0.144939 -0.491485 -0.442840 -0.933673 0.450126 0.747516 0.700879 0.344007 0.036269 0.946515 0.936998
金轮 4.171777 -0.182418 0.016962 -2.408224 0.591648 1.045918 0.702848 1.415543 1.417412 1.758984 0.653750 0.276892 0.397792 0.230464 1.252468 1.187085
待 0.458232 2.289500 0.201967 0.105553 -0.895245 0.959818 -0.072133 -0.103312 -0.842504 0.351922 -0.029118 1.215344 0.477080 0.827800 1.377497 0.950803
原来 1.936527 1.141627 -0.826646 -0.267662 0.302521 -0.310835 -0.559893 -0.506372 -0.373614 -0.024332 0.017812 0.353540 0.102857 0.519681 0.298283 1.142964
身上 0.581680 1.595110 0.148449 -0.729665 -0.089099 0.348402 0.490740 -0.330435 0.621343 0.188016 -0.430873 0.551248 -0.260916 1.102346 0.518479 0.350661
个 0.895121 1.875077 -0.507099 -0.323073 -0.124952 -0.810904 -1.305584 -1.295889 -0.372525 0.099207 0.108647 0.304532 0.064219 -0.483941 0.649938 1.021815
两个 1.128720 1.991936 -0.853611 -0.261119 -0.200316 -0.118782 -1.308769 -0.983397 -0.783318 0.387567 0.111722 0.259296 0.206099 0.224554 0.733760 0.208641
所 0.852648 1.153613 0.940715 -1.137902 1.393316 -0.486586 -0.054377 -2.128819 1.387885 1.021300 -0.061965 0.301187 -1.114117 -0.725514 0.125819 1.068844
更 0.249812 1.813605 1.302106 -0.571477 0.362849 0.094048 0.129924 -0.767420 0.581379 0.354085 -0.047121 0.563715 -0.734137 -0.201784 0.271776 1.085622
当真 1.296205 1.906279 -0.708775 -0.001928 0.156595 -0.496637 -0.759205 -1.416547 -0.895277 0.453043 0.814192 0.632318 0.186806 -0.331025 0.698830 1.004436
使 0.406838 1.529313 0.372106 -1.141591 0.670006 0.234194 0.146888 -1.067571 0.776025 0.295056 -0.276605 0.597584 -0.661181 0.205704 0.267458 0.587536
让 0.435279 2.586409 -0.616531 -0.208374 -0.721997 0.620637 -0.244728 -0.514288 -0.884186 0.096421 0.196302 1.245288 0.694197 0.558249 1.749444 0.403431
身子 0.966866 1.423586 1.065804 -1.180649 0.175384 0.168707 0.336592 0.891095 1.520309 0.272898 -0.992846 0.071688 -0.629473 1.262002 -0.240174 0.252465
事 1.072058 1.741986 0.479162 1.647430 0.873378 -0.387967 -0.466653 -2.802742 0.377903 2.240878 0.689531 0.931110 0.712447 -0.265416 1.881332 0.897430
长剑 1.492499 1.257638 1.378538 -1.881010 0.593380 -0.085252 0.524502 1.025295 1.940414 0.267719 -1.703359 -0.259131 -1.050028 1.371410 -0.729057 0.042443
快 0.911217 3.179394 -0.910651 0.732720 -1.592944 0.275922 -0.888886 0.667759 -1.306269 0.845578 0.646444 0.879192 0.961592 1.152754 1.363823 -0.297987
杀 0.205944 2.861290 -0.831473 -0.618402 -0.388966 0.842355 -0.018421 -1.534164 -0.966693 0.361669 0.695975 1.478840 0.864961 0.284114 1.931924 0.800678
只见 1.701266 1.265968 1.154270 -1.175766 0.162578 0.264925 0.313130 1.308481 1.286092 -0.104802 -1.694337 0.080491 -1.018114 1.408329 -0.178525 0.133224
伸手 0.810600 1.895582 0.366772 -0.808699 -0.530095 0.063263 0.404483 1.397381 1.094217 0.453633 -0.837592 0.227367 -0.180501 1.533185 0.387855 -0.315924
众人 1.343029 1.446808 0.659862 -0.054848 0.326206 0.211987 -0.308540 0.158177 1.207201 0.098822 -0.370549 -0.161384 -0.543595 0.278921 -0.473047 0.830199
脸上 1.765353 1.328915 0.176603 -0.257367 0.280722 0.304204 -0.070513 0.473494 0.728912 -0.247551 -0.742264 -0.091044 -0.137875 1.069631 -0.405004 0.846658
你们 1.200485 3.116485 -1.675978 0.595198 -0.781121 -0.399516 -1.186644 -0.837351 -1.433864 1.059592 1.740945 0.671378 0.960783 0.041256 1.209491 0.190321
多 -0.020927 2.501914 0.508027 -0.079828 -0.043110 0.454178 -0.602718 -1.463685 0.034887 0.171139 0.355221 0.993428 0.007698 -0.345032 0.803334 1.003886
便是 1.194947 2.062665 -1.005001 -0.253462 -0.077304 0.138235 -0.530629 -0.869128 -1.010201 0.606165 0.374806 0.697103 0.518202 0.292289 0.858750 0.073857
喝道 3.130845 1.497850 -2.267861 1.069018 -0.626352 0.278735 -1.129036 1.681051 -0.641109 -0.804760 0.476266 1.779969 -0.039790 0.973666 1.653105 1.104160
怎 2.032157 2.830331 -1.957456 0.738392 -0.444183 0.250242 -0.913016 -0.574302 -1.940402 0.118332 1.440152 1.126872 1.231521 0.560154 1.051433 0.961874
左手 1.492392 1.410875 1.185240 -1.807554 0.153563 0.100942 0.673533 1.364768 1.881740 0.432436 -1.633780 -0.244355 -0.938861 1.551907 -0.519160 -0.349972
均 1.200183 1.208394 0.540901 -1.014710 0.731104 -0.427429 0.122416 -1.358285 1.132434 0.231279 0.390145 0.259409 -0.812444 -0.369842 -0.085570 1.697912
小 1.538321 2.019598 -1.133733 0.060132 -0.156162 -0.270701 -0.876381 -0.375328 -0.993157 0.611252 0.595136 0.381992 0.316577 0.480152 0.418090 0.071070
绿萼 1.690397 1.873567 -0.571902 0.532938 -0.116841 -0.002314 -1.031059 0.604592 -0.183016 0.538478 0.517908 -0.056391 0.284493 0.856092 -0.260021 0.583752
于 0.526123 1.478155 0.884245 -1.046354 0.576067 0.218803 0.504231 -1.437261 0.426470 0.119460 -0.158387 0.975710 -0.411413 -0.259759 0.656427 1.059113
裘千尺 2.072579 1.755890 -0.608310 0.569766 0.118039 -0.068550 -0.946263 0.142802 -0.111589 0.666366 0.687618 -0.286792 0.298058 0.589380 -0.480067 0.706538
姑娘 1.988641 2.716492 -2.120963 0.489635 -0.193067 -0.483144 -1.316348 -1.346036 -1.741557 0.728400 1.479886 0.567555 0.834652 0.018264 1.041585 0.485007
问道 3.248537 1.823212 -2.428713 1.042248 -0.262020 0.118135 -1.321797 0.887964 -1.287581 -0.702096 0.715495 1.506321 0.576095 0.779001 1.490213 1.401195
这般 0.635023 2.399998 -0.453491 0.333474 -0.004877 0.269905 -0.653167 -1.510527 -0.322583 0.387489 0.903770 0.666653 0.495982 -0.242256 0.888634 0.861686
性命 0.157447 2.393475 -0.339741 -0.666049 -0.052938 0.425986 0.296314 -1.420433 -0.371927 0.290935 0.703394 1.286489 0.830803 -0.050010 1.413749 0.819432
一灯 3.122756 1.196924 -0.815441 0.458461 0.434951 -0.405163 -0.625050 0.253044 -0.162219 1.078770 0.905274 -0.176235 0.158592 0.556546 -0.837431 1.535491
女儿 1.147980 2.209638 -0.832478 0.262251 0.056376 -0.075784 -0.697387 -0.560254 -0.456417 0.678966 0.718869 0.315694 0.724726 0.147235 0.560110 0.721270
并 -0.144395 2.238040 1.466071 -0.782363 0.262264 -0.408912 1.013374 -0.982818 0.533001 0.111107 0.556624 0.969983 -0.478672 -0.384027 0.645118 1.573351
我们 1.159674 2.297034 -1.296459 0.146388 -0.428531 -0.527054 -1.042086 -0.904924 -0.917187 0.921581 1.478770 0.575291 0.248526 -0.067448 0.894552 0.286098
仍 0.711061 1.450877 0.984472 -0.779055 0.499022 -0.197991 0.063723 -0.554546 0.907874 0.009629 -0.207027 0.326626 -0.355962 0.106810 0.218165 1.270548
既 0.592904 2.142320 -0.322526 -0.309690 0.101212 0.090404 -0.003033 -1.290413 -0.414820 0.327742 0.840681 1.184619 0.218110 -0.105495 1.009871 1.298645
跟着 1.285379 1.508067 0.780455 -1.053696 -0.089672 0.142180 0.373538 0.854144 1.221619 0.100262 -0.967235 0.190870 -0.728983 1.172810 -0.088004 -0.134704
眼见 1.152981 1.366476 1.103312 -1.265269 0.349289 0.126840 0.676181 -0.014868 1.014085 -0.003425 -0.814931 0.372452 -0.575475 0.768129 0.272089 0.779740
吃 1.358433 2.049375 -0.518402 0.345731 -0.483114 0.244310 -0.595722 0.044137 -0.798082 0.150457 0.148853 0.456661 0.490811 1.251463 0.628718 0.618170
说话 1.347020 2.065588 -0.282288 0.746163 -0.086588 0.525199 -0.564754 -0.075362 -0.372000 -0.006934 0.578802 0.543145 0.654048 0.313669 0.585863 1.224826
甚 0.703409 1.744407 0.420368 -0.252737 0.370291 -0.450178 -0.687534 -1.371060 0.073780 -0.302132 0.267496 0.571281 -0.192742 -0.490635 0.512953 1.730210
不禁 1.988505 1.476893 0.200601 0.154776 0.556296 -0.209320 -0.485745 -0.063694 0.381048 0.055363 -0.149299 -0.265412 -0.056887 0.457619 -0.680611 0.856264
那里 0.181413 2.528141 -0.855195 0.155255 -1.040961 0.274449 -0.671535 -0.125450 -0.094792 0.889905 0.746037 0.855453 0.219051 1.195550 1.887813 0.187758
不过 0.386630 2.372045 -0.174650 -0.272012 -0.245138 0.119834 -0.179031 -1.428403 0.010612 0.053045 0.717721 0.875820 0.209954 -0.202178 1.169871 0.606902
做 0.531524 3.033431 -1.106202 -0.079749 -0.384426 0.408122 -0.723554 -1.683973 -1.430352 0.622052 1.022528 1.554862 0.588740 0.057498 1.648070 0.623163
倘若 1.017432 2.028768 -0.950516 -0.185545 -0.280998 -0.125430 -0.479455 -1.020602 -0.792659 0.480653 1.019119 0.866526 0.354777 0.003729 1.136127 0.518636
过儿 1.976401 2.821010 -1.935326 0.865080 -0.446719 -0.161614 -1.147709 -0.582441 -1.942898 0.861893 1.567244 0.721441 1.189856 0.388478 0.777012 0.578060
兵刃 0.596526 1.365687 1.032743 -0.992603 0.471948 -0.077891 -0.120759 -0.540403 1.385583 0.365700 -0.390738 0.037093 -0.858013 0.173765 0.058707 0.657026
呢 1.672817 3.069301 -1.618443 0.538859 -0.755412 0.325021 -0.855131 -0.530506 -1.950198 0.435299 1.094136 1.088463 1.207405 0.502543 1.477409 0.464914
登时 1.283696 1.513578 1.180713 -1.109303 0.254447 -0.223114 0.080410 0.477427 1.233477 0.107426 -0.933833 -0.087537 -0.953825 0.743464 -0.408934 0.186393
之下 1.457753 1.167194 0.877830 -1.011450 0.652094 -0.121119 0.173687 0.275387 1.438244 0.228849 -0.842659 -0.141822 -0.900459 0.743176 -0.623287 0.625370
正是 2.164790 1.034813 -0.302095 -0.563316 0.383973 0.272222 -0.284087 0.219733 -0.275117 0.413459 -0.573539 0.239644 -0.231278 0.728565 0.097592 0.505764
之后 0.480191 1.776912 0.390569 -0.647087 -0.118309 0.094520 0.076174 -0.577450 0.493852 0.525012 0.194287 0.427517 -0.260110 0.127339 0.698024 0.346448
襄阳 0.946480 1.281361 -0.120834 -1.078423 -0.036341 -0.597955 0.017026 -0.642097 0.448123 1.120537 0.168433 0.430635 -0.824448 0.421330 0.652212 0.268756
请 1.276279 2.772673 -1.558262 0.353998 -1.087637 0.154401 -0.840701 -0.056439 -1.399217 0.944819 1.091159 1.001464 0.854141 0.552633 1.670434 -0.106462
一招 0.816453 1.157738 0.859170 -1.449611 0.662824 0.430168 -0.075990 -0.718611 1.030840 -0.045880 -1.111964 0.375979 -0.490507 0.525420 0.261866 1.048213
把 0.653457 2.112163 -0.477328 -0.140615 -0.493463 0.406051 -0.295953 -0.368846 -0.515721 0.296906 0.236296 0.947987 0.329115 0.548310 1.172590 0.366312
大声 2.685143 1.850235 -1.215220 0.581233 -0.195395 0.111688 -0.804638 0.636514 -1.330931 0.588433 0.464916 0.272224 0.672496 1.394495 -0.131430 0.316590
当 1.407251 1.242005 -0.037063 -0.853628 0.109995 -0.085163 -0.059922 -0.585888 -0.168943 0.279334 -0.155631 0.513820 -0.439233 0.185428 0.348268 0.626538
话 0.272634 2.886965 0.284603 0.829619 -0.683702 1.046427 -1.152847 -0.571550 -0.360212 -0.257047 0.428327 0.816481 0.592446 -0.012403 1.246100 1.072578
霍都 1.505823 1.267523 0.093912 -0.380682 0.499154 -0.272075 -0.361451 -0.286924 0.679854 0.727159 0.230657 -0.065591 -0.309919 0.212506 -0.271675 0.702973
连 0.909179 2.187639 -0.176341 -0.052639 -0.148454 0.267987 0.104898 -0.531006 -0.016907 -0.247414 0.482655 0.748599 0.372819 0.072378 0.619039 0.643111
耶律齐 1.959037 1.338872 -0.178277 0.057304 0.261328 -0.183248 -0.390665 0.476959 0.397913 0.788840 0.207854 -0.105926 -0.073148 0.780721 -0.447884 0.670823
少女 1.786631 1.785038 -0.720632 0.261876 0.054205 0.097403 -1.305781 -0.478759 -0.481390 0.290537 0.475337 0.335968 -0.320241 0.795660 0.427680 -0.390179
即 0.367767 1.619172 1.281961 -1.228539 0.288796 -0.197217 0.289742 -0.390639 1.348942 0.390366 -0.142866 0.801270 -0.530657 0.205734 0.511325 0.070001
甄志丙 1.993880 1.311551 -0.563560 0.113718 0.220883 -0.364346 -0.692188 0.066512 0.083035 0.774108 0.449247 -0.063388 -0.092537 0.583344 -0.342414 0.849653
问 2.083632 2.501184 -1.626379 0.900598 -0.516112 0.800643 -0.859687 -0.114797 -1.612032 -0.384464 0.776707 1.403803 1.284481 0.722381 1.505685 1.246306
右手 1.723798 1.418797 1.300595 -1.972635 0.319032 -0.035683 0.692033 1.142557 2.098610 0.359421 -1.591978 -0.351783 -1.196140 1.447060 -0.651610 -0.096144
不由得 1.661523 1.376252 0.692917 -0.313999 0.595446 -0.133745 -0.256055 -0.097868 0.700957 0.140511 -0.446549 -0.233284 -0.268896 0.481826 -0.730206 0.742544
知 0.917612 1.585072 0.468284 -0.848702 0.372114 0.586548 0.604961 -0.926531 0.243226 -0.054668 -0.276107 0.748235 0.089033 0.200465 0.691916 1.190374
郭 3.521002 2.730034 -3.321653 0.767559 -0.816601 -1.488880 -0.831078 -0.445534 -2.028627 1.317877 1.226932 0.816053 1.205994 -0.214602 0.717458 -0.275876
难道 1.391666 2.573217 -1.627630 0.293835 -0.331259 -0.194775 -0.832613 -1.399335 -1.423448 0.271853 1.467031 1.014550 0.730122 -0.109459 1.324737 1.015247
黄药师 1.953986 1.401573 -0.344502 -0.151097 0.533008 -0.146325 -0.443854 -0.275576 -0.032583 0.823540 0.317828 0.072638 -0.101313 0.430918 -0.251586 0.952402
一人 1.009678 1.801271 0.614603 -0.117108 -0.248065 0.221289 -0.346373 0.315807 0.097268 0.326582 -0.220578 0.332354 0.015846 0.643306 0.184831 0.659136
手中 0.939441 1.520817 0.489494 -1.262852 -0.011687 0.072398 0.039300 0.555513 1.331141 0.390179 -0.952200 -0.058374 -0.701172 1.089365 0.097771 0.003408
对方 0.401297 1.680457 1.325091 -1.271989 0.540927 -0.333129 0.299550 -0.824371 1.734858 0.444880 -0.183202 0.140163 -1.091932 -0.080089 -0.084650 0.876537
之间 1.074048 1.434245 1.089458 -0.836247 0.614450 -0.070058 -0.197456 0.114703 1.524829 0.243035 -0.951999 0.077387 -0.919860 0.927631 -0.434266 0.675768
地下 0.952502 1.444374 0.645555 -1.308352 -0.025949 -0.438159 0.113600 0.877598 1.763973 0.708783 -0.883717 -0.486286 -1.118191 1.713784 -0.481841 0.002172
双手 1.439198 1.281834 0.665279 -1.150188 0.141843 0.094936 0.422971 0.937175 1.120461 0.267449 -0.988207 0.023218 -0.522365 1.316521 -0.165560 0.041556
爹爹 1.496574 2.933178 -1.967362 0.721935 -0.523393 -0.011895 -1.130901 -1.029477 -1.528733 0.797056 1.740706 0.993066 1.129704 0.108021 1.241237 0.697689
欧阳锋 1.315382 1.573731 -0.241396 0.069691 0.231103 -0.166140 -0.663744 -0.239334 0.227924 0.634948 0.297658 0.030424 -0.070086 0.231199 -0.207746 0.806167
全真教 1.235239 1.583040 -0.746073 -0.442121 0.367298 -0.466508 -0.675144 -1.290603 -0.160618 0.943803 0.722672 0.440492 -0.331244 -0.238823 0.467453 0.683228
当下 0.988369 1.606085 0.519945 -0.693101 0.109833 -0.336042 -0.120231 0.150556 0.810843 0.589718 -0.140919 0.047714 -0.468246 0.424138 -0.043372 0.248208
用 0.597915 1.817722 -0.041256 -0.733383 -0.185250 0.017165 -0.041292 -0.396257 0.231795 0.228633 -0.100855 0.573035 -0.167585 0.441098 0.723933 0.264799
一阵 1.302167 1.709197 1.421775 -0.363186 -0.033267 0.393144 -0.141149 1.041524 1.200254 -0.006807 -1.124829 -0.055257 -0.389635 1.027642 -0.398694 0.500389
出手 0.396134 1.738995 0.967984 -0.863937 0.347924 0.198842 0.352767 -0.692092 0.935138 0.122304 -0.176386 0.523170 -0.502043 0.238554 0.430974 0.884810
武三通 1.987005 1.503341 -0.350474 0.406999 0.074399 -0.147217 -0.740552 0.490606 -0.000487 0.786776 0.474904 -0.237329 0.109523 0.710244 -0.393175 0.773779
还是 0.904081 2.587401 -1.127137 0.035317 -0.482663 -0.206640 -0.776410 -1.023609 -1.224848 0.694584 0.901511 0.718788 0.595000 0.027414 1.152361 0.438070
厉害 0.706329 1.570838 0.304191 -0.315113 0.378972 -0.042242 -0.505531 -1.233299 0.379425 0.354899 0.326058 0.416011 -0.424807 -0.221506 0.336767 1.138461
一般 0.776901 1.640879 0.517097 -0.579857 0.516839 0.040012 -0.259276 -0.861894 0.656016 0.295634 -0.049589 0.379821 -0.551745 0.009668 0.153231 0.777379
曾 0.911311 1.862372 0.315082 0.113814 0.605091 0.671421 -0.657214 -0.893995 0.378298 0.280792 0.290998 0.501712 0.176395 -0.255032 0.380284 1.195740
丐帮 1.404731 1.255748 -0.669020 -0.957119 0.332960 -0.811055 -0.639679 -1.100296 -0.134429 0.731644 0.478827 0.367906 -0.810306 -0.289529 -0.001162 0.708938
神雕 1.399071 1.552518 -0.422998 -0.108950 0.209330 -0.404184 -0.629088 -0.111675 0.112877 0.864777 0.434756 0.038657 -0.139687 0.519288 -0.206752 0.347519
这里 0.342117 2.599494 -1.132623 0.464947 -0.958144 0.392555 -1.150566 0.051516 -0.161094 1.192863 0.628054 0.524165 0.466215 0.978326 1.349662 0.291621
潇湘子 2.531690 0.754647 0.230502 -0.549271 0.472660 -0.214807 -0.142949 0.611623 1.324587 1.052700 0.449635 -0.438675 -0.591799 0.679279 -0.433944 1.304535
望 1.332926 1.699726 -0.646428 -0.713198 -0.157314 0.653096 -1.315139 1.623801 0.874694 0.473574 -0.848803 -0.379232 1.095404 2.074617 0.969787 1.068556
少年 1.144051 1.700488 -0.194476 -0.244519 0.601281 0.145312 -1.025301 -1.054356 0.013259 0.387852 0.032464 0.276253 -0.284692 0.047958 0.140556 0.454554
间 1.694071 1.490011 1.157550 -0.631971 0.581728 -0.443511 -0.046156 0.469080 1.619279 0.118594 -1.009647 -0.304910 -1.238668 1.162549 -0.778505 0.312738
想到 0.775413 1.814409 0.379093 -0.288380 0.473941 0.275962 -0.045667 -0.468587 0.044444 -0.091636 -0.213665 0.716119 0.065290 0.348784 0.380735 0.895171
轻轻 1.283461 1.603871 0.085850 -0.523978 -0.088701 -0.079121 -0.172238 1.004557 0.524417 0.481425 -0.552782 -0.052384 -0.147230 1.358931 -0.287933 -0.066577
见到 1.128761 1.559436 0.082670 -0.482042 0.201212 0.408142 0.027993 -0.432641 -0.069642 0.019733 -0.349581 0.723569 -0.025919 0.614394 0.636463 0.700213
想起 1.568902 1.308421 0.231766 -0.238177 0.726335 0.343400 0.095618 -0.223545 0.077002 0.105036 -0.501937 0.664497 0.000329 0.644653 0.047999 0.966678
丘处机 2.186820 1.135230 -0.640964 0.216258 0.553596 -0.345792 -0.875111 -0.458805 -0.009257 0.942762 0.871129 -0.079634 -0.175636 0.266566 -0.245509 1.128886
公孙止 1.266092 1.598586 0.013086 -0.334227 0.332806 -0.234223 -0.555660 -0.145044 0.449558 0.655828 0.157233 0.027022 -0.212955 0.521191 -0.124085 0.556877
自然 1.011515 2.151168 -0.847814 0.113803 -0.036277 0.033662 -0.481243 -1.006467 -0.915100 0.230305 0.876872 1.021150 0.530263 0.017388 0.978642 1.027045
不可 0.534207 2.118513 0.146360 -0.367204 -0.058864 0.121268 -0.123297 -0.847384 -0.211749 0.318412 0.230879 0.727805 0.179292 0.104853 0.747121 0.732491
往 1.046457 1.763716 1.677980 -1.914050 -0.021529 0.244624 1.081718 1.481666 1.900636 0.250447 -1.750846 0.250606 -0.873048 1.594679 -0.044199 -0.425484
地 0.987138 1.529487 0.741465 -0.840002 0.093762 -0.314482 0.026512 0.286792 1.357488 0.816360 -0.639771 -0.089707 -0.848754 1.187176 -0.210646 0.179085
低声 2.777399 2.032621 -1.741066 1.161957 -0.236687 0.483380 -1.213037 1.007148 -1.628706 0.789655 0.785435 0.530675 1.016652 1.582320 0.137915 0.553856
过去 1.087882 1.684158 0.505659 -0.633354 0.091373 0.010975 0.119076 0.691731 0.824593 0.301653 -0.499541 0.171134 -0.198209 0.797552 0.082624 0.200273
当即 1.258820 1.534340 0.473706 -0.671448 -0.010449 -0.424711 0.124508 0.487170 0.876871 0.613646 -0.374548 -0.028830 -0.428530 0.694411 -0.032540 0.118370
忽 1.806219 2.782570 2.966500 1.461431 -0.163850 1.785987 -1.732787 1.623240 1.432750 0.015007 -0.838369 -0.840108 -0.380046 0.572788 -0.654261 1.412926
不会 0.568021 2.477273 -0.756363 -0.359390 -0.128744 0.229375 -0.118404 -1.647346 -0.686507 0.276077 1.050698 1.017427 0.525332 -0.289406 1.231806 0.887991
武修文 1.710138 1.534435 -0.605000 0.343876 -0.031657 -0.063267 -0.721244 0.658747 -0.001082 0.441007 0.313423 -0.051124 0.108696 0.899386 -0.140984 0.323041
起来 1.667823 1.818312 -0.451349 0.091071 -0.097566 -0.060234 -0.432806 0.512949 -0.113865 0.094093 0.073256 0.142327 0.365594 0.647765 0.000061 0.147743
敌人 0.686000 1.560966 0.794906 -0.929327 0.278864 -0.190713 0.224875 -0.333515 1.484285 0.558415 -0.149219 0.264975 -0.752031 0.237477 0.188866 0.634885
尼摩星 2.094819 1.008603 0.334784 -0.870030 0.534221 -0.249812 -0.106606 0.283263 1.297647 1.101241 0.073121 -0.355126 -0.603760 0.593777 -0.376662 0.769533
处 1.071510 1.361513 2.091100 0.068315 1.204565 -0.533686 0.077962 -1.799088 2.185055 1.872365 -0.599564 0.183444 -0.810210 0.084732 0.675194 0.714480
拿 0.708046 1.737662 0.057992 -0.901804 -0.665714 0.255635 -0.353334 0.927053 0.788634 0.492569 -0.329123 0.239295 0.020997 1.466079 1.115535 0.046901
声音 1.610000 1.800378 -0.157793 0.616580 -0.078075 0.352184 -1.323335 0.112395 -0.387727 0.340083 0.083930 -0.272008 0.099262 0.621015 -0.231576 0.328026
看 0.670928 1.938766 0.306538 0.191787 -0.290525 0.741429 -0.199335 0.008889 -0.180342 0.284132 -0.281431 0.833720 0.394284 0.955356 0.887397 1.101682
比 0.908234 1.583775 0.316535 0.092303 0.406772 0.094673 -0.035086 -1.848169 0.263450 1.082232 0.450158 0.972157 0.244286 -0.184558 1.426652 0.919366
会 0.719903 2.404828 -0.702949 -0.125901 -0.150398 0.183071 -0.332597 -1.339340 -0.498376 0.371242 0.874944 0.804391 0.360745 -0.053905 1.044652 0.429422
程英 1.799529 1.495957 0.045607 -0.104175 0.236450 -0.036593 -0.326592 0.470284 0.287931 0.563618 -0.026075 -0.062219 0.055122 0.787369 -0.347272 0.685512
此 0.375750 1.759626 -0.148676 -0.861774 -0.032600 -0.246414 -0.199157 -1.084354 0.324889 0.713665 0.257352 0.508450 -0.385603 0.404863 0.766675 0.538402
胸口 1.149639 1.507451 1.133187 -1.132163 0.261984 0.207099 0.506738 0.597995 1.339432 0.186423 -1.112539 0.008267 -0.666381 1.067055 -0.278616 0.322729
有人 1.340213 1.846791 0.141432 0.269650 -0.238051 -0.067407 -0.690476 0.239601 0.052880 0.538120 0.249056 0.044575 -0.015631 0.436015 -0.015393 0.269517
出去 0.965998 2.157976 -0.237404 -0.018732 -0.353329 0.123684 -0.308159 0.296291 -0.241960 0.491769 0.176212 0.511232 0.168787 0.639986 0.532478 0.182682
奔 0.800603 1.916232 0.960438 -0.582202 -0.503453 0.381819 -0.189125 1.499711 1.843478 0.887496 -0.998601 0.172324 -0.699718 1.653789 0.720510 0.052357
不住 1.461977 1.529723 0.668516 -0.385281 0.011430 0.137472 0.106401 1.009498 0.739285 0.287226 -0.661451 0.164525 -0.380210 1.102032 -0.027518 0.435209
朱子柳 1.949322 1.488333 -0.377664 0.121390 0.282989 -0.120719 -0.589733 0.120672 0.033169 0.862805 0.472446 -0.108279 0.030205 0.646860 -0.350473 0.816854
只是 0.825465 1.940670 -0.085808 -0.205899 0.285949 -0.008662 -0.439349 -1.033964 0.095388 0.285845 0.328372 0.513133 -0.089815 -0.211838 0.430189 0.639774
大叫 2.828994 1.361304 -1.151944 0.697963 -0.419370 0.174244 -0.877912 1.701461 -0.371572 -0.173197 0.042651 0.813301 -0.136725 1.114446 0.496955 0.857104
救 0.459506 2.578101 -0.674001 -0.246159 -0.501443 0.550003 0.128019 -0.902647 -0.684221 0.337129 0.585778 1.388061 0.721773 0.283851 1.604024 0.852435
本来 1.050683 1.666761 0.266479 -0.511362 0.370801 0.026863 -0.041780 -0.886657 0.392186 0.225001 0.190163 0.495231 -0.122906 -0.031894 0.389917 1.115757
或 0.363173 1.617086 1.138122 -1.396554 0.483729 -0.065005 0.009757 -0.983420 1.101213 0.527226 -0.354777 0.510698 -1.149568 -0.082744 0.408673 0.595353
越 0.422805 2.652486 1.092959 0.730441 -0.708865 0.893354 -0.522159 0.656287 0.547813 -0.024018 -0.336622 0.251761 0.239567 0.443529 0.641151 0.639011
武氏兄弟 1.518980 1.345388 0.257487 0.029458 0.650911 0.016552 -0.104190 0.022632 0.776321 0.673132 0.011528 0.031014 -0.088259 0.485961 -0.236733 1.098047
这些 0.889637 1.951277 -0.346829 -0.188517 0.196397 -0.063537 -0.809649 -1.237170 -0.409683 0.492936 0.487402 0.721937 -0.204577 -0.169819 0.473267 0.803547
只怕 0.569679 2.091723 -0.113830 -0.444427 -0.149244 0.190374 -0.033346 -0.801018 -0.204259 0.243837 0.408117 0.784071 0.140039 0.151067 0.871631 0.543436
内力 0.540886 1.543935 1.313999 -1.338082 0.594952 0.079071 0.424171 -0.821588 1.472963 0.508433 -0.482342 0.405692 -0.895625 0.292570 0.006372 0.965716
古墓 0.232603 1.818663 0.506417 -0.919466 0.183490 -0.017413 0.004563 -0.756621 0.677422 0.804140 -0.066629 0.420873 -0.571771 0.401876 0.483328 0.417286
一惊 2.288762 1.420929 -0.355024 0.288401 0.264059 0.076197 -0.228456 0.612376 -0.194316 -0.179208 -0.267513 0.163454 0.122654 0.788246 -0.529029 1.074699
当年 1.299143 1.217015 0.229436 -0.694001 0.770838 -0.229746 0.077201 -0.943368 0.331441 0.615845 -0.217864 0.367111 -0.381496 0.148117 -0.092566 0.855671
前 0.979073 1.540984 0.761727 -0.817889 0.193667 -0.224520 0.006209 0.120484 1.022182 0.711962 -0.569699 0.151664 -0.837725 0.690191 -0.070073 0.220809
听到 1.115384 1.755968 0.346864 -0.401621 0.041895 0.539141 0.148661 0.034819 -0.107536 -0.035594 -0.565419 0.567449 0.212680 0.789638 0.468635 0.635901
谷主 1.446141 1.684004 -0.242549 0.213425 0.098246 -0.036621 -0.487405 0.019617 -0.006609 0.379488 0.282778 0.142939 0.180416 0.421697 -0.048792 0.503839
抢 0.678493 1.816415 0.028745 -0.662804 -0.642596 0.374732 -0.284660 0.883399 0.751893 0.733714 -0.238459 0.455963 0.051953 1.445727 1.249993 0.146582
尹克西 1.827009 1.131807 0.080303 -0.530356 0.209624 -0.323813 -0.037873 0.312952 0.904315 0.741687 0.282022 -0.279637 -0.313010 0.693385 -0.181894 0.694063
刺 0.528452 1.691092 0.903623 -1.090014 -0.031588 0.096059 0.232755 0.378269 1.462994 0.532955 -0.729690 0.423186 -0.689114 1.037938 0.570089 0.287184
女子 1.329614 1.856382 -0.632641 0.203096 -0.026757 -0.082395 -1.258149 -1.159329 -0.598331 0.371627 0.476605 0.286182 -0.287248 0.048954 0.459033 0.351739
三人 1.331244 1.464558 0.591178 -0.553161 0.337817 0.173482 0.142944 -0.019622 0.888728 0.441043 -0.394844 0.161933 -0.360262 0.592904 0.039538 0.899848
却是 1.348497 1.464112 0.001289 -0.602071 0.319453 0.014172 -0.263937 -0.480224 0.287804 0.506157 -0.251812 0.317318 -0.521622 0.182526 0.146921 0.432466
不及 1.104625 1.443068 0.866507 -0.807973 0.655106 0.258472 0.391099 -0.945451 0.940834 0.055079 -0.322096 0.580222 -0.538897 0.069378 0.242822 1.174664
孙婆婆 1.317237 1.871720 -0.432603 0.190824 0.072525 -0.092210 -0.769987 0.058506 0.070759 0.720173 0.537154 0.153616 0.172757 0.257944 0.179376 0.434253
动手 0.625678 2.118721 -0.275529 -0.304295 -0.016595 0.161742 -0.303003 -0.681048 -0.103636 0.564203 0.815597 0.701591 0.287855 -0.119070 0.925979 0.754769
手臂 1.074376 1.532219 0.495814 -0.820530 0.074443 0.187070 0.077760 0.326553 0.665150 0.172234 -0.718075 0.246319 -0.185924 0.911844 0.058829 0.353963
找 0.410687 2.755814 -0.788973 -0.172622 -0.988290 0.488939 -0.032058 -0.456698 -1.051004 0.618285 0.589427 1.329108 0.776473 0.931821 1.909098 0.189199
始终 0.780649 1.698750 0.647574 -0.601282 0.236520 -0.000333 0.358867 -0.377806 0.536525 0.201500 -0.065463 0.423887 -0.175266 0.182568 0.299759 0.928350
大师 2.600776 1.342508 -0.890799 -0.113843 0.367451 -0.065824 -0.480801 0.365413 -0.623105 0.547620 0.403377 0.029463 0.339144 0.471211 -0.133334 1.148959
同时 1.673550 1.380342 0.851264 -1.044299 0.426640 -0.333687 0.136664 0.592790 1.586133 0.599363 -0.703480 -0.134511 -0.997376 0.904581 -0.453219 0.288996
一时 0.284263 2.018089 0.869267 -0.473516 0.175930 0.130603 0.213517 -0.847071 0.710023 0.086721 0.062364 0.652510 -0.172330 0.072965 0.478512 0.965329
住 0.554174 1.844250 0.330699 -0.626186 -0.445270 0.361407 -0.041430 0.441612 0.355810 0.504773 -0.308693 0.375879 0.126777 0.963649 0.387239 0.213461
只要 0.580512 2.079968 -0.180264 -0.537021 -0.107315 0.051446 -0.094323 -0.757039 -0.007514 0.357762 0.365384 0.612693 0.079411 0.320318 0.740922 0.489592
可是 0.747263 2.130383 -0.395987 -0.086088 -0.145511 0.279494 -0.425033 -0.974749 -0.649770 0.153537 0.523802 0.796819 0.372314 0.022637 0.806421 0.698865
父亲 0.831009 1.852221 0.041211 -0.168163 0.297253 0.218500 -0.129889 -0.618815 0.105240 0.231713 0.154249 0.510863 0.273916 0.197136 0.283729 0.865738
拂尘 1.457057 1.317997 0.715302 -1.433852 0.441858 -0.364432 0.404891 0.431215 1.409842 0.536466 -0.907809 -0.116408 -0.919338 0.829123 -0.194739 0.029121
不到 0.552242 2.069324 0.198545 -0.424494 -0.081305 0.318346 0.057798 -0.588083 0.280364 0.036672 0.148658 0.562630 0.000445 0.191762 0.557816 0.369042
这个 1.355794 2.121125 -0.923564 0.055091 -0.206550 -0.141797 -0.716599 -0.961059 -1.075048 0.520277 0.951059 0.679259 0.519729 0.212780 0.709898 0.610460
全身 0.928104 1.516822 1.350061 -0.973722 0.525428 0.035417 0.260265 -0.176307 1.504518 0.216263 -0.737604 0.283135 -1.034046 0.590908 -0.295574 0.692648
只有 0.625708 2.039690 0.000185 -0.429864 -0.004284 0.055316 -0.094641 -1.108474 0.077588 0.419583 0.325811 0.618056 -0.016127 -0.006036 0.600761 0.511156
英雄 1.293237 1.718360 -0.771156 -0.397493 -0.129475 -0.452378 -0.574572 -0.829213 -0.570361 0.567600 0.480071 0.548983 -0.125916 0.227824 0.617952 0.441789
不肯 0.646014 2.381612 -0.345988 -0.017010 0.030067 0.440874 -0.195162 -1.251426 -0.186915 0.082789 0.748103 1.002516 0.464345 -0.381785 0.962987 0.815561
不得 0.761660 1.962667 0.033040 -0.535299 -0.089807 0.233198 -0.080870 -0.651428 -0.065623 0.264777 0.219933 0.663196 0.025401 0.294085 0.650464 0.466082
一笑 2.427630 2.079708 -1.193717 0.530243 -0.187659 -0.002517 -0.614870 0.355876 -1.331821 0.600507 0.389363 0.250954 1.026654 1.100503 0.006492 0.254665
定 0.890469 1.937881 -0.433864 -0.460391 -0.146964 -0.462957 -0.483606 -0.694527 -0.429945 0.395375 0.469241 0.574618 0.180336 0.129682 0.778296 0.820320
后来 0.602591 1.991065 0.266325 -0.096590 0.005947 0.358016 -0.580495 -0.308235 0.642106 0.765398 0.193088 0.412527 -0.353710 0.324297 0.555949 0.729191
很 1.043383 2.665539 -0.666145 0.545942 -0.770245 0.338895 -0.938818 -0.682823 -1.540611 0.495758 0.772997 0.914393 0.730209 0.474846 1.012974 1.109425
手 1.041663 1.606530 0.023557 -0.824504 0.113998 0.009251 -0.119130 0.560689 0.729779 0.466617 -0.528476 0.003459 0.086018 1.042350 0.067061 0.106731
于是 0.957437 1.695531 0.243829 -0.582299 0.116314 -0.259683 -0.119109 -0.139323 0.789340 0.667312 0.039395 0.232022 -0.377681 0.348587 0.150084 0.212257
洪七公 1.401875 1.483151 -0.320921 -0.089813 0.338231 -0.146604 -0.611676 -0.276280 0.216471 0.825740 0.467465 0.079970 -0.041676 0.333548 -0.143222 0.703164
立时 0.651923 1.776739 0.777700 -1.035557 0.156482 0.016934 0.225751 -0.279836 0.721919 0.325963 -0.241148 0.474807 -0.374065 0.372322 0.268397 0.250594
一眼 2.075001 2.261359 -0.414021 0.518078 -0.050325 0.441403 -0.442713 1.417215 0.428459 0.108733 -0.670084 -0.157665 0.813577 0.445581 -0.611990 0.448826
抱 0.777986 1.740230 -0.084733 -0.737198 -0.624204 0.552603 -0.567700 1.129419 0.580306 0.384654 -0.459991 0.280615 0.374895 1.736227 1.306125 0.345756
似乎 0.831229 1.754171 0.660000 -0.448933 0.298022 -0.000251 0.039387 -0.496483 0.766142 0.103767 -0.194277 0.229334 -0.391666 0.222830 0.044082 0.736124
大喜 2.373969 1.823310 -0.559097 0.106183 0.054402 -0.112750 -0.278675 0.415548 -0.829842 0.564597 0.088976 -0.009524 0.643724 0.940506 -0.308267 0.445054
旁人 0.605318 2.263898 -0.177084 0.109868 0.056140 -0.089987 -0.415959 -1.184638 0.108348 0.583077 0.927590 0.559763 0.166206 -0.276633 0.619473 0.723374
达尔巴 1.498841 1.363370 0.227514 -0.384540 0.359286 -0.079663 -0.266597 0.160701 0.771778 0.545756 0.170465 0.029108 -0.325792 0.364219 -0.127119 0.903048
一起 0.368262 2.269542 -0.525252 -0.497088 -0.535345 -0.093445 -0.248547 -0.378032 0.201214 0.895445 0.731140 0.757152 0.053209 0.725832 1.285478 0.322682
更加 1.194806 1.750035 0.260045 -0.295138 0.171217 0.052848 -0.344004 -0.318853 0.081879 0.293404 -0.110581 0.322811 -0.186509 0.316597 0.114082 0.694685
抓住 1.378649 1.470105 1.137925 -1.295339 0.289959 0.097479 0.635476 0.880898 1.595230 0.211593 -1.161819 -0.025091 -0.676984 1.229564 -0.372115 0.045733
只得 1.104533 1.698823 0.294827 -0.644424 0.079981 -0.182649 0.029285 0.130291 0.825007 0.475749 0.030225 0.213572 -0.565154 0.576840 0.126704 0.313237
不见 1.181144 1.720060 0.230297 -0.186919 0.071237 0.289610 0.132252 -0.120947 0.330143 0.106822 -0.112845 0.341465 0.105586 0.479012 0.145590 0.746369
孩子 0.925160 2.169816 -0.957395 -0.004604 -0.261939 0.082667 -0.832564 -0.545910 -0.612031 0.395734 0.597878 0.307808 0.687502 0.393033 0.714637 0.478304
这位 2.325480 2.043460 -1.745927 0.330015 -0.033675 -0.560518 -1.021374 -0.717035 -1.499451 0.697866 1.150890 0.366689 0.564597 0.149918 0.281284 0.634898
因 0.095812 1.809772 1.844287 -0.143143 0.174402 0.457338 -0.094917 -0.910916 0.432920 1.021776 -0.655958 0.890798 0.013912 0.753225 0.554154 1.437923
教 1.001406 2.230339 -1.008635 -0.217888 -0.359885 0.426716 -0.166994 -1.252108 -0.973252 0.253392 0.627385 1.187047 0.549017 0.155543 1.352315 0.763778
明白 0.629781 2.338439 0.149869 0.182174 -0.053176 0.739546 -0.138157 -0.498587 -0.352116 0.129898 0.250323 0.814670 0.568094 0.263850 0.560083 1.166162
正 0.986548 1.482761 0.848469 -0.817446 0.304606 0.012556 0.093433 0.155780 1.069105 0.314510 -0.497613 0.176922 -0.591983 0.638238 -0.013089 0.660069
果然 1.100984 1.650715 0.095418 -0.367773 0.028317 -0.080121 -0.466381 -0.411480 -0.038700 0.397755 0.016953 0.342047 -0.184917 0.339004 0.340133 0.563519
就是 1.110040 2.432055 -0.977585 0.087205 -0.365504 0.247908 -0.548518 -0.780771 -1.069108 0.428874 0.736563 0.748622 0.784188 0.334118 1.018966 0.399165
内功 0.917108 1.335762 0.711955 -1.054045 0.856560 -0.062988 0.115910 -1.163179 1.174567 0.494516 -0.252361 0.462006 -0.893076 -0.125758 -0.048593 1.074844
终于 0.819798 1.802255 0.437944 -0.607417 0.009680 0.003395 -0.077394 -0.149255 0.531700 0.433551 -0.148134 0.361127 -0.297244 0.531277 0.239426 0.420340
忽必烈 1.663375 1.482289 -0.288516 -0.391320 0.102694 -0.199577 -0.367707 -0.201059 0.333028 0.677077 0.359224 0.148470 -0.184768 0.384581 0.240508 0.658478
旁 1.161164 1.417732 0.826953 -0.365400 0.539086 -0.453685 -0.156172 -0.441836 1.806141 1.485430 -0.531112 -0.251477 -0.559345 0.780484 0.196327 0.425252
兄弟 1.010316 1.929011 -0.538480 -0.095841 -0.063916 -0.111835 -0.490707 -0.561073 -0.296778 0.465367 0.500459 0.413506 0.121435 0.125949 0.445356 0.476124
穴道 0.906537 1.649976 0.852216 -1.265774 0.355720 -0.188885 0.163004 -0.329068 1.195692 0.487283 -0.413002 0.268351 -0.577521 0.380634 0.043433 0.266507
派 1.522133 1.147770 -0.641448 -1.419571 0.612222 -0.579363 -0.064405 -1.744140 0.633970 1.106844 0.683785 0.670964 -1.207996 -1.060828 0.238234 1.338124
樊一翁 1.456748 1.571496 -0.142971 -0.235625 0.101137 -0.295407 -0.354170 0.148145 0.476536 0.686722 0.239141 -0.028399 -0.170518 0.627427 -0.080033 0.443731
完颜萍 1.621824 1.616487 -0.327591 0.022548 0.165956 -0.152688 -0.449499 0.044047 0.201404 0.650483 0.411892 0.066487 0.090157 0.577830 -0.099593 0.674457
重阳 0.995183 1.340970 0.268839 -0.954430 0.282159 -0.282630 -0.148207 -0.494167 0.659329 0.907635 -0.041773 0.364588 -0.594359 0.360946 0.320359 0.418256
夫妇 1.671713 1.418750 -0.101036 -0.170494 0.493404 0.365869 0.160759 -0.272014 -0.122802 0.382329 -0.354929 0.604664 0.278382 0.552215 0.253850 1.174804
心道 2.470319 1.494976 -1.533112 0.727335 -0.006723 0.258365 -0.836879 0.578113 -0.618173 -0.416187 0.497188 1.042819 0.312765 0.514499 0.915583 1.282756
极 0.980383 1.504124 0.522989 -0.544711 0.553287 -0.046613 -0.357012 -1.132319 0.595526 0.286710 -0.179562 0.383255 -0.463846 -0.035648 0.146143 1.070570
因此 0.474057 1.944024 0.404008 -0.537696 0.063351 -0.017394 -0.032053 -0.846097 0.298786 0.457119 0.333552 0.651728 -0.281701 0.076334 0.586446 0.681402
不错 1.938179 2.105160 -1.355547 0.572178 -0.084065 0.118248 -0.849387 -0.610779 -1.379963 0.613393 1.002009 0.664029 0.817577 0.570307 0.420976 0.655364
之际 0.988125 1.656450 0.817330 -1.002796 0.446059 0.005413 0.222751 -0.464469 1.001431 0.319380 -0.392140 0.410206 -0.655878 0.354554 0.171446 0.756554
一齐 1.660074 1.543040 0.306432 -0.644632 -0.007749 -0.108090 -0.241057 0.732201 0.814108 0.456470 -0.419203 0.023103 -0.419150 0.804789 0.075364 0.449226
起身 1.367745 2.273577 0.586502 -0.615873 -1.326737 -0.592602 0.170941 2.062908 0.461406 0.258014 -0.865713 0.486884 0.057418 1.851532 0.617963 -0.473468
骂 1.411082 2.218114 -0.903994 0.509438 -0.554272 0.723709 -0.740598 -0.055526 -1.291573 0.285932 0.571287 0.864910 0.805760 0.871363 0.870001 0.699237
坐在 1.625896 1.577787 0.432958 -0.543860 0.273643 0.071488 0.070603 0.615342 0.813729 0.261312 -0.605529 0.203770 -0.217530 0.703042 -0.063969 0.346605
那知 0.965044 1.730795 0.718114 -0.833281 0.221019 0.221001 0.248851 0.005954 0.715210 0.131807 -0.565978 0.406284 -0.274674 0.691160 0.298302 0.518370
里 0.850682 1.323870 0.684131 -0.913126 0.228558 -0.237254 -0.024709 0.101706 1.059683 0.535836 -0.632964 -0.039703 -0.765724 0.773780 -0.055485 0.282304
众 1.764606 1.224678 0.139355 -0.997821 0.368310 -0.612796 -0.295238 -0.238130 0.738446 0.506807 -0.062955 0.123651 -1.015754 0.240976 -0.073387 0.774426
这才 1.297952 1.743200 -0.013964 -0.476151 -0.069491 -0.185573 -0.073531 0.088317 0.216996 0.458656 -0.078877 0.281753 -0.105636 0.633527 0.217312 0.228100
怎地 1.168575 2.134362 -0.818531 -0.089027 -0.269395 0.188091 -0.292133 -0.623368 -0.742322 0.327619 0.748417 0.811589 0.452220 0.375754 0.941784 0.686114
眼前 1.125968 1.590975 0.824096 -0.732566 0.412246 -0.148390 -0.191209 -0.522458 0.955857 0.407499 -0.450450 0.191287 -0.761776 0.388888 -0.053886 0.714544
微微 1.817725 1.564500 0.242492 -0.227021 0.187315 0.003417 -0.176653 0.633438 0.263511 0.142460 -0.503931 0.024210 -0.021585 0.902574 -0.481357 0.520821
虽然 0.929583 1.745935 0.788873 -0.768378 0.405645 -0.004955 0.214179 -0.882001 0.590271 0.248539 -0.090072 0.410685 -0.250916 0.210110 0.265275 1.253417
不用 0.831093 2.542063 -0.744041 0.193884 -0.506672 0.330164 -0.418153 -0.604613 -0.826490 0.375456 0.867283 0.959304 0.732336 0.347819 1.041478 0.267227
受 0.726034 1.742797 0.383295 -0.863543 0.165667 0.155013 0.197975 -0.823315 0.162810 0.344627 -0.034169 0.729183 -0.126495 0.272337 0.632055 0.785536
全真 1.324416 1.371776 -0.634248 -1.572464 1.056460 -0.786467 -0.203764 -2.114333 0.624570 1.185978 0.762577 0.384148 -0.818436 -0.845803 0.091517 1.143388
天下 1.024873 1.569942 -0.059974 -0.329564 0.430093 -0.351464 -0.570669 -1.362814 0.069539 0.640044 0.375826 0.558177 -0.462853 -0.343085 0.424070 0.829940
睡 0.666947 2.176092 -0.293834 -0.100252 -0.600919 0.187734 -0.257293 0.262485 -0.077328 0.671135 0.189192 0.737077 0.145843 0.970146 1.016876 0.197636
此刻 0.820066 1.749924 0.569983 -0.537902 0.356751 0.157152 0.155779 -0.825001 0.463679 0.302055 0.072331 0.495416 -0.191609 0.094958 0.380700 0.979762
妈 2.300206 2.658393 -1.798461 0.910978 -0.547290 0.030235 -1.152016 0.035090 -1.717680 0.579421 1.242965 0.594225 1.146077 0.791300 0.684139 0.541196
怕 1.110676 2.245035 -0.561717 -0.076197 -0.187631 0.564188 -0.152967 -0.484709 -0.626808 -0.071171 0.425481 0.905923 0.612371 0.497614 0.995783 0.695327
其实 0.926098 1.828789 0.136011 -0.405168 0.349895 -0.112796 -0.171414 -1.064409 0.064087 0.227173 0.141145 0.605717 -0.144759 -0.096328 0.338101 0.946748
半点 0.226434 2.147150 1.140576 -0.638758 0.075935 -0.110480 0.365169 -1.098971 0.679267 0.069320 0.232725 0.670276 -0.392008 -0.063152 0.804975 0.889249
母亲 1.179505 1.841470 0.191176 0.051342 0.247647 0.050912 -0.449285 -0.051566 0.566429 0.371483 0.220724 -0.029495 0.068732 0.191952 -0.071147 0.864670
和尚 1.487579 1.968627 -1.046284 -0.259262 -0.273614 -0.209677 -0.799463 -0.920027 -1.019015 0.305884 0.828695 0.499616 0.366282 0.078094 0.879951 0.403062
须 0.191228 2.130536 0.457497 0.016855 -0.534677 0.646303 -0.659111 -0.501612 -0.380341 0.696130 0.172749 0.918463 -0.013512 0.633579 0.817463 0.850395
转身 0.911886 1.988923 0.484637 -0.405513 -0.264742 0.135009 -0.118723 0.859641 0.667393 0.453257 -0.558103 0.174793 -0.196320 0.919843 0.301893 -0.177211
此人 1.306952 1.550546 0.072393 -0.624718 0.484445 -0.312208 -0.135813 -1.051887 0.316301 0.444580 0.364717 0.201916 -0.233349 -0.090511 -0.019775 0.914482
随即 1.781407 1.502242 0.257188 -0.385200 0.195598 -0.155082 -0.306138 0.439364 0.362593 0.304681 -0.423689 -0.031141 -0.284226 0.872080 -0.446022 0.450033
冷笑 2.558691 1.731904 -1.173629 0.651898 -0.091807 0.343736 -0.926803 0.298708 -1.377602 0.427266 0.434542 0.554495 0.623496 1.040658 0.102128 0.589314
过来 1.219889 1.831066 0.083286 -0.508784 -0.075870 -0.002576 -0.109692 0.374822 0.336729 0.301055 -0.170211 0.188565 0.062606 0.787812 0.247042 0.309079
柯镇恶 1.328001 1.459089 -0.019820 -0.054719 0.123975 -0.130273 -0.332902 0.300580 0.368397 0.504030 0.196130 0.038866 -0.155238 0.562679 -0.117981 0.472790
道人 1.313088 1.466252 0.155185 -0.559044 0.236376 -0.217199 -0.472158 -0.261566 0.657652 0.436033 -0.213565 0.049957 -0.616028 0.417266 -0.027166 0.444608
未 0.652070 1.770772 0.664327 -0.470380 0.200717 0.266010 -0.159073 -0.675056 0.759520 0.258215 -0.071786 0.474182 -0.281338 0.389804 0.287126 0.865471
非 0.621748 1.653114 0.580133 -0.575824 0.404909 0.036069 0.117411 -1.102349 0.681769 0.396511 0.145967 0.627162 -0.395983 -0.085054 0.521633 0.793194
招数 1.000329 1.641183 0.844453 -1.092037 0.631259 -0.026752 0.162515 -0.804854 1.151518 0.495254 -0.405731 0.432654 -0.802533 0.238969 0.109093 0.870099
尽 0.750421 1.585091 0.413367 -0.928376 0.268521 -0.323982 -0.091233 -0.752695 0.621074 0.255455 -0.124889 0.331106 -0.637192 0.173980 0.249538 0.658629
手掌 1.180660 1.429522 0.692890 -1.214210 0.315416 0.170809 0.327596 0.338174 1.211938 0.225364 -0.761103 0.214509 -0.547246 0.897556 -0.049077 0.537352
两位 1.441227 2.047494 -0.945006 0.059747 -0.133850 -0.355125 -0.818693 -0.573148 -0.822935 0.584993 0.826406 0.372847 0.419486 0.181799 0.427375 0.421665
一股 1.082072 1.505178 1.455107 -1.354691 0.538299 -0.165079 0.056890 0.206211 1.749130 0.394229 -1.037203 -0.118917 -1.198099 0.605435 -0.437552 0.390227
别 0.830761 2.610620 -0.727093 0.304785 -0.628892 0.116815 -0.529333 -0.322321 -0.710533 0.550054 0.910379 0.795833 0.660532 0.410843 1.292304 0.281021
带 0.584318 2.043310 -0.492130 -0.673096 -0.475805 0.438237 -0.603662 0.267646 0.142452 0.355660 -0.062013 0.629115 0.394206 1.018053 1.344811 0.531961
先 0.969929 2.102096 -0.503130 -0.255397 -0.185416 0.010420 -0.412025 -0.186664 -0.042177 0.488619 0.415344 0.632892 0.227384 0.363048 0.777914 0.394280
剑法 0.947901 1.383094 0.880662 -1.381041 0.849136 -0.074499 0.228703 -0.852537 1.470067 0.539567 -0.497793 0.209773 -1.021946 0.213326 -0.168020 0.771292
伤 0.629956 2.030691 -0.152614 -0.509241 -0.064704 0.125970 0.026724 -0.927602 -0.025026 0.315580 0.367322 0.804715 0.148801 0.219113 0.767082 0.546293
哼 2.415956 1.853905 -0.870127 0.328347 -0.415599 0.492020 -0.741846 0.427474 -1.420987 0.112407 0.338290 0.501270 0.534220 0.903075 0.248005 0.581276
字 0.929550 1.875557 0.007276 -0.137231 0.057977 0.007541 -0.811595 -0.603049 0.047051 0.293038 0.058450 0.302151 -0.239447 0.161079 0.433681 0.238004
暗暗 1.988094 1.407162 -0.204899 -0.217746 0.322666 0.031249 -0.211159 0.166045 0.096634 0.026322 -0.163497 0.478838 -0.089378 0.665026 0.117647 0.966356
怔 2.604039 1.629756 -0.171109 0.207536 0.935574 -0.084759 -0.669397 0.591840 -0.489627 -0.290551 -0.725630 -0.378501 -0.019235 1.678306 -0.822473 1.120830
没有 1.398318 2.247905 -0.913251 0.371103 -0.298007 0.129741 -0.593017 -0.480760 -0.802518 0.318939 0.837263 0.685022 0.483643 0.501583 0.785602 0.470920
伯伯 2.416725 2.375235 -2.060957 -0.036711 -0.802087 -0.907905 -0.557922 -0.167132 -1.594965 0.680287 0.877743 0.905787 1.143381 0.244365 0.898385 -0.360854
扑 1.153323 1.735273 0.996446 -1.273063 -0.058904 -0.227469 0.265929 0.964186 1.762064 0.625222 -0.965551 0.128601 -0.971214 1.260899 0.195721 -0.057103
上前 1.472250 1.553985 0.213478 -0.560847 0.174361 -0.120215 0.007037 0.370544 0.571493 0.498763 -0.313458 0.147802 -0.300533 0.719834 -0.098756 0.338118
摇头 2.092315 1.929604 -1.379877 0.743524 -0.093586 0.312722 -0.665863 0.183527 -1.471268 0.574250 0.944502 0.724258 0.925456 0.956724 0.314460 0.758550
丝毫 0.433028 2.013684 0.989511 -0.627917 0.247115 -0.142962 0.260680 -0.867208 0.575435 0.097429 0.173524 0.532011 -0.315885 0.062019 0.454007 1.115541
早已 0.934404 1.741465 0.631403 -0.749115 0.179180 0.038050 0.105783 -0.259988 0.587667 0.481102 -0.178305 0.413335 -0.313851 0.433246 0.242563 0.656558
一条 0.768852 1.648097 0.706031 -0.859993 0.118609 -0.073716 -0.090487 -0.036205 0.960653 0.344423 -0.491259 0.245183 -0.649541 0.535203 0.110581 0.412907
难以 0.845735 1.780959 0.637590 -0.647266 0.342250 0.014084 0.081283 -0.578172 0.734633 0.177539 -0.062939 0.390739 -0.341341 0.314369 0.134430 0.745878
真 1.026338 2.227004 -0.382770 -0.072212 -0.218493 -0.035884 -0.420454 -0.913733 -0.536599 0.268976 0.781713 0.707353 0.206174 -0.026422 0.882377 0.679412
只觉 0.931104 1.617189 1.073237 -1.027915 0.279098 0.032922 0.133771 0.062685 1.112913 0.070073 -0.856538 0.243611 -0.749562 0.671286 -0.080865 0.397517
这样 0.851984 2.186965 -0.851897 0.051217 -0.314918 -0.067762 -0.775072 -0.919443 -0.662606 0.421976 0.779915 0.697632 0.038317 0.035738 0.945985 0.256296
麻光佐 1.522690 1.619143 -0.204341 0.105008 -0.078097 0.037219 -0.562949 0.229098 0.035282 0.418001 0.230371 0.174892 -0.005311 0.653435 0.029129 0.623563
道士 1.043797 1.695374 -0.461972 -0.303788 -0.130173 -0.289332 -0.520929 -0.392594 -0.163420 0.322705 0.369103 0.335258 -0.162568 0.247613 0.681723 0.248495
心下 1.638943 1.603283 -0.015693 -0.179178 0.311485 0.010583 -0.370355 0.024024 0.327628 0.161285 0.030217 0.380274 -0.167604 0.371020 0.124267 0.903731
不再 1.203030 1.848075 0.167831 -0.085643 0.106198 0.075570 -0.291559 0.041641 0.443479 0.328573 0.098161 0.369408 -0.014206 0.385926 0.267058 0.581212
洪凌波 1.442713 1.637994 -0.114872 -0.307164 0.113813 -0.132125 -0.350282 0.084261 0.408563 0.535959 0.158008 0.190618 -0.174734 0.465719 0.010841 0.495513
鬼 1.754338 1.413494 -0.488343 -0.548700 0.175978 -0.519472 -0.395390 -0.018432 0.076044 0.633621 0.343298 -0.105748 -0.316185 0.376749 0.131832 0.439941
另 0.770915 2.048210 0.293375 -0.691384 0.105675 -0.162414 -0.754608 -0.783889 0.622741 0.338462 -0.092761 0.224978 -0.988069 0.184844 0.458699 0.116968
婴儿 0.891068 1.742413 0.462586 -0.737155 0.105891 0.054736 -0.192177 0.004402 0.756190 0.502668 -0.347842 0.091495 -0.253413 0.545141 0.236326 0.212989
一只 0.933112 1.681097 0.234639 -0.745854 -0.188202 -0.132077 -0.392036 0.428151 0.803326 0.395506 -0.347589 0.136082 -0.415793 0.855847 0.242003 0.164345
瞧瞧 1.142322 2.215745 -0.958451 0.005713 -0.724595 0.219624 -0.329091 0.044349 -0.800318 0.444563 0.323040 0.681522 0.662359 0.929999 1.085050 0.143750
轻功 0.558617 1.626251 0.622254 -0.981737 0.229863 0.080924 0.010379 -0.443488 0.880783 0.427798 -0.391921 0.418002 -0.491033 0.472716 0.190278 0.660903
哥哥 1.684862 2.426972 -1.259515 0.051582 -0.522346 -0.350502 -0.728227 -0.494563 -1.178053 0.586569 0.946481 0.633059 0.537949 0.351983 0.876735 0.187008
年纪 0.926902 1.775083 0.074582 -0.398781 0.242643 -0.006285 -0.128378 -1.110867 0.017813 0.249127 0.246245 0.669285 -0.205681 0.015699 0.511006 0.686748
高手 0.988763 1.533605 0.284693 -0.930601 0.505012 -0.322705 -0.070823 -1.150570 0.696689 0.537794 0.137753 0.322202 -0.639536 -0.014265 0.231207 0.852170
江湖 0.811634 1.501001 0.354109 -0.777716 0.137584 -0.450273 -0.346361 -0.524625 0.761636 0.394559 -0.183279 0.439011 -0.755117 0.242839 0.315671 0.425337
忽然 1.422954 1.570779 0.187575 -0.380322 0.066039 -0.042493 -0.171152 0.157732 0.217496 0.279515 -0.234198 0.138059 -0.302505 0.603987 -0.121599 0.332261
此事 1.043272 1.819414 0.007146 -0.071232 0.177989 0.200317 -0.208830 -0.664732 -0.002787 0.284785 0.378408 0.631546 0.119969 0.129527 0.482501 0.890044
一动 2.011361 1.373972 -0.348877 -0.089527 0.280356 -0.360820 -0.530961 0.323931 0.161951 0.082133 0.001961 0.281670 -0.098819 0.679359 -0.361610 0.537475
最 0.856301 1.572739 0.103130 -0.655080 0.507660 -0.221442 -0.364091 -1.113359 0.390163 0.611750 -0.002647 0.451243 -0.541375 -0.117124 0.353999 0.741070
神色 1.265228 1.585806 0.489467 -0.371713 0.480666 0.208036 -0.201602 -0.101894 0.816420 -0.020724 -0.371471 0.121607 -0.146483 0.334143 -0.282386 0.986276
取出 1.182633 1.679643 0.792603 -1.203844 0.153729 -0.194528 0.069864 0.344449 1.125593 0.438180 -0.839074 -0.012263 -0.966721 0.796264 -0.061223 -0.163014
至 0.781378 1.718443 1.251144 -0.853532 0.504923 -0.297485 0.280159 -0.652861 1.399517 0.922923 -0.592242 0.196432 -0.801688 0.382219 0.127950 0.457153
急 1.303886 1.671242 0.463706 -0.468225 0.094911 0.059273 0.145359 0.224242 0.729964 0.122817 -0.330408 0.332307 -0.289169 0.701249 0.179139 0.532082
言语 0.765416 1.949315 0.427637 -0.107113 0.357232 0.418025 -0.359582 -0.634169 0.406386 0.091781 0.037305 0.261607 0.019147 -0.058325 0.172209 0.950759
老顽童 1.617890 1.841292 -0.762697 0.002380 0.007526 -0.222924 -0.612622 -0.469637 -0.454407 0.557064 0.726064 0.324437 0.237746 0.356887 0.373523 0.581703
一直 1.032174 1.928308 -0.076129 -0.268869 -0.023617 0.050181 -0.223060 -0.347102 0.053908 0.443886 0.218348 0.425991 0.181172 0.459409 0.507378 0.651795
微笑 2.019312 1.847944 -1.136485 0.561546 -0.075396 0.417419 -0.696094 0.384438 -0.996912 0.191527 0.406319 0.641147 0.847535 0.940621 0.372570 0.888340
它 0.735906 1.895088 0.267454 -0.559301 0.081719 -0.173388 -0.089582 -0.269450 0.708607 0.390278 0.080358 0.261825 -0.234584 0.167021 0.253438 0.304926
一会 0.970306 1.984772 0.386607 -0.066461 -0.189972 0.418370 -0.626049 0.022855 0.155407 0.266634 -0.092867 0.343639 0.271135 0.625968 0.485635 0.435729
听得 1.558360 1.693729 0.482565 -0.401708 0.087870 0.263730 0.021966 0.262430 0.181768 0.179177 -0.608903 0.310992 -0.080522 0.888443 0.091224 0.698973
帮主 1.176286 1.666220 -0.345153 -0.479381 0.146917 -0.362750 -0.326248 -1.066852 -0.134057 0.693362 0.404280 0.632202 -0.175157 0.062584 0.591063 0.667719
全 0.990919 1.602772 0.467958 -0.772220 0.484382 -0.139317 0.032479 -0.808969 0.734573 0.375441 0.022664 0.312889 -0.536157 0.078193 0.202408 0.836178
之意 0.930705 1.747659 0.515381 -0.474888 0.375584 -0.021956 -0.103630 -0.589599 0.591757 0.254139 -0.109848 0.295237 -0.225089 0.202320 0.145791 0.824720
心 0.878633 1.578113 0.615513 -0.855813 0.202800 0.092545 0.213332 0.068986 0.898835 0.372386 -0.429562 0.366155 -0.531794 0.627475 0.114460 0.661187
似 0.801052 1.745578 0.479157 -0.469000 0.149152 -0.205291 -0.325879 -0.585332 0.466828 0.080481 0.035967 0.337605 -0.475850 0.157155 0.209174 0.808746
柄 1.226101 1.585254 1.119250 -1.508242 0.589725 -0.164260 0.090525 0.083044 1.553048 0.276574 -1.232990 -0.017215 -1.007259 0.986025 -0.166578 0.278872
此处 0.621548 1.892139 0.206026 -0.320665 -0.049203 0.069796 -0.502803 -0.151449 0.545647 0.761465 -0.061778 0.249278 -0.214183 0.525203 0.175163 0.324468
由 1.080440 1.781916 0.076958 -0.436363 0.005078 0.324613 -0.173037 -0.437632 -0.166337 0.363772 0.058136 0.785732 -0.068088 0.496569 0.574568 0.780741
绝情谷 0.634078 1.726402 0.087926 -0.697723 -0.099623 0.010745 -0.004066 -0.441478 0.499419 0.620214 0.065381 0.549443 -0.315473 0.414265 0.789157 0.258611
再也 0.851948 1.860529 0.672432 -0.333144 -0.037182 0.019914 -0.090456 0.139201 0.494955 0.281405 -0.094093 0.284104 -0.342991 0.393244 0.196709 0.567080
婆婆 1.532411 1.849993 -0.950505 0.001252 -0.032789 -0.390743 -0.682761 -0.670720 -0.543772 0.696580 0.746683 0.620911 0.256256 0.139830 0.771724 0.407791
身后 1.247170 1.634584 0.660394 -0.244895 -0.037931 0.208900 -0.384714 0.621119 0.941955 0.402774 -0.432445 0.041186 -0.456865 0.879705 0.045503 0.563719
几个 0.817770 1.828973 0.443575 -0.477175 -0.003227 0.006100 -0.441273 -0.368745 0.343082 0.373450 -0.096900 0.348629 -0.355027 0.339487 0.409281 0.508102
许多 0.740657 1.764442 0.253491 -0.442896 0.261272 0.230201 -0.432159 -0.833018 0.121070 0.190311 -0.161710 0.562836 -0.071296 0.202070 0.577558 0.612634
是不是 1.385641 2.164058 -0.847275 0.234729 -0.218795 0.194878 -0.666592 -0.407247 -1.016826 0.418800 0.572302 0.605536 0.630445 0.252011 0.747732 0.478210
外 1.091269 1.529169 0.900722 -0.650047 0.199378 -0.065073 -0.071831 0.250309 1.307723 0.546564 -0.639753 -0.004888 -0.780475 0.699969 -0.074927 0.513775
傻蛋 1.759456 2.623163 -1.245220 0.511625 -0.471062 0.132172 -0.869417 -0.128660 -1.286352 0.420837 0.890050 0.576590 1.015472 0.596334 0.639868 0.439857
武敦儒 1.393775 1.747673 -0.240680 0.005074 -0.076416 -0.057609 -0.585421 0.264005 0.098532 0.617668 0.220051 0.111197 0.033565 0.759600 0.032018 0.431963
一句 0.474438 2.476230 -0.181434 0.406080 -0.318264 0.596341 -0.948555 -0.741036 -0.379185 0.170184 0.398472 0.926577 0.730493 0.072785 1.123267 0.889282
回头 1.394551 1.904414 -0.136507 -0.006069 -0.185830 0.145890 -0.255032 0.584540 0.107059 0.261844 -0.087601 0.156031 0.331113 0.878473 0.248100 0.405306
抓 0.605826 1.760269 0.614106 -1.036724 -0.290934 0.052431 0.108191 0.750111 1.196118 0.572894 -0.661713 0.177785 -0.423849 1.268902 0.544826 0.013681
墓 0.567023 1.836452 0.638425 -1.182541 0.098141 -0.130428 0.082396 -0.313150 0.874197 0.725513 -0.322625 0.208797 -0.786236 0.544376 0.251128 0.242786
欲 0.865957 1.887886 0.658723 -0.611985 0.003751 -0.014350 0.147456 -0.148269 0.771383 0.461640 -0.229345 0.484748 -0.289601 0.443789 0.433445 0.368463
高 0.733729 1.730956 0.651575 -0.722283 0.149102 0.099361 -0.003523 -0.611386 0.840217 0.401496 -0.227343 0.409929 -0.415617 0.214217 0.412785 0.706645
之上 0.685362 1.538701 0.775967 -1.160923 0.236023 0.044023 0.204500 -0.146091 1.205629 0.412075 -0.568058 0.162384 -0.627021 0.760651 0.137739 0.629570
妈妈 0.884420 2.396371 -1.155251 0.188824 -0.515553 0.170054 -0.509696 -0.677951 -1.007258 0.501008 0.906657 0.964731 0.748138 0.252504 1.188245 0.442386
杨大哥 1.668096 2.109858 -1.178606 0.546310 -0.379296 0.066707 -0.717173 -0.111358 -1.054735 0.545042 0.843003 0.525937 0.759102 0.602467 0.541652 0.500330
不免 0.913955 1.745520 0.805259 -0.900283 0.492041 -0.018930 0.206106 -0.708472 0.918016 0.354583 -0.180193 0.477636 -0.557316 0.230325 0.287471 0.712485
哭 1.143343 2.091408 -0.166781 0.415808 -0.511191 0.456371 -0.623604 0.314492 -0.478600 0.131512 0.120173 0.477112 0.384810 0.831527 0.628708 0.604071
受伤 0.879575 1.661798 0.344682 -0.487996 0.109033 0.040987 0.085217 -0.314213 0.304604 0.242151 -0.009842 0.459050 -0.186765 0.351858 0.343728 0.630139
祖师 1.291047 1.707478 -0.718774 -0.305754 0.277195 -0.496743 -0.594428 -0.818334 -0.317307 0.706598 0.600811 0.618808 -0.077070 -0.130197 0.433787 0.565958
纵身 1.248409 1.599255 0.822492 -0.936704 0.182841 -0.105114 0.290708 0.591477 1.270507 0.352573 -0.762923 0.119203 -0.673780 0.938860 -0.103684 0.088097
前辈 1.372025 1.716635 -0.760618 -0.164930 0.080235 -0.295823 -0.574576 -0.565668 -0.413313 0.494570 0.501507 0.345003 0.066663 0.085695 0.313481 0.451419
一生 0.915926 1.633278 0.113072 -0.540245 0.356610 0.189885 -0.190916 -0.758506 0.175438 0.193856 0.032105 0.542681 -0.175551 0.095344 0.326477 0.783720
小子 1.472797 1.755602 -0.818512 -0.082876 -0.054206 0.088676 -0.682688 -0.521930 -0.797578 0.184699 0.431380 0.460992 0.642947 0.342254 0.705428 0.845331
玉女心经 1.037577 1.754500 0.144279 -0.878261 0.380554 -0.325807 -0.057646 -0.931295 0.537000 0.716468 0.130075 0.439714 -0.501182 0.022540 0.380971 0.612295
掷 1.084936 1.628170 0.773220 -1.162107 0.084626 -0.139035 0.153667 0.461071 1.526808 0.632510 -0.682473 0.106415 -0.892609 0.955338 0.216768 0.188366
早 0.801565 1.995333 -0.074860 -0.347829 -0.081069 0.091587 -0.153587 -0.425686 -0.116386 0.477189 0.256386 0.572772 0.092478 0.408596 0.651104 0.580364
一掌 0.694825 1.683498 0.530466 -0.893690 -0.013377 0.088662 0.223090 0.110621 0.831075 0.328022 -0.322652 0.289719 -0.227092 0.653529 0.223508 0.340569
世上 0.736210 1.856662 -0.147494 -0.188575 -0.018581 0.127980 -0.484970 -1.087884 -0.322012 0.268355 0.384734 0.709767 0.030799 0.159087 0.736601 0.803062
手指 0.997879 1.701535 0.696718 -0.890470 0.060942 -0.048602 0.213613 0.225947 0.905912 0.309227 -0.624957 0.161548 -0.458377 0.835211 0.037103 0.237069
几句话 0.853104 2.001252 0.448476 0.099838 0.079819 0.998544 -0.808379 -0.275863 -0.184155 -0.197048 -0.488093 0.195929 0.696806 0.171652 0.423122 0.960319
未必 0.429632 2.260401 0.095644 -0.384799 -0.084694 0.060327 -0.108294 -1.274142 0.150700 0.198776 0.776617 0.800152 0.202146 -0.140376 0.901663 0.653637
慢慢 0.806301 1.975705 0.141355 -0.479043 -0.238607 0.135372 -0.225237 0.215169 0.373634 0.401471 -0.243091 0.402767 -0.077299 0.705289 0.534589 0.161588
之前 1.001789 1.585201 0.005840 -0.599999 0.132930 -0.187015 -0.141698 -0.411645 0.384319 0.550766 0.130689 0.389595 -0.430950 0.427895 0.326371 0.517157
逼 0.366992 1.748837 0.933475 -0.630681 -0.163980 0.442836 -0.004736 -0.090087 0.636365 0.589582 -0.302881 0.562224 -0.239338 0.812113 0.593040 0.806633
亦 0.636607 1.807428 0.962623 -0.921554 0.463279 -0.258971 0.250874 -1.087416 0.790324 0.488216 -0.085748 0.492863 -0.665557 -0.075656 0.361263 0.825391
龙 1.776673 2.108940 -1.485531 0.336773 -0.131562 -0.365081 -0.922327 -0.617924 -1.394349 0.542969 1.013550 0.628796 0.487192 0.037736 0.587640 0.469024
撞 0.717097 1.608540 0.852986 -1.137545 -0.137394 -0.000778 0.088310 0.452346 1.434310 0.755626 -0.647529 0.126434 -0.896125 1.120811 0.193670 0.090457
脸色 1.521842 1.599532 0.190690 -0.474049 0.163587 0.007788 -0.039124 0.181176 0.320869 0.169378 -0.268690 0.108644 -0.191007 0.627011 -0.119032 0.525692
郝大通 1.346401 1.368612 0.027566 -0.397822 0.348861 -0.276926 -0.375407 -0.291398 0.513645 0.652261 0.173884 0.028539 -0.263934 0.267975 0.011083 0.751433
及 0.871357 1.694550 0.550429 -0.662591 0.242275 0.111904 0.052622 -0.595468 0.417171 0.512496 -0.149146 0.645697 -0.327022 0.231072 0.452565 0.862386
干 0.941493 2.122118 -1.015939 0.109939 -0.460451 0.280470 -0.489842 -0.312918 -0.855769 0.369957 0.507721 0.801450 0.673584 0.621229 0.983705 0.511723
银针 0.987477 1.608718 0.862873 -1.037791 0.261013 -0.062038 0.005829 -0.016884 1.225880 0.545610 -0.637699 0.105449 -0.923334 0.659007 -0.069174 0.414275
只道 1.102632 1.682640 -0.041143 -0.273267 0.151569 0.205327 -0.120915 -0.272382 0.212160 0.051784 0.044315 0.525542 0.048411 0.218021 0.448480 0.880526
解药 0.666987 2.098223 -0.040382 -0.288233 -0.230582 -0.072351 -0.303233 -0.449443 0.025133 0.612357 0.322385 0.430061 0.128502 0.429351 0.599547 0.428177
送 0.709354 1.958538 -0.287918 -0.561960 -0.247972 0.012016 -0.080707 -0.412660 0.240721 0.502278 0.261513 0.668494 -0.052626 0.383120 0.893602 0.291576
实 0.847133 1.691945 0.690429 -0.874802 0.489666 -0.450203 -0.073472 -1.188417 0.722091 0.270051 0.057216 0.342976 -0.643145 -0.314405 0.216535 1.020274
下去 0.757138 1.993572 0.064816 -0.400934 -0.128764 0.036417 -0.109467 -0.046670 0.285582 0.367622 0.118391 0.292323 0.115348 0.375268 0.388026 0.281702
一片 0.996061 1.758181 0.764058 -0.692428 0.341245 -0.075368 -0.112943 -0.319054 0.896434 0.262931 -0.260924 0.333158 -0.597290 0.290714 -0.013442 0.728944
满脸 1.544957 1.551636 0.470330 -0.354629 0.191940 -0.000377 -0.132755 0.159123 0.499030 0.232774 -0.408409 -0.032258 -0.216896 0.723066 -0.356644 0.548749
怎能 0.889097 2.023073 -0.463652 -0.279764 -0.183083 0.065339 -0.473994 -0.864558 -0.413517 0.275682 0.546840 0.665822 0.228131 0.100138 0.882119 0.614350
之外 0.995277 1.536539 0.432791 -0.822584 0.308936 -0.108326 -0.037647 -0.453891 0.685789 0.363138 -0.352483 0.411428 -0.635936 0.282213 0.229203 0.577745
何以 0.893480 1.848478 -0.040882 -0.333100 0.195324 0.095565 -0.075454 -0.844095 0.056180 0.141791 0.328367 0.627137 0.077014 0.101199 0.545872 0.846903
一剑 0.506860 1.827212 0.703206 -0.940269 0.178227 0.115451 0.117083 -0.588849 0.741915 0.122589 -0.406392 0.422079 -0.193355 0.295960 0.481047 0.649113
四人 1.191966 1.582676 0.428934 -0.745884 0.301025 0.080267 -0.042136 -0.149289 0.724517 0.463941 -0.375436 0.172547 -0.437166 0.561396 0.035944 0.547517
缓缓 1.426831 1.694275 0.225898 -0.529982 -0.029962 -0.088540 -0.098560 0.530023 0.458189 0.501487 -0.355907 0.074054 -0.143285 0.884480 0.038881 0.144491
觉得 0.844459 1.852181 0.486438 -0.322521 0.031287 0.408476 -0.133221 -0.232034 0.056900 0.084224 -0.292916 0.588397 0.061814 0.528148 0.403362 0.866632
之声 1.333985 1.495030 1.065720 -0.476125 0.338681 0.118657 -0.322897 0.287521 1.047526 0.261994 -0.744678 -0.126304 -0.725372 0.535527 -0.380949 0.590802
的话 1.207485 2.524625 -0.426562 0.765772 -0.182031 0.609306 -0.960607 -0.545126 -0.671564 0.081956 0.739156 0.422962 0.796551 -0.138153 0.607657 0.732373
法 1.204341 1.459160 1.142808 -0.572091 0.873054 -0.349559 -0.015062 -1.254696 1.375295 1.194797 -0.351741 0.226732 -0.710067 0.172682 0.229663 0.725886
乃 1.440287 1.371729 0.147681 -0.924727 0.517495 -0.298181 -0.092071 -0.755774 0.400061 0.674704 -0.059905 0.218020 -0.553772 0.076343 0.083440 0.567402
一块 1.026361 1.565081 0.677240 -1.060168 -0.011018 -0.387315 -0.061430 0.490649 1.137368 0.477801 -0.573684 0.028219 -0.874382 0.696982 -0.097827 -0.030729
十分 0.920662 1.826697 0.420630 -0.365626 0.278495 0.162113 -0.264127 -0.705304 0.423014 0.370091 0.008341 0.390027 -0.208109 0.184466 0.214079 0.790053
渐渐 0.933218 1.738455 0.897337 -0.914098 0.273232 0.003014 0.210328 -0.202100 1.084540 0.416065 -0.459516 0.258898 -0.689647 0.469022 0.080035 0.496652
回 0.464165 1.998487 0.245665 -0.644839 -0.355804 0.030817 0.243811 0.064503 0.356650 0.500088 -0.112641 0.548799 -0.083851 0.592376 0.682564 0.096185
一下 1.154976 1.646468 0.124789 -0.603826 -0.064603 -0.073747 -0.064060 0.332713 0.469022 0.379208 -0.357491 0.145119 -0.234861 0.787622 0.037454 0.211538
本 0.805838 1.840370 0.546354 -0.614276 0.216504 0.041348 0.098053 -0.622439 0.643185 0.345674 0.003202 0.474794 -0.354407 0.222770 0.418921 0.753916
正要 1.343798 1.721392 0.382441 -0.331240 -0.117544 0.111959 -0.022071 0.672230 0.493328 0.430308 -0.453270 0.159151 -0.131660 0.887356 0.167594 0.305173
肩头 1.080742 1.538734 0.659718 -0.988589 0.193565 0.112317 0.260080 0.451930 1.006258 0.329167 -0.771964 0.114527 -0.469100 1.058629 -0.127414 0.282108
除 1.139065 1.548445 0.340576 -0.709902 0.415752 0.074658 -0.007615 -0.722295 0.225432 0.459226 -0.167389 0.383003 -0.221380 0.235297 0.230800 0.712223
伸出 1.320346 1.390697 0.802453 -1.113874 0.197618 -0.020350 0.281767 0.660722 1.412908 0.448253 -0.930699 0.069640 -0.845778 1.088165 -0.189915 0.050739
穴 0.872878 1.516549 0.516614 -1.202842 0.326251 -0.079337 0.169575 -0.024612 1.162315 0.524303 -0.497385 0.200207 -0.589061 0.545519 0.103402 0.256119
口中 1.054007 1.778662 0.370158 -0.538995 0.033121 -0.059616 -0.129956 0.122292 0.547083 0.351163 -0.309420 0.218399 -0.313763 0.664193 0.123880 0.420023
拉 0.876444 1.810852 0.131407 -0.815063 -0.234436 0.320397 -0.303488 0.784248 0.730731 0.384391 -0.586560 0.194050 0.106149 1.227737 0.593856 0.324205
转 1.199050 1.727904 0.696450 -0.749964 0.100107 -0.167265 -0.031623 0.221928 0.820212 0.415853 -0.440115 0.172604 -0.542109 0.738464 0.040091 0.340828
头 0.979122 1.744005 0.380112 -0.579232 -0.001938 -0.123889 0.118036 0.138865 0.618052 0.186042 -0.241839 0.206415 -0.248788 0.602038 0.118573 0.292489
奇怪 1.464110 1.579606 -0.342330 0.175727 0.158435 0.053209 -0.410718 -0.301501 -0.292600 0.117257 0.240846 0.423231 0.307690 0.272095 0.061593 0.708171
这一下 1.120297 1.619641 0.743696 -0.868220 0.268963 0.002163 0.142265 -0.268255 0.798760 0.317521 -0.473413 0.370506 -0.520010 0.526141 0.164833 0.658768
身旁 1.176550 1.613792 0.165278 -0.476399 -0.168979 0.107701 -0.198138 0.633855 0.441421 0.381392 -0.599111 0.163190 -0.123985 1.083854 0.140932 0.264870
坐 0.731002 1.658425 0.368803 -0.577285 -0.320716 0.043901 -0.371748 0.567487 0.803889 0.381127 -0.373563 0.196169 -0.268103 1.029830 0.536367 0.441622
一件 0.608120 1.852326 0.145063 -0.393455 0.300665 0.139048 -0.614599 -1.022249 0.012379 0.307673 0.067081 0.802659 -0.338685 -0.163267 0.452022 0.687495
写 0.586147 1.809297 0.249955 -0.571669 0.009793 0.169123 -0.573334 -0.391812 0.494716 0.395283 -0.132708 0.427504 -0.408530 0.404715 0.403139 0.495850
立即 1.021862 1.809895 0.725603 -0.856896 0.148623 -0.156848 0.092914 0.110967 0.959206 0.338609 -0.452602 0.205531 -0.610567 0.667132 0.066498 0.378610
女 1.141782 1.685225 0.011100 -0.631096 0.022979 -0.216877 -0.057837 -0.020398 0.424772 0.434374 -0.153057 0.124379 -0.224688 0.383037 0.169148 0.314435
回来 1.098318 1.929632 -0.455219 -0.107712 -0.265036 -0.008087 -0.123570 -0.103398 -0.426091 0.339393 0.401410 0.538446 0.341498 0.492392 0.694043 0.349974
微微一笑 1.888341 1.604346 -0.593064 0.141710 0.042665 0.096439 -0.437376 0.110199 -0.589409 0.474278 0.165304 0.381075 0.453397 0.810942 0.157995 0.583577
还有 1.079630 1.953865 -0.745312 0.062799 -0.164319 0.122652 -0.643971 -0.578779 -0.571526 0.467737 0.506167 0.576215 0.303106 0.208663 0.549814 0.399167
人人 1.105575 1.722018 0.228861 -0.455475 0.202185 0.270478 -0.211676 -0.611565 0.685429 0.240957 -0.160720 0.327865 -0.339763 0.312214 0.254061 0.935572
伯母 1.969154 2.077795 -1.612671 0.059801 -0.578247 -0.562954 -0.496272 -0.173365 -1.235041 0.480947 0.731931 0.818558 0.923729 0.058274 0.759958 -0.132470
居然 0.785209 1.791796 0.347172 -0.569163 0.241389 -0.064143 -0.098794 -0.836812 0.498370 0.270829 0.059786 0.416473 -0.391546 0.025663 0.354668 0.641617
岂 0.819483 2.031954 -0.254979 -0.113722 0.023464 -0.184584 -0.381151 -0.896636 -0.363591 0.254308 0.624842 0.725381 0.111634 -0.162827 0.705133 0.865997
儿 1.209077 1.996067 -0.782837 0.120921 -0.282902 0.096879 -0.785528 -0.379076 -0.632680 0.349466 0.451646 0.471233 0.358875 0.432271 0.750848 0.505863
到底 1.177334 2.014945 -0.909774 0.007278 -0.202183 -0.073393 -0.634766 -0.926203 -0.835939 0.306089 0.664191 0.686260 0.444882 0.084415 0.862391 0.728665
下来 0.991061 1.788154 0.311572 -0.806148 0.011313 -0.253768 -0.122889 0.044732 0.664305 0.465323 -0.061445 0.126195 -0.350400 0.547219 0.205280 0.252937
各人 1.143948 1.487342 0.664507 -0.563287 0.349886 -0.072167 -0.185152 -0.076041 0.919821 0.350346 -0.422706 0.136279 -0.586229 0.379865 -0.102683 0.601185
身前 1.184275 1.674449 0.490529 -0.727351 -0.087317 0.067931 0.124620 0.611749 0.826478 0.591930 -0.615363 0.180337 -0.374419 1.073516 0.204593 0.077402
之极 0.965246 1.572558 0.443548 -0.599201 0.355778 -0.039000 -0.044784 -0.656545 0.636851 0.273962 -0.107852 0.302070 -0.427904 0.150339 0.043956 0.665071
两 1.020040 1.615621 0.343447 -0.617458 0.158998 -0.080212 -0.235806 -0.223684 0.512887 0.497359 -0.246471 0.231741 -0.368254 0.446827 0.066499 0.501104
好好 0.697513 2.140281 -0.745646 0.078979 -0.597047 0.242236 -0.437133 -0.283357 -0.788050 0.575021 0.599486 0.817657 0.559674 0.499665 1.052501 0.369464
否则 0.754083 1.895472 -0.014472 -0.400964 -0.064374 -0.053528 -0.154482 -0.606589 0.032630 0.361727 0.427424 0.622479 -0.079566 0.074232 0.734938 0.447452
掌 0.915850 1.453000 0.491504 -0.777863 0.215537 -0.086881 -0.108884 -0.216854 0.868533 0.495724 -0.285128 0.149457 -0.507192 0.481642 0.064578 0.460759
一响 1.370057 1.434930 0.857897 -0.817493 0.354293 -0.068912 -0.152087 0.537514 1.384258 0.553011 -1.009286 -0.275375 -0.866440 0.845981 -0.662219 0.229554
片刻 0.796115 1.851403 0.419551 -0.374378 -0.093578 0.044946 -0.262313 -0.127311 0.307652 0.391227 0.043203 0.296086 0.029836 0.569249 0.358529 0.484084
不好 1.354771 1.954420 -0.716211 0.042127 -0.291704 -0.009538 -0.475533 -0.179189 -0.732734 0.413126 0.430311 0.526409 0.412816 0.517509 0.675601 0.377896
齐声 1.698351 1.563389 0.035812 -0.329646 0.143130 -0.110527 -0.432038 0.093485 0.184986 0.454050 -0.146000 0.186440 -0.312403 0.691444 -0.161337 0.622154
姊 1.691520 1.722172 -1.140901 0.082156 -0.228204 -0.260161 -0.521973 -0.312319 -0.945081 0.391149 0.613133 0.590988 0.329951 0.517639 0.546642 0.261994
劲力 0.798891 1.581696 1.013873 -1.177160 0.486665 -0.142692 0.187073 -0.440221 1.334376 0.303160 -0.602591 0.315074 -0.866633 0.382492 0.008887 0.537354
头顶 1.216454 1.515201 0.839391 -0.933289 0.216783 0.090802 0.131339 0.566888 1.189740 0.370532 -0.841327 0.028968 -0.638271 0.883659 -0.134021 0.316778
杨过笑 1.508231 1.975695 -1.322569 0.562107 -0.275931 0.160509 -1.057283 -0.322853 -1.119158 0.603383 1.095550 0.619223 0.581640 0.547990 0.527006 0.612213
声响 1.344955 1.557097 1.205999 -0.503626 0.234226 0.098733 -0.313477 0.667060 1.014469 0.284921 -0.977128 -0.164539 -0.751994 0.946264 -0.420024 0.494120
一位 1.101799 1.775353 -0.533423 -0.321933 0.033069 -0.261056 -0.632004 -0.878051 -0.310386 0.363872 0.398254 0.570105 -0.116661 0.055033 0.663727 0.455100
恨 1.428227 1.623028 -0.813614 0.200819 0.159083 0.240007 -0.595554 -0.088657 -0.557854 0.238371 0.281392 0.494137 0.471572 0.478833 0.277091 0.645369
师 1.881990 1.763992 -1.203459 0.034236 -0.181023 -0.280036 -0.716236 -0.293604 -0.965079 0.465918 0.699499 0.435156 0.341582 0.237508 0.510727 0.301723
兵 1.544887 1.740699 0.281511 -1.582349 0.144287 -0.788262 0.022443 -0.408471 0.775684 0.674352 -0.036018 -0.060929 -0.928933 0.247693 0.059121 0.462243
师兄 1.544309 1.626234 -0.650532 -0.216097 0.002452 -0.289766 -0.499111 -0.577677 -0.423191 0.410384 0.549898 0.424194 -0.040596 0.158191 0.404814 0.500860
老人家 0.830304 1.867813 -0.630799 -0.287176 -0.305507 0.234098 -0.295098 -0.440242 -0.410360 0.329204 0.454072 0.612871 0.313871 0.242259 0.755224 0.423385
急忙 1.563794 1.614946 0.609355 -0.839526 0.183071 0.008678 0.073034 0.499055 0.766966 0.380138 -0.661911 0.139507 -0.536508 0.887038 -0.102358 0.513652
追 0.925098 1.748727 0.235240 -0.519307 -0.329795 -0.078876 0.084445 0.245033 0.444161 0.527852 -0.057176 0.495821 -0.156500 0.789042 0.675029 0.302728
向前 1.150437 1.576220 0.931107 -0.884738 0.186254 -0.006014 0.173657 0.439233 1.044930 0.340937 -0.820889 0.075958 -0.712206 0.865397 -0.132461 0.229455
练 0.536030 1.821180 0.231611 -0.493063 -0.028548 0.138825 -0.322218 -0.512561 0.506757 0.607019 0.105507 0.541225 -0.258584 0.346349 0.759609 0.637756
忍不住 1.440643 1.745095 -0.123485 -0.018395 -0.091178 0.019408 -0.282112 0.182995 -0.040412 0.260238 0.048144 0.251894 0.224256 0.693962 0.270145 0.410511
这是 1.534675 1.687980 -0.646969 -0.138322 0.047346 -0.202072 -0.504508 -0.226062 -0.410109 0.515740 0.282301 0.314385 0.061666 0.421751 0.115780 0.251402
饶 0.665084 2.035411 -0.259422 -0.357840 -0.326797 0.256085 -0.202487 -0.598627 -0.388133 0.119588 0.274067 0.954486 0.270148 0.220814 1.121019 0.785733
命 0.972074 1.761915 0.065574 -0.384826 -0.035824 0.019506 -0.174763 -0.201385 0.212160 0.497347 -0.085336 0.324749 -0.092081 0.440165 0.339283 0.395683
一步 0.967052 1.596658 0.397625 -0.684917 0.010782 -0.110956 -0.031229 0.023683 0.513816 0.294279 -0.096503 0.280825 -0.345159 0.467896 0.243082 0.187803
身边 0.879050 1.613817 0.130748 -0.374081 -0.171032 0.348349 0.125307 0.282714 0.102332 0.253036 -0.409182 0.553977 0.068054 0.881344 0.515281 0.471844
无比 1.006293 1.681243 0.691746 -0.912830 0.419640 -0.020278 -0.004078 -0.471765 0.916062 0.356333 -0.404781 0.302985 -0.683877 0.316762 0.059099 0.601399
飞 1.275111 1.554886 1.085106 -1.297850 0.146859 -0.060769 0.163293 0.570182 1.679847 0.578882 -0.942309 0.088689 -1.097651 1.083516 0.058628 0.235453
来到 1.209653 1.622984 0.844390 -0.890376 0.317285 -0.077740 0.085643 -0.030072 0.831167 0.432846 -0.512580 0.223750 -0.693020 0.538783 -0.024246 0.503758
怎样 1.107604 1.945319 -0.762822 0.053098 -0.222944 0.211346 -0.368880 -0.445347 -0.682422 0.184364 0.538529 0.668329 0.584742 0.275604 0.708245 0.432824
答应 1.219244 1.824015 -0.037967 -0.004204 -0.056027 0.118570 -0.354658 0.132178 -0.149194 0.201534 0.009447 0.370655 0.179314 0.552656 0.327419 0.554826
欢喜 1.124647 1.760518 -0.117860 -0.134474 -0.019664 0.061655 -0.336634 -0.468125 -0.218692 0.252849 0.149604 0.221391 0.187232 0.344882 0.116246 0.557306
群雄 1.225370 1.565535 0.258046 -0.512661 0.236371 -0.120051 -0.219419 -0.215581 0.609539 0.407601 -0.110276 0.233256 -0.468997 0.292569 0.026255 0.570507
点点头 1.880638 1.673908 -0.631798 -0.007886 -0.091356 0.170573 -0.244771 0.284569 -0.529417 0.352464 0.046155 0.406364 0.465157 0.860681 0.410547 0.554932
姊姊 1.327106 2.201147 -0.911914 0.245712 -0.295568 0.061878 -0.729711 -0.469062 -0.904908 0.498965 0.716585 0.550770 0.618113 0.279935 0.651732 0.479610
怒道 1.957554 1.795550 -1.353803 0.444223 -0.310461 0.296396 -0.694553 0.251209 -0.754248 -0.137387 0.498656 1.110981 0.351541 0.452169 1.176041 0.894198
跃起 1.539657 1.456171 0.636894 -0.987374 0.148654 -0.213384 0.271750 0.632233 1.027024 0.424582 -0.726822 -0.021671 -0.652690 0.935365 -0.240394 0.125796
放 0.908093 2.181189 -0.377522 -0.319130 -0.406999 0.264147 -0.295457 -0.062706 -0.379747 0.336272 0.185509 0.617659 0.309515 0.541539 0.888406 0.278713
鲜血 1.134618 1.453188 0.661077 -0.908181 0.216214 -0.194371 0.005859 0.092283 0.912304 0.191451 -0.570318 0.074399 -0.634696 0.646568 -0.017494 0.383710
功力 0.934770 1.600333 0.854965 -0.988816 0.605374 -0.016081 0.300208 -0.870665 0.943543 0.334576 -0.184330 0.444469 -0.528697 0.196450 0.161898 1.052081
其中 1.003657 1.699452 0.539671 -0.607836 0.200217 -0.044992 -0.121375 -0.408067 0.651035 0.487375 -0.057516 0.316698 -0.455655 0.294316 0.253422 0.693879
绝情 1.088952 1.723798 -0.188177 -0.434452 -0.066572 -0.134154 -0.275159 -0.282215 0.119078 0.413151 0.146837 0.372350 -0.073585 0.517211 0.438407 0.256198
几下 1.004412 1.785348 0.713840 -0.606714 -0.017498 0.162370 -0.044660 0.259891 0.735697 0.217888 -0.462394 0.195720 -0.336161 0.682575 0.036480 0.404626
爱 0.719568 2.147272 -0.408596 -0.067459 -0.186656 0.261733 -0.170172 -0.778183 -0.515551 0.321238 0.473025 0.859602 0.482117 0.128366 0.878547 0.632192
纵然 0.569278 1.881109 0.191096 -0.623137 0.078307 -0.183337 0.042577 -0.945167 0.346582 0.390597 0.345406 0.543329 -0.175719 0.001060 0.467710 0.577536
跳 1.448206 1.473171 0.405075 -0.488640 0.023044 -0.245095 -0.058355 0.445356 0.858238 0.390227 -0.400874 0.102593 -0.529779 1.133397 0.003002 0.377605
就算 0.815562 1.969297 -0.217582 -0.218525 -0.167447 -0.005430 -0.275737 -0.701568 -0.263379 0.404788 0.480146 0.633100 0.099287 0.150132 0.699372 0.471245
闪避 0.820419 1.644125 0.956874 -0.766364 0.179700 0.066488 0.254384 -0.052640 0.901129 0.277592 -0.488274 0.287541 -0.452539 0.538040 0.077479 0.580774
一面 0.882387 2.112165 0.003322 -0.176088 -0.102346 0.123064 -0.351484 -0.035416 0.103682 0.375043 0.043202 0.378833 0.218133 0.305702 0.386108 0.238468
喝 1.288615 1.800240 -0.027015 -0.082775 -0.348403 0.119968 -0.423371 0.238206 -0.220484 0.296170 0.087744 0.265558 0.137460 0.710481 0.331160 0.311611
王重阳 1.166792 1.368978 0.069982 -0.643127 0.481368 -0.442667 -0.218577 -0.586002 0.750225 0.611821 0.130393 0.298339 -0.641621 0.054858 0.093768 0.687549
暗器 0.999954 1.553895 0.352960 -0.587563 0.242762 -0.074206 -0.159419 -0.410103 0.590533 0.300557 -0.094962 0.318229 -0.497043 0.285099 0.164518 0.498109
退 1.149888 1.489994 0.454346 -0.621004 0.051505 -0.173138 0.053627 0.304140 0.698791 0.520531 -0.316596 0.196244 -0.365665 0.813452 0.057853 0.353059
不少 0.740903 1.717004 0.506879 -0.696160 0.294509 -0.085318 -0.324850 -0.939842 0.526321 0.262416 0.021779 0.403256 -0.485623 -0.008464 0.325207 0.659602
心念 1.590395 1.371448 -0.117248 -0.288793 0.137983 -0.060718 -0.118120 0.213733 -0.038714 0.151466 -0.360701 0.252494 -0.305366 0.659682 0.087525 0.308500
人物 1.050009 1.453581 0.020973 -0.731828 0.417775 -0.364726 -0.314600 -0.988618 0.449453 0.579243 0.156621 0.164801 -0.544854 -0.040901 0.096627 0.593207
古墓派 1.052815 1.336000 -0.141672 -0.638458 0.421651 -0.381240 -0.299507 -0.886887 0.278692 0.609760 0.116735 0.325605 -0.477581 -0.168623 0.269397 0.684631
每 0.717465 1.659897 0.816467 -0.754020 0.393839 0.362888 -0.223174 -0.520567 0.880132 0.129678 -0.647821 0.356744 -0.740080 0.339675 0.138736 0.726412
但觉 1.089908 1.655197 1.041432 -1.006145 0.381846 0.073017 0.235597 0.011796 1.116027 0.182501 -0.674082 0.226908 -0.618163 0.593283 -0.082865 0.556827
半晌 1.564492 1.613143 -0.130189 0.034176 0.004529 0.130879 -0.627699 0.226498 -0.156786 0.371301 0.103908 0.196102 0.233500 0.655911 0.091757 0.389891
传 0.803692 1.620387 0.032349 -0.653236 0.122546 0.161196 0.090780 -0.795731 0.029542 0.295270 0.069469 0.728207 -0.155377 0.037824 0.582353 0.667934
当时 0.812561 1.624721 0.346799 -0.523780 0.240813 -0.004343 -0.065906 -0.607438 0.409737 0.453624 0.038803 0.473195 -0.216417 0.249672 0.285663 0.703011
妹子 1.040557 1.904510 -0.507925 -0.102742 -0.217749 -0.037363 -0.343298 -0.319401 -0.391694 0.407189 0.306514 0.339378 0.351322 0.353093 0.422350 0.279101
背上 1.059004 1.683333 0.675159 -0.946262 0.088417 0.082859 0.091337 0.267100 1.042338 0.391690 -0.612391 0.166011 -0.546551 0.799614 0.016860 0.346726
帮 1.101909 1.805655 -0.655871 -0.271888 -0.191551 -0.054709 -0.404370 -0.584035 -0.454979 0.387547 0.401966 0.665753 0.196333 0.238049 0.688969 0.530506
算 0.614292 1.871561 -0.129098 -0.021441 -0.414347 0.331429 -0.437305 -0.278514 -0.228608 0.290491 0.448468 0.775865 0.240818 0.490154 0.926378 0.615969
情花 0.979257 1.653577 0.163860 -0.662030 0.185875 -0.178608 -0.115283 -0.496790 0.309637 0.496017 0.015486 0.343820 -0.285373 0.384398 0.126908 0.409738
终南山 0.795446 1.480981 0.222732 -0.706227 0.020759 -0.133733 0.018325 -0.191322 0.503722 0.660376 -0.169248 0.414994 -0.425383 0.632401 0.386979 0.219522
上来 0.724321 1.876239 0.396570 -0.645069 -0.087465 -0.026975 -0.053355 -0.004371 0.358664 0.304118 -0.084756 0.311920 -0.199659 0.553702 0.366549 0.319042
再说 0.858131 1.811262 -0.173232 -0.305888 -0.066138 0.075541 -0.227256 -0.391124 -0.159522 0.267405 0.142096 0.546884 0.086006 0.282417 0.597266 0.537756
反而 0.900176 1.733261 0.331455 -0.487381 0.039427 0.031013 -0.088335 -0.268400 0.267279 0.417061 -0.035765 0.417724 -0.231666 0.294940 0.303794 0.445118
一点 0.723040 1.768902 0.348677 -0.663723 0.056174 0.006544 0.012397 -0.324652 0.508148 0.233178 -0.069749 0.441383 -0.245996 0.407746 0.404704 0.427618
模样 1.264965 1.601568 0.022891 -0.347562 0.284993 -0.075601 -0.268907 -0.504870 0.364168 0.281724 -0.033035 0.235514 -0.279425 0.269509 0.115845 0.670481
武林 1.191902 1.572414 -0.157982 -0.545106 0.183969 -0.212635 -0.363852 -0.699653 0.027283 0.454015 0.278770 0.445408 -0.319794 0.041380 0.416425 0.516218
渔网 1.152339 1.625588 0.504974 -1.017446 0.361741 -0.281616 -0.124697 -0.282468 1.074452 0.501241 -0.350617 0.081354 -0.666602 0.453733 -0.049158 0.547189
孩儿 0.853545 1.752990 -0.518342 -0.113120 -0.158861 -0.021229 -0.354933 -0.646842 -0.429164 0.456826 0.376409 0.536771 0.263816 0.223265 0.733588 0.350229
动 0.787938 1.732017 0.633705 -0.681037 0.117284 -0.067904 0.359167 -0.155886 0.390038 0.245260 -0.057847 0.513777 -0.341702 0.344292 0.244021 0.826329
吓 0.357291 1.892059 0.934679 0.051828 -0.370125 0.782187 -0.354985 0.199035 0.130565 0.397531 -0.429996 0.712543 0.019449 1.136953 0.432083 1.185233
好生 1.193983 1.712245 0.148784 -0.212311 0.204228 0.153892 -0.340910 -0.252668 0.094023 0.207871 -0.072760 0.444444 -0.058529 0.404557 0.220273 0.710550
异常 1.092962 1.574426 0.748911 -0.727765 0.365456 0.007681 -0.106159 -0.262003 0.752148 0.277538 -0.521734 0.302841 -0.595833 0.508717 -0.031199 0.705260
嗯 2.064485 1.622306 -0.752615 0.214873 -0.105771 0.120674 -0.585749 0.147035 -0.977451 0.260022 0.200680 0.442059 0.426123 0.681029 0.099144 0.613759
爬 0.751643 1.538076 0.629509 -0.813576 -0.389051 -0.149712 -0.068046 0.452101 1.120300 0.329837 -0.445562 0.379744 -0.618879 0.979725 0.561058 0.342396
脚步 1.049956 1.485853 1.052393 -0.459405 0.079979 0.218997 -0.190697 0.420281 0.779092 0.174755 -0.633333 0.042968 -0.527535 0.628975 -0.126521 0.582427
隐隐 1.092983 1.510825 1.001774 -0.627502 0.293946 0.075641 -0.170937 0.013367 1.098655 0.165467 -0.564991 0.089267 -0.655342 0.368344 -0.103047 0.592826
无不 1.345935 1.549701 0.683066 -0.635821 0.443297 -0.082665 -0.170585 -0.273217 0.857508 0.441172 -0.259584 0.129535 -0.613116 0.252537 -0.134327 0.692419
重伤 0.678265 1.671156 0.715959 -0.681327 0.235802 0.081231 0.176192 -0.713808 0.631574 0.368531 -0.149066 0.521793 -0.291979 0.174704 0.404660 0.665476
摔 0.730829 1.549514 0.811745 -0.961811 0.030835 0.002523 0.140533 0.125830 0.979820 0.387292 -0.538513 0.201192 -0.584159 0.798002 0.163073 0.247404
远 0.604661 1.690328 0.969396 -0.610073 0.076615 0.147305 0.081156 -0.324172 0.620815 0.344583 -0.323634 0.384213 -0.294160 0.450722 0.291292 0.842654
小心 1.202009 1.669551 -0.591247 0.106851 -0.247591 -0.031047 -0.458176 0.166818 -0.409257 0.336599 0.408425 0.470011 0.242555 0.483915 0.442857 0.454867
生平 0.994388 1.546168 0.319230 -0.511866 0.343213 0.058770 -0.078932 -0.674990 0.421903 0.396912 -0.059239 0.511168 -0.345703 0.112416 0.370811 0.758753
一番 0.913270 1.673461 0.243477 -0.583315 0.190428 0.084902 -0.111177 -0.506986 0.294053 0.301081 -0.116850 0.439205 -0.058011 0.273637 0.362732 0.637296
三个 1.057204 1.643973 -0.135291 -0.336077 -0.046011 -0.155676 -0.421759 -0.167161 0.049619 0.339870 0.142034 0.282721 -0.157410 0.303002 0.413780 0.264521
良久 1.127245 1.666838 0.485236 -0.339937 0.090801 0.055933 -0.299902 -0.112915 0.402634 0.320573 0.002450 0.227748 -0.191696 0.483879 0.233820 0.593622
尚未 1.156599 1.626901 0.656497 -0.564032 0.267716 0.159684 -0.070877 -0.005486 0.574543 0.310815 -0.518877 0.316709 -0.319734 0.566713 0.135519 0.606626
提起 1.056780 1.472360 0.577872 -0.821625 0.149466 0.130628 0.172985 0.164288 0.625313 0.161441 -0.478735 0.184760 -0.347152 0.648255 0.046605 0.369353
神情 1.154350 1.531044 0.197057 -0.526992 0.401089 0.007195 -0.092411 -0.350377 0.698418 0.316835 -0.264657 0.094642 -0.176935 0.432815 -0.128246 0.695610
手腕 1.279179 1.563479 0.803856 -1.034523 0.190452 -0.051119 0.288035 0.404039 1.111548 0.283403 -0.819795 0.126904 -0.572956 0.867113 -0.070147 0.174990
怀中 1.165018 1.652338 0.540541 -0.880837 0.129636 -0.132204 -0.057627 0.352244 1.049052 0.466623 -0.629685 -0.066085 -0.652466 0.781240 -0.009026 0.105417
背后 1.049207 1.623173 0.646528 -0.332345 -0.102713 0.252880 -0.205215 0.370606 0.558363 0.347397 -0.384435 0.089962 -0.230751 0.766188 0.168173 0.521068
远远 1.036754 1.658270 0.775212 -0.390998 -0.009314 0.126686 -0.078889 0.353653 0.703143 0.381122 -0.422634 0.219692 -0.274008 0.667178 0.124826 0.530125
老 1.094200 1.914819 -0.407496 -0.136124 -0.087994 -0.172550 -0.510332 -0.631418 -0.378032 0.334637 0.502960 0.450328 0.162012 0.178925 0.484013 0.465646
师妹 1.470207 1.691984 -0.828678 -0.004503 -0.042743 -0.143570 -0.573822 -0.383240 -0.531022 0.421933 0.549762 0.399756 0.240361 0.219310 0.445373 0.479777
作 0.830377 1.628034 0.170639 -0.536026 0.049395 0.047417 -0.036588 -0.555392 0.204233 0.191494 -0.008087 0.510841 -0.189269 0.152937 0.372662 0.514013
古怪 1.030057 1.451052 -0.005998 -0.299762 0.134168 0.045313 -0.359403 -0.504214 0.070183 0.228240 0.085298 0.245908 -0.089964 0.146368 0.148827 0.671763
喜欢 0.498417 2.181266 -0.285153 -0.052844 -0.267579 0.311289 -0.329524 -0.720203 -0.563688 0.408111 0.484803 0.710703 0.451478 0.221005 0.762950 0.520955
生怕 1.244562 1.786518 0.343515 -0.602942 0.182755 0.213418 0.070352 -0.237364 0.299114 0.219466 -0.319817 0.438191 -0.102280 0.545718 0.323743 0.717173
长 1.123606 1.469888 0.099766 -0.468974 0.214915 -0.152423 -0.260792 -0.336538 0.455536 0.535981 -0.057383 0.182789 -0.365444 0.361504 -0.003641 0.374468
伤心 0.730471 1.710203 0.143535 -0.281096 0.033853 0.140800 -0.098603 -0.581095 0.038199 0.348437 0.072871 0.594382 0.042139 0.303311 0.561178 0.589275
沉吟 1.703814 1.501380 -0.282670 0.061849 0.017695 -0.033242 -0.352221 0.187393 -0.357414 0.362335 0.135849 0.197051 0.123531 0.710152 0.078018 0.410601
慈恩 1.168206 1.496556 0.084618 -0.313788 0.106799 -0.125342 -0.241833 0.020873 0.435684 0.414578 -0.014522 0.112276 -0.161718 0.418453 -0.006302 0.447148
一口 1.361541 1.568491 0.271718 -0.493155 0.047368 -0.088659 -0.163601 0.067826 0.405766 0.330686 -0.254120 0.158688 -0.420647 0.587460 -0.010137 0.283409
