5577 16
： 1.729997 3.375526 -2.675099 -1.693016 2.155365 1.522902 2.658006 1.027396 -4.425916 0.776895 1.220268 -3.192564 2.106884 1.475707 -0.512948 -2.548478
的 0.765340 2.097189 -0.787794 -1.624510 -0.306139 0.811724 -0.381188 -1.370736 -1.018522 -0.747650 -1.174641 0.475442 -0.626671 -0.594180 0.158859 -0.574567
他 0.242269 2.676208 0.186158 0.351186 0.800450 -1.571757 -0.322011 -0.662984 0.397481 0.430468 1.324274 1.071687 0.245244 -0.837360 -0.030262 0.225635
道 3.338474 2.994400 -5.293780 1.209946 -0.559367 2.170631 1.750695 1.619784 -1.627455 -1.851300 2.053260 0.532632 -0.920715 0.070313 1.409954 -0.851883
我 0.113780 3.556319 -2.542473 0.172861 0.446171 -1.535193 -0.055662 -0.967091 -2.255713 0.813282 2.520340 0.651249 1.708468 -0.811642 1.153457 -0.537253
你 0.660475 3.750124 -3.494745 0.312609 0.554272 -1.291164 0.201550 -0.863843 -2.720624 0.659755 2.513320 0.556044 1.718829 -0.758300 1.266270 -0.939600
是 1.784508 1.935093 -1.508380 -1.055679 -0.004487 0.883983 0.834559 -2.976419 -1.750495 -1.271653 0.403049 0.053858 0.559033 0.605511 -0.276310 1.301281
在 0.092470 1.527220 0.541290 -1.046259 0.728088 0.086025 1.148286 0.573345 0.756533 -1.297541 -1.725415 2.129757 0.729001 1.097492 -0.337692 -1.045029
郭靖 0.444473 1.997443 -0.311491 1.256079 1.348242 -0.478895 0.168391 0.276427 -0.580657 1.248723 1.071048 0.409292 -1.004897 0.610350 -0.493009 -0.213659
也 -0.058935 2.740700 -0.556803 -1.187136 0.058786 -0.251223 -0.540235 -0.826277 -1.064554 -0.219187 1.656361 1.091458 1.025987 -0.770889 1.397283 0.975131
黄蓉 0.328841 2.162879 -0.435948 1.926758 1.110149 -0.447690 -0.002815 0.134823 -1.209165 1.509499 1.214602 0.368406 -0.887276 0.788301 -0.381268 0.075400
这 0.420674 2.502259 -1.430341 -0.338618 0.672493 0.047024 -0.731481 -1.333287 -1.684429 -0.138881 0.202606 0.333104 0.227053 -0.711745 0.073970 -0.019961
又 1.024817 2.291554 0.436045 0.632062 0.831865 0.544031 -0.919627 0.341359 -0.839845 -0.205920 0.883214 0.132664 -0.168640 0.137244 0.697449 0.735908
不 0.662599 2.374996 -1.080699 -0.112147 0.994136 -0.341201 -0.403384 -0.442837 -0.413056 -0.411305 1.841100 0.925971 1.564141 -0.307278 0.874566 0.554032
那 0.106309 2.202330 -1.181752 0.102322 0.682110 0.499874 -0.461735 -0.681458 -1.899333 0.227313 -0.080856 0.536604 -0.362506 -0.430603 0.178721 -0.525516
得 1.849562 3.427345 0.826796 1.802933 -0.964539 -0.935809 -1.564317 1.150440 0.130813 -0.666213 0.562780 -0.738544 1.536047 0.584229 0.517446 0.789014
去 -0.830907 2.124074 -1.192699 0.066109 -0.025682 -0.725821 1.192324 1.370370 0.093268 0.709289 0.557087 1.413026 0.662836 0.516264 0.511892 -1.106847
说 0.782863 2.930274 -2.664275 0.652004 0.364123 0.063366 -2.048437 0.240872 -1.555181 0.746143 1.603769 0.307743 1.869218 0.014557 2.207138 1.375160
却 0.486209 2.456855 0.901856 0.059807 0.510987 -0.099492 -0.666862 -0.502566 0.733513 -0.825913 1.012736 0.961683 0.270125 -0.187798 0.353762 1.796686
来 -0.184199 1.921773 -1.531542 0.300137 -0.244248 -0.787002 0.986751 0.788702 -0.423118 0.751831 0.653062 0.894984 0.489611 0.954068 0.753888 -0.710421
着 0.769105 2.724340 -0.089341 1.389716 -0.350881 -0.760501 0.876790 2.625487 0.694333 -0.010308 -1.345625 0.828224 1.081994 -0.074395 -0.626101 -0.946074
上 -0.258953 1.890636 0.658420 -0.307640 -0.016134 -0.736611 0.263123 -0.221158 1.239787 0.726462 -1.644030 0.827878 -0.910141 1.693105 -0.587772 0.111283
中 0.332045 1.757070 0.839374 -0.570500 -0.223287 -0.698680 -0.106865 -1.218861 1.255354 0.225204 -2.003464 0.813140 -0.879848 1.425713 -0.292282 1.346933
都 0.061703 2.505275 -0.020226 -0.353106 0.174267 -1.069526 -1.282575 -1.028067 -0.629560 -0.434682 -0.672241 0.939097 -0.378402 -0.427796 0.179578 0.812988
听 0.289967 3.192041 1.797061 2.745855 -3.237552 2.349560 -1.590991 0.951184 -1.717697 0.397700 -0.367222 -0.459181 2.031666 3.543699 1.002028 1.837281
见 0.235739 1.450323 1.181003 -0.213114 0.146999 2.379636 0.161219 0.189667 0.756982 -0.446188 -0.751315 1.628217 0.318088 1.676782 0.739611 0.944981
与 1.561517 1.067834 -0.403409 -0.805449 0.929131 3.115782 1.224788 -0.271696 0.273379 -0.474844 -0.838372 0.712457 0.140862 1.275787 0.187702 0.918499
将 -0.242571 1.526233 0.416379 -0.785524 -0.172294 0.426772 1.042830 0.036326 1.715273 -0.218757 -1.337577 1.448978 0.186467 1.856737 0.428754 -0.140284
有 0.548827 2.147236 -0.178996 -0.437934 0.220656 0.749103 -0.913189 -1.668827 -1.166546 -0.687491 0.106396 0.660431 0.647107 0.015699 0.311959 1.164120
已 -0.288891 2.264252 1.995405 -0.128093 0.226717 -0.555898 -0.714911 -0.838779 1.558903 -0.180476 -0.701530 1.596376 -0.192135 1.183826 -0.202216 0.834562
到 -0.705092 2.314387 -0.094236 0.388023 0.009011 -0.652768 0.616478 1.326306 0.510284 -0.529574 -0.878968 1.232885 0.973537 0.636424 0.924634 -0.862782
但 0.790781 2.478436 0.452550 -0.609397 0.889506 -0.057317 -0.851305 -1.018214 0.857686 -0.488564 0.875354 0.894731 0.033700 -0.821974 0.017721 1.626863
叫 0.649320 1.690290 -2.026324 1.596637 0.150455 2.030802 0.591358 0.834602 -2.850618 0.826833 1.073555 0.807126 -0.135255 1.721925 0.783115 -0.184782
人 1.011220 2.216030 -0.662051 0.315315 1.065143 -0.413737 -0.454645 -2.774445 0.855216 0.994559 0.064390 0.188393 0.999286 -0.886448 0.730983 0.962013
就 -0.718577 2.643872 -1.828191 -0.062969 -0.280262 -0.962065 -0.076316 -0.554642 -1.008312 0.056190 1.328404 0.880809 1.522149 0.223761 1.343057 -0.039330
要 -0.212366 2.280049 -1.541401 -0.540456 0.426534 -0.481476 0.401906 -0.805211 -0.962261 0.421661 1.080639 1.095950 1.453922 -0.074003 1.184396 -0.598257
给 0.116181 2.035919 -1.128531 -0.171846 -0.348742 0.421055 0.263782 0.365647 -0.548949 -0.839241 -0.054524 0.707958 1.917845 0.965447 0.897552 0.272435
只 2.127159 2.812021 0.239397 2.016792 0.732218 -0.519348 -2.340051 1.607684 0.997301 -0.371332 0.414306 -0.526615 1.038956 0.839544 -0.022628 1.164341
向 0.333791 1.075585 -0.003845 0.731574 0.592598 2.430560 2.189339 1.981160 0.586980 0.220482 -1.208162 1.383859 -0.831901 2.355442 -0.103918 -0.502569
说道 1.691935 1.825654 -3.578308 1.639140 -1.053374 1.271177 0.162067 0.752117 -1.110912 -0.751933 1.092921 1.858955 -1.534835 0.290892 1.399720 0.077711
好 1.110827 3.382637 -2.983738 0.859279 -0.665875 -0.334026 -0.104698 0.030328 -3.003607 0.354608 1.689405 -0.384998 1.164155 0.584160 0.896662 -0.496415
师父 0.979270 2.526227 -2.924637 -0.004397 0.706452 -0.386430 0.149120 -1.188111 -1.834396 0.800930 1.342779 0.381503 0.916069 -0.570169 0.494026 -0.680609
洪七公 0.859509 2.035600 -0.854853 1.265693 1.331704 -0.235076 0.198402 -0.090703 -1.180344 1.108413 1.040492 0.322686 -1.315459 0.232205 -0.563397 -0.109292
欧阳锋 0.678175 2.205184 -0.023672 0.996858 1.469522 -0.264472 -0.118445 -0.367073 -0.551828 0.917648 0.523266 0.230540 -1.036125 0.278608 -0.760558 0.295097
自己 0.134992 2.288837 -0.080373 -0.498928 0.924972 -1.139866 -0.262287 -1.247277 0.272098 0.282194 0.776492 0.906012 0.289072 -0.411299 0.020620 0.717115
一个 -0.159821 2.133970 -0.073923 -0.127565 -0.324816 -0.411579 -0.879196 -0.792787 -0.143242 0.280226 -1.590916 0.808680 -0.298155 0.314251 0.234857 0.263574
地 -0.065789 2.403208 0.240920 0.512032 -0.200256 -0.839877 -0.029024 1.202532 1.412032 0.955306 -0.679817 0.259316 0.062048 1.141249 0.288170 -0.082424
便 -0.574096 1.964999 0.122510 -0.097275 0.423222 -0.726655 -0.109039 0.345686 0.265500 0.595278 0.001269 0.785304 -0.082617 0.726812 0.664515 0.092001
再 -0.177226 2.555423 -0.841544 0.143891 0.267001 -1.115793 -0.061087 0.180603 -0.199894 0.107258 1.478491 0.727235 1.196077 0.020645 1.446951 -0.597429
之 -0.623939 2.072727 -0.226521 -0.497342 2.374897 3.072378 -1.951927 -3.125511 -0.084962 -0.234749 -2.963542 2.524710 -1.358918 -1.711006 -0.256833 1.601323
黄药师 0.525952 1.883280 -0.531149 0.483690 1.391205 0.020239 0.084214 -0.881931 -0.855588 1.036642 0.696259 0.790120 -1.218058 0.026841 -0.343055 0.333956
和 0.597789 1.418658 -1.608816 -1.061783 -0.048648 1.273020 1.196828 -0.738355 -0.693744 -0.435236 -0.381067 0.720704 1.083985 1.129655 0.751416 0.166592
一 0.341716 1.585732 0.831382 -0.124129 0.989066 0.292532 0.367699 0.990601 0.996605 0.486188 -1.075834 0.743085 -0.824936 2.024399 -0.898464 0.288280
过 0.888618 2.530451 0.259002 1.292200 -0.240630 -0.246720 -0.442269 0.902242 0.208654 -0.283748 -0.149408 0.251327 0.854693 0.109069 0.655072 0.923116
对 0.770537 1.912856 -1.373883 0.024645 0.573247 1.536516 0.195364 -0.470853 -1.434429 -0.248872 0.889930 1.048442 1.090569 0.068863 0.698367 1.094656
武功 0.653437 1.823710 -0.718490 -1.247483 0.323216 0.699621 -0.590789 -2.383340 -0.649366 -0.765363 0.366745 1.125295 0.625204 0.266986 0.294648 1.698517
为 0.457327 1.710298 -0.679426 -1.372670 0.598303 1.996291 -0.069128 -2.046685 -0.551667 -0.600765 -0.557049 1.517531 0.467609 -0.287708 0.648341 1.193435
跟 -0.155198 2.673592 -2.730219 -0.627975 -0.400027 1.062788 0.350978 -0.767369 -2.165097 -0.351883 0.693291 0.888689 2.453271 0.398359 1.907690 0.297346
把 -0.128593 1.798561 -0.976930 -0.450605 -0.736453 0.161847 0.519838 0.020248 -0.204696 -0.350055 -0.100001 0.630699 1.188494 1.444556 0.744178 -0.169141
还 -0.270577 2.708461 -1.670890 -0.040331 -0.250122 0.016458 -0.212225 -0.593610 -1.766472 -0.082802 1.287985 0.781619 1.304502 -0.195442 0.998827 0.261530
而 -0.276383 1.451277 0.807142 -0.276698 0.970734 -0.062210 -0.132992 -0.088840 1.595955 1.093162 -0.950881 2.193527 -0.571433 0.883498 1.231856 0.219974
大 0.742938 1.932394 -0.923654 -0.914784 0.134684 -0.129701 0.091435 -1.028208 -1.382221 0.482787 0.115259 0.007294 -0.172071 0.510296 0.019058 -0.424282
两人 0.163603 2.014886 0.871278 0.053882 0.290935 -0.594643 -0.028486 0.024469 1.242173 0.613902 -0.939588 0.651187 -0.514305 1.075076 -0.004944 0.368715
啦 0.432978 2.896061 -3.400414 0.409877 0.045890 0.136287 1.019167 0.604242 -2.556829 0.333254 1.984588 0.452198 1.181924 0.581952 1.571276 -0.816278
心中 1.204709 1.853551 0.271289 0.671608 0.244620 1.064196 -0.184597 0.256599 0.060123 -0.202624 0.364488 0.417304 -0.625423 0.693132 -0.070504 0.976726
从 0.042727 1.719858 1.454442 -0.441621 0.290921 0.708958 0.458632 0.813108 2.116811 0.085851 -2.169140 1.641071 -0.926855 2.101014 0.090368 -0.007386
咱们 0.105160 2.967104 -2.879948 0.290473 -0.100653 -0.572424 0.087044 -0.511981 -2.382715 0.566125 1.606241 0.636287 0.953071 -0.035296 1.391313 -0.617214
笑 0.889238 1.919437 -2.260278 1.547293 0.778141 1.996347 0.826792 0.270314 -3.362030 0.852492 0.971561 0.711045 -0.473948 1.396001 0.319639 0.145213
周伯通 0.911823 2.252369 -0.647358 1.049588 1.170809 0.019323 0.117777 -0.329041 -1.709049 0.984799 0.830111 0.017563 -0.960611 0.363218 -0.482368 -0.217044
一声 2.330882 1.715695 0.055055 1.653320 0.179733 -0.549310 0.961931 0.770239 0.314913 0.626305 -1.028188 -1.004895 -0.945128 3.089561 -1.597968 -0.693993
下 -0.165287 1.821097 0.428254 -0.197858 0.065865 -0.291919 0.518455 0.253208 0.981259 0.829952 -1.445509 0.755048 -1.199829 1.534126 -0.344060 -0.163566
什 1.232066 2.860883 -2.113983 0.116634 0.725133 0.454241 0.188244 -1.007196 -2.748851 -0.356322 1.577213 -0.068097 0.962349 -0.412312 0.718840 0.550239
他们 0.122028 2.548211 -1.584748 0.012764 0.461115 -1.050050 -0.129741 -0.966401 -1.348298 0.626014 1.205641 0.576216 0.698292 -0.295094 0.745585 -0.136733
丘处机 0.709420 1.730037 -0.513754 0.584022 1.647585 0.203634 0.196861 -0.698447 -0.857871 1.141645 0.396858 0.415991 -1.107704 0.214048 -0.565469 -0.187223
打 -0.747313 2.121208 -0.574556 0.302340 -1.210260 -0.112524 -0.348630 -0.014484 -0.413679 0.229001 0.389937 1.142982 1.430973 1.618720 1.318892 0.078426
心想 1.482341 1.680290 -2.164674 0.916789 0.020446 1.583331 0.094635 -0.350543 -0.607872 -1.060009 0.858026 1.319806 -0.483683 0.118286 0.924541 1.074078
想 0.376726 2.224594 -1.176842 0.254821 -0.397443 0.859943 -0.582104 -0.835604 -1.100554 -0.795290 0.899131 1.425340 1.108406 0.055550 1.355140 1.179153
不知 0.605365 2.261081 -0.258974 -0.405468 0.491788 0.457080 -0.904059 -1.155457 -1.062934 -0.663873 0.750284 0.821573 0.663741 -0.171372 0.644471 1.423302
瞧 -0.551294 1.832835 -1.442740 0.161824 -0.341038 0.388072 -0.147149 0.133525 -0.664996 0.711463 0.706846 0.975306 1.479392 1.211887 1.677019 0.956073
等 0.335491 1.488690 -0.624146 -0.348547 0.426560 1.534653 0.280416 -0.778185 -0.485544 -0.199278 -0.627478 0.704285 0.882729 1.002192 0.604635 1.023745
可 0.113032 2.529359 -1.796115 -0.567167 0.251062 0.056877 -0.132998 -1.056403 -1.325428 -0.229315 1.194879 0.592865 1.430059 -0.082435 1.073433 0.326403
不是 0.968983 2.454004 -2.324048 -0.848835 0.649260 1.001909 0.491249 -2.067961 -2.316278 -0.770736 1.572105 0.919399 1.583085 -0.226909 0.793682 0.423952
功夫 0.599679 1.822402 -1.189193 -0.636995 -0.001279 0.183729 -0.150250 -1.756241 -0.961722 -0.735383 0.366412 0.883300 0.879561 0.588776 0.500716 0.881542
没 0.422265 2.455909 -0.841349 -0.010154 0.265527 -0.060020 -0.855782 -0.952557 -0.608724 -0.500104 0.749679 0.972332 1.366791 -0.120348 0.970998 0.713683
出 -0.301244 2.182890 1.738440 -0.611679 0.260828 -0.374167 0.490867 0.840769 2.269999 0.384639 -1.561118 1.473577 -0.595671 1.508310 -0.248092 0.152590
啊 1.807748 2.970039 -3.070361 0.523035 0.148996 1.111080 0.721632 -0.294688 -3.653329 -0.131443 1.334272 -0.144223 0.118094 0.425363 0.490732 -0.433165
知道 0.653955 2.168681 -1.885302 -0.414310 0.079646 0.967270 0.346430 -0.567523 -1.480475 -0.596317 1.194716 0.989655 1.310171 0.277024 0.932890 0.788233
吧 0.061122 2.512419 -2.971940 0.516270 -0.081352 0.311459 1.002563 0.621302 -2.185959 0.394453 1.175098 0.648930 1.158871 0.852281 1.550839 -0.919903
走 -1.006789 2.388283 -1.441647 0.766753 -0.770181 -0.244690 -0.037504 1.538455 0.052894 1.110675 0.408735 0.874583 0.815132 1.521398 1.608798 -0.740118
谁 0.938820 3.083674 -2.564636 -0.579203 0.536275 -0.360723 0.152093 -1.464449 -3.049747 -0.404380 1.482276 0.346691 1.010546 -0.685073 0.998690 0.181542
欧阳克 0.265441 1.979770 0.587851 0.600620 1.082937 -0.273893 -0.019606 -0.179907 -0.092039 0.965927 0.067547 0.624343 -1.038016 0.656786 -0.459215 0.053794
爹爹 0.654769 2.837222 -2.580681 0.017685 0.600047 -0.033628 -0.031143 -1.206546 -2.432065 0.227414 1.564459 0.359410 1.668433 -0.267454 1.000410 0.102378
梅超风 0.540075 1.803339 0.247156 0.457810 1.175030 -0.575905 0.045762 -0.452803 0.178859 0.919821 -0.020227 0.409735 -0.977049 0.540431 -0.577655 0.049457
这时 0.766588 2.129230 1.017295 0.057326 0.617374 0.177817 -0.507255 0.120321 1.429430 -0.007809 -0.387313 0.711309 -0.236270 0.909739 0.053430 1.001793
时 0.669713 1.907638 0.676298 0.070207 0.992234 0.366889 -0.394078 -1.596209 2.020526 1.333817 -0.751810 0.843552 0.257880 0.239622 0.305018 1.123944
后 -0.107511 2.036182 1.197023 -0.428760 0.683257 -0.288662 0.163415 0.060461 1.671576 1.213870 -1.328311 0.912460 -1.022070 1.454204 -0.171528 0.067389
以 0.532183 1.923500 0.576892 -1.106981 0.976486 0.143242 -0.257309 -1.829544 0.513155 0.031764 -0.777987 1.152046 -0.456028 -0.182101 -0.047941 0.869880
吃 0.037518 2.374978 -1.207654 0.711057 -0.630967 0.337729 -0.127807 0.151549 -1.378077 -0.413741 0.898952 0.521121 0.920000 1.053275 1.104941 -0.056685
只见 -0.015032 1.877613 1.163775 -0.240717 0.278721 0.704823 0.689265 0.852986 1.876394 0.575273 -2.012897 1.304631 -1.168229 2.210531 0.061411 -0.130386
不敢 0.257572 1.889966 0.023892 0.072573 0.289882 0.172427 -0.157053 0.093385 -0.021861 0.192695 0.411452 0.884538 0.371923 0.667030 0.532253 0.381783
倒 0.170018 2.101783 -0.713555 -0.032037 0.104185 -0.127877 -0.154873 -0.377955 -0.286820 -0.198644 0.401420 0.835532 0.818286 0.284995 0.634418 0.426962
死 -0.146182 2.386522 -1.284582 -0.514344 -0.122167 -0.273449 -0.238074 -0.783587 -0.914836 -0.010989 0.719911 0.947587 1.498493 0.105093 1.019026 0.684815
柯镇恶 0.573149 1.869941 -0.450985 0.687757 0.932117 -0.148605 -0.092695 0.049092 -0.686231 0.941111 0.314711 0.175294 -0.373974 0.686191 -0.067117 -0.132418
我们 0.207824 2.512754 -2.174469 0.006307 0.392147 -0.406377 0.015816 -1.033923 -1.819829 0.398397 1.218792 0.762921 0.601728 -0.326818 0.916500 -0.206412
竟 0.012364 2.225376 0.823062 -0.251468 0.402724 -0.373811 -0.501941 -0.627763 1.072707 -0.021083 -0.017441 1.170052 0.171971 0.385177 0.464615 0.943342
裘千仞 0.618105 1.876388 -0.400383 0.597343 1.013847 0.070336 -0.072573 -0.718694 -0.833812 0.611890 0.556010 0.691895 -0.780293 0.298667 -0.223249 0.365550
出来 0.232877 2.417035 -0.781452 0.192272 0.149439 -0.473700 -0.116200 -0.066137 -0.591928 0.205677 0.525448 0.527029 0.635267 0.208165 0.410141 -0.089522
身子 -0.129454 1.852691 1.356226 -0.250819 0.472482 0.271983 0.412660 0.526033 1.727436 0.590165 -1.073011 1.273676 -0.693195 1.785443 -0.132263 0.223595
之中 -0.064627 2.004884 0.670240 -0.498194 0.224692 -0.436212 -0.291405 -0.712867 1.087801 0.506868 -1.192607 0.638601 -0.404277 1.027184 -0.106434 0.749690
起 0.160328 1.995335 0.851570 0.581947 0.142158 0.033195 0.984892 1.761701 0.960231 0.823385 -1.052663 1.024263 -0.669368 1.921776 -0.448488 -0.571910
不能 0.078677 2.284338 -1.195882 -0.474362 0.370814 -0.015649 -0.331926 -1.228980 -0.803354 -0.254341 1.061403 1.086133 1.315010 -0.089239 0.975594 0.560419
做 0.274147 2.428303 -2.226878 -0.431457 0.056310 0.311512 0.196566 -1.264002 -1.910695 -0.255078 1.133842 0.900218 1.395330 0.089659 1.033707 0.230211
让 -0.110995 2.046204 -1.336220 -0.358903 -0.223268 0.505765 0.113767 -0.220239 -0.806648 -0.180138 0.307372 0.905917 1.298298 0.764825 1.133248 0.205791
虽 0.210640 2.079979 1.012438 -0.491375 0.324475 0.422485 -0.761181 -0.906780 0.348691 -0.239719 -0.133374 1.167979 0.217004 0.356417 0.327700 1.280796
若 0.287391 2.365007 -1.096234 -0.507278 0.513750 0.141383 -0.059779 -1.494118 -1.535863 -0.136584 0.980100 1.120682 0.497443 -0.569805 0.465743 0.472464
能 0.196703 2.319869 -0.808362 -0.368043 0.138641 -0.215521 -0.621371 -0.996183 -0.575182 -0.364248 0.753222 1.017283 1.092174 0.037511 0.919883 0.621816
如此 0.880728 2.148452 -0.313223 -0.141796 0.628581 0.209672 -0.578655 -0.794985 -0.309499 -0.219683 0.562706 0.462879 0.665166 -0.017148 0.242953 1.034706
你们 0.291192 2.815836 -2.786146 0.262453 0.111151 -0.385255 0.253248 -0.500515 -2.183178 0.360694 1.501209 0.597826 0.763595 -0.094036 1.005257 -0.499407
成吉思汗 0.732870 1.959823 -0.542207 0.199165 0.922005 -0.264631 -0.177038 -0.851780 -0.583886 0.805924 0.168894 0.484705 -0.687742 0.114982 -0.265773 0.183494
快 0.180868 2.945498 -2.538312 1.059743 -0.273455 -0.193423 0.465258 0.684281 -2.005747 0.545040 1.547417 0.376868 1.301415 0.619731 1.443288 -0.870242
待 -0.040224 1.964812 -0.368317 0.447262 -0.542251 0.493199 -0.446145 0.669455 -0.290812 0.181211 0.361347 0.641152 0.746043 1.276040 0.898487 0.403423
拿 -0.586435 1.507095 -0.305049 0.123028 0.082817 -0.089237 0.685830 0.555260 0.734304 1.062589 -0.398255 1.361197 0.106552 1.634578 0.939683 -0.110758
左手 0.037527 1.909653 1.435977 -0.331377 0.525163 0.477404 0.922404 0.711276 2.056056 0.739404 -1.670401 1.348900 -1.099399 2.249796 -0.401193 -0.001918
个 0.706219 2.123259 -0.654812 -0.446066 0.379958 -0.292302 -0.374094 -1.024385 -1.018143 -0.248830 -0.004535 0.490174 0.190441 -0.224704 0.280621 0.582094
这里 -0.536664 2.562740 -2.333575 0.311871 -0.366907 -1.144910 -0.603165 -0.610878 -1.451484 1.182960 0.586212 0.012815 0.924626 0.427205 0.879207 0.152684
杀 -0.273646 2.206788 -1.858798 -0.530171 -0.136547 0.418609 0.244023 -1.055292 -1.169956 -0.088759 0.815284 1.296202 1.609419 0.248785 1.370122 0.280958
铁木真 0.657192 2.132149 -1.027616 0.246700 0.947260 -0.391658 0.130386 -0.772593 -1.195226 0.789029 0.560487 0.370358 -0.331004 0.012736 -0.113740 -0.105963
原来 0.789136 1.821125 -0.877401 -0.268595 0.458830 0.460919 0.192071 -0.804241 -1.075248 -0.053310 -0.047694 0.458824 -0.261155 0.372724 0.109792 0.342656
才 0.250667 2.310224 -0.887640 0.303625 0.108502 -0.311700 -0.461840 -0.232587 -0.954989 0.464636 0.747423 0.513344 0.426605 0.354402 0.794531 0.295456
怎 0.882864 2.717956 -2.259060 0.478114 0.600892 0.872547 0.378035 -0.514621 -2.600827 -0.129203 1.892412 0.445273 0.890849 0.235988 0.738550 0.108346
突然 0.669322 2.067204 1.584428 0.098499 0.425482 0.333048 0.195771 0.629269 1.826881 0.563873 -1.428379 0.875111 -1.377236 1.829845 -0.539700 0.158428
完颜洪烈 0.516579 2.016092 -0.659688 0.652383 0.853924 -0.177391 0.072759 -0.528710 -1.046904 0.981278 0.461715 0.271416 -0.519641 0.404024 -0.147447 0.174881
儿 1.323732 3.582538 -4.327765 0.359430 -0.034098 -0.720628 1.348590 -0.230389 -3.082605 1.638441 2.017546 -1.463757 1.937760 0.496799 1.804878 -0.727088
无 0.398787 1.980954 1.127336 -0.389273 0.719834 0.446444 -0.494943 -0.828638 1.254399 -0.101388 -0.402649 1.300579 -0.112733 0.536276 0.193113 1.173774
地下 -0.313451 2.302122 1.200067 -0.347267 0.386855 -0.948714 0.182591 -0.005067 1.639205 1.473653 -1.763856 0.544171 -1.264308 1.805411 -0.678053 0.175464
就是 0.723003 2.016606 -1.976238 -0.179450 0.314925 0.400791 0.377409 -1.006307 -1.549124 -0.179712 0.706414 0.561030 0.915691 0.267729 0.602088 0.163419
二人 0.110162 1.876830 0.285970 -0.162293 0.440330 -0.006697 0.122082 -0.474479 0.431124 0.528634 -0.307314 0.825189 -0.348783 0.751278 -0.036011 0.310086
蒙古 -0.026872 1.911906 0.273508 -0.493291 0.550194 -0.523905 -0.340446 -1.027689 0.411599 0.676683 -0.739103 0.919371 -0.447288 0.573408 0.084185 0.411989
事 1.323434 2.038395 -1.515835 0.550629 1.032837 0.569869 -0.220008 -2.365006 0.101548 1.006515 0.925619 0.763237 1.327661 -0.622978 0.992373 1.128140
众人 0.789803 2.025473 0.743954 0.390505 0.429043 -0.287522 -0.098407 0.044132 0.709998 0.472521 -0.360981 0.466652 -0.686077 0.939414 -0.219138 0.634706
弟子 0.702012 1.992025 -1.259425 -0.426515 0.806701 0.394075 0.380925 -1.122471 -1.565975 0.468651 0.604962 0.464181 0.092137 0.053726 0.169459 -0.178796
请 0.316457 2.395135 -2.766989 0.108157 0.254871 0.494197 0.577877 -0.201074 -2.248740 0.437533 1.217797 0.490213 0.963666 0.230624 1.060537 -0.745761
双手 0.163606 1.817105 0.977614 -0.328068 0.580781 0.186867 0.640897 0.187832 1.357493 0.652375 -1.198356 1.008472 -0.992027 1.627456 -0.326394 -0.050939
杨康 0.623655 2.090799 -0.282586 0.305945 0.834801 -0.205884 0.087460 -0.158092 -0.332368 0.787275 0.242620 0.168568 -0.412294 0.397178 -0.194476 -0.073552
甚 1.007267 2.201395 -0.031044 -0.405680 0.737454 0.161696 -0.605996 -0.911195 -0.924802 -0.231998 0.027000 0.330902 -0.437825 -0.363426 0.095757 0.888294
如何 0.320265 2.128708 -0.042329 -0.119013 0.126465 0.587583 -0.347538 -0.711453 -0.202624 -0.198827 0.553432 0.882765 0.454154 0.228159 0.671368 0.943380
身上 -0.036000 1.712505 0.007078 -0.475725 0.037257 0.261591 0.239862 -0.192818 0.710490 0.191657 -0.560945 0.803429 0.274298 1.237621 0.295452 0.448728
穆念慈 0.542800 1.955537 -0.658366 0.986096 0.755588 0.200449 -0.056714 -0.184263 -0.837797 0.566362 0.593569 0.740887 -0.483307 0.379363 0.081349 0.382457
如 0.073901 1.889426 -0.081175 -0.259789 0.265038 0.267521 -0.223616 -0.540647 0.146967 0.092737 0.040760 1.116435 0.239023 0.389201 0.362804 0.473397
站 -0.247951 1.717326 -0.239653 0.668421 -0.469868 -0.023335 0.550990 0.995690 1.110152 1.467167 -0.655571 0.948451 -0.646790 2.439013 0.757347 0.160432
更 0.327086 2.048649 0.558544 -0.348112 0.349669 0.166147 -0.206451 -0.244613 0.607031 -0.008032 -0.062531 0.802292 -0.173433 0.568532 0.259944 0.746717
兄弟 0.640310 2.283736 -2.073009 0.193551 0.246727 0.007774 -0.074949 -0.779820 -1.704237 0.180249 1.065332 0.420189 0.536164 0.080583 0.664994 -0.079632
多 0.394625 2.230642 -0.626305 -0.101992 0.229834 0.250477 -0.582370 -0.746885 -0.689816 -0.236254 0.445101 0.728197 0.740277 0.111914 0.551156 0.715735
不禁 1.138128 1.930106 0.423666 0.354187 0.720717 0.260904 -0.082644 0.048683 0.286067 0.142256 -0.167577 0.196612 -0.679844 0.753492 -0.325376 0.452876
很 0.934184 3.089077 -1.452572 0.227157 -0.549818 0.326111 -0.991372 -0.488928 -2.126746 -0.341635 1.279806 -0.112289 1.390200 0.572165 0.866515 0.712977
见到 0.299452 1.831362 -0.659099 -0.323076 0.104500 0.892508 0.368926 -0.238083 -0.266013 -0.151935 -0.134368 0.742423 0.453099 0.832347 0.532280 0.316051
正是 0.932544 1.543619 -0.701137 0.303058 0.369475 1.314988 0.554830 -0.084580 -0.481587 -0.015092 -0.371949 0.650893 -0.327708 1.173800 0.041933 0.213745
右手 0.013659 2.092331 1.428086 -0.452294 0.595558 0.133026 0.809156 0.509664 1.898692 0.778495 -1.557062 1.290333 -0.985857 2.074778 -0.358327 -0.149006
完颜康 0.666984 2.184694 -0.988641 0.720415 0.962267 -0.164946 0.085225 -0.340402 -1.127608 0.878612 0.752423 0.185777 -0.230568 0.291051 -0.035124 0.002654
问 0.919258 2.252698 -2.316998 0.998914 -0.094633 1.355866 0.343791 0.015678 -1.965816 -0.321593 1.448316 0.844437 0.670226 0.498251 1.224472 0.459455
一阵 0.758653 2.100696 1.102272 0.652695 0.238573 0.061213 -0.340642 0.806685 1.133951 0.419617 -0.641948 0.597176 -0.545918 1.619602 0.009876 0.413140
问道 1.422648 2.104470 -2.741272 1.281357 -0.146906 1.430298 0.253484 0.017994 -1.784309 -0.599274 1.276888 1.049590 -0.302223 0.255602 1.028896 0.573548
之后 0.088330 1.947226 -0.416576 -0.400314 0.185189 -0.002415 -0.162993 -0.588506 -0.046783 0.248449 -0.003776 0.851434 0.383364 0.506651 0.557848 0.418102
两个 0.337391 2.128926 -1.366619 -0.063064 0.013410 -0.009449 0.067990 -0.687334 -1.023880 -0.018627 0.231224 0.521586 0.568223 0.521272 0.548725 0.199621
忽然 0.662150 1.792942 -0.071125 0.221560 0.406883 0.312200 0.227679 0.226470 0.130543 0.447119 -0.286813 0.280599 -0.521840 1.030972 -0.135588 -0.081597
哪里 -0.312279 1.920092 -1.133424 0.313091 0.012696 -0.408726 -0.263456 -0.177577 -0.498210 0.652126 0.427269 0.618954 0.481801 0.934354 0.887084 0.268170
老 0.796941 2.826671 -2.597183 -0.566033 0.123503 -0.635352 0.372334 -1.023253 -2.545508 0.138909 2.318152 0.961896 1.268864 0.106086 0.803956 0.254730
喝道 1.133894 1.786202 -2.591704 1.622214 -0.481490 1.153736 0.224053 0.271796 -1.237417 -0.437608 1.010668 1.508201 -0.611686 0.460870 1.038035 0.389398
蓉 1.275920 4.181962 -3.695037 1.086770 0.083507 0.394231 0.947356 -0.099551 -2.882208 0.695855 3.060471 -0.429632 0.594527 -0.403148 0.887637 -0.374313
伸手 -0.210750 1.863252 0.242529 -0.009100 0.234706 0.175434 0.648030 0.750576 1.114295 0.743372 -0.784297 1.215974 -0.424079 1.555879 0.304588 -0.270537
仍 0.140417 2.018732 0.643716 -0.298807 0.415398 -0.025137 -0.295791 -0.199311 0.555292 0.231969 -0.286240 0.867738 -0.121094 0.723280 0.177974 0.571839
脸上 0.427533 1.917363 0.598331 -0.058635 0.300564 0.326541 0.140214 0.117611 0.723403 0.381126 -0.483908 0.628314 -0.443491 1.119169 -0.066406 0.497329
今日 0.481446 2.229048 -1.630488 -0.083326 0.463993 0.130448 0.056355 -0.989919 -1.448122 0.246320 0.954975 0.591011 0.519669 -0.086184 0.577670 0.130517
起来 0.634768 2.208474 -1.072222 0.532264 0.075929 -0.158898 0.468531 0.559695 -0.812623 0.197254 0.685260 0.270395 0.251112 0.691305 0.308785 -0.365609
只是 0.347120 1.958167 -0.650755 -0.420377 0.432892 0.177840 -0.032832 -0.755391 -0.199713 -0.094843 0.216156 0.841142 0.400276 0.319824 0.437280 0.407767
叫化 1.329769 3.069243 -2.737833 -0.339087 -0.214238 -0.235779 -0.310300 -1.565185 -2.685611 -0.167741 1.983341 0.643997 1.375705 -0.225147 0.556746 0.609290
陆冠英 0.611749 2.009389 -0.595205 0.575705 0.979947 -0.074458 0.025723 -0.368468 -0.899686 0.903529 0.427650 0.483172 -0.792792 0.283434 -0.168285 0.044564
彭连虎 0.763859 2.021208 0.067088 0.739965 1.043413 0.236248 -0.077266 -0.488561 -0.149026 0.547529 -0.090241 0.703048 -0.926545 0.453502 -0.277768 0.477316
眼见 0.290572 1.846672 0.661846 -0.261333 0.293722 0.558474 0.175896 0.126789 1.081228 0.038646 -0.713970 0.983928 -0.377941 1.245932 0.197679 0.519871
用 0.203080 1.765098 -0.499327 -0.492891 0.290363 0.011721 0.356846 -0.546360 -0.206086 0.221445 -0.242429 0.660504 0.080074 0.744175 0.321778 -0.003956
里 -0.283419 1.967426 0.486332 -0.410132 0.358235 -0.660621 0.135173 -0.122053 0.940720 0.937733 -1.176736 0.611792 -0.450861 1.308142 -0.056450 0.001888
拖雷 0.692193 2.039948 -0.569884 0.675380 1.024005 -0.321030 0.125207 -0.453881 -0.610043 0.886298 0.450777 0.397496 -0.678954 0.249379 -0.179104 0.052394
所 0.610550 1.894343 0.167640 -0.440395 1.008894 0.055063 -0.178493 -1.454647 0.260851 0.424378 -0.405476 0.817940 -0.153577 0.069812 -0.038778 0.675910
使 0.199950 1.895093 -0.003597 -0.496963 0.307269 -0.061729 -0.082414 -0.927549 -0.036837 0.026309 -0.292064 1.053505 -0.087972 0.516178 0.283194 0.532536
小 0.632278 2.004496 -0.798504 -0.005653 0.248330 -0.353778 0.024787 -0.587247 -0.786620 0.170972 0.403251 0.370914 0.322717 0.355459 0.119182 0.210829
性命 0.150783 2.100016 -1.203366 -0.590954 0.054596 0.289394 0.153797 -0.862373 -0.652118 -0.264450 0.834095 1.182431 1.099678 0.280222 0.870765 0.420670
看 -0.051987 2.081395 0.095882 0.542817 -0.460890 0.719021 -0.517166 0.166359 -0.128999 0.133245 0.021213 0.953118 0.628203 1.318900 0.874398 0.817212
自 0.427973 1.892824 0.122778 -0.376266 0.651559 0.414463 -0.001786 -0.669807 0.112702 0.082908 -0.225912 0.930678 -0.266655 0.372790 0.151769 0.540518
杨铁心 0.533641 1.914499 -0.754115 0.695461 0.663618 -0.034345 0.230399 -0.123466 -0.766930 0.684583 0.555329 0.363370 -0.603418 0.445758 -0.001242 -0.102961
呢 0.836017 2.565910 -2.578706 0.192515 0.257340 0.738014 0.499175 -0.304061 -2.302701 0.019934 1.432696 0.383393 1.029101 0.210209 0.961550 -0.127150
连 0.694972 2.021870 -0.606685 0.127691 0.259434 0.280232 0.162573 -0.058342 -0.045519 -0.287269 0.378091 0.674629 0.273201 0.506704 0.353277 0.229844
不过 0.501731 2.455637 -1.223631 -0.111890 0.085808 -0.178544 -0.261227 -0.950619 -0.872466 -0.435004 0.927515 0.783663 1.316886 0.089216 0.857824 0.568446
只怕 0.203601 1.952081 -0.587210 -0.091098 0.170295 0.397148 0.031865 -0.367540 -0.297261 -0.102291 0.388251 0.990951 0.431120 0.466082 0.683278 0.331926
知 0.601598 1.942897 -0.257888 -0.364699 0.292864 0.838144 0.176129 -0.255040 -0.005079 -0.285953 0.077993 0.673289 0.611312 0.621441 0.476991 0.619841
忽 2.362851 3.277594 1.088864 2.103379 0.643351 -0.656061 -1.894534 1.847395 1.655237 0.465485 -0.105383 -0.507272 -0.101680 1.282416 -0.311646 0.972593
可是 0.360387 2.014885 -0.905860 -0.220609 0.116991 0.338786 -0.253771 -0.668922 -0.567820 -0.296326 0.525694 0.913714 0.745301 0.188327 0.746045 0.557876
说话 0.581444 2.052061 -0.589762 0.560704 0.240545 0.278990 -0.392656 -0.167991 -0.222805 0.108780 0.517719 0.675271 0.312661 0.338457 0.522462 0.696907
话 0.610179 2.513608 -0.872849 0.865822 -0.136431 -0.184163 -0.926691 0.039202 -0.496318 -0.188255 0.817483 0.590826 1.042268 0.001729 1.093309 0.763834
梁子翁 0.449082 1.863382 0.460654 0.426588 0.726161 0.128213 0.069456 -0.121435 0.684328 0.656663 -0.475881 0.814448 -0.881451 0.842270 -0.137396 0.361685
一招 0.348089 1.644353 0.402644 -0.411197 0.386934 0.396856 0.302925 -0.316054 0.662102 -0.121489 -0.679922 0.892694 -0.115668 1.168454 0.003028 0.341704
不住 0.351038 1.953101 0.422723 0.095515 0.512244 0.226649 0.400589 0.513515 0.747874 0.586987 -0.531038 0.694514 -0.496220 1.243803 0.001372 0.016424
当 0.566824 1.735680 -0.521324 -0.248891 0.230426 0.690100 0.188290 -0.646951 -0.433206 -0.102551 -0.075616 0.784002 0.124247 0.608213 0.299956 0.287849
江南 0.646058 1.741372 -0.735393 0.007743 0.550086 0.058176 -0.432224 -1.192475 -0.238812 0.778298 -0.053734 1.005698 -0.254111 0.314148 0.269928 0.648757
桃花岛 0.175204 1.801423 -1.274365 -0.141245 0.346885 0.090280 0.017366 -0.843993 -0.900044 0.378388 0.361838 0.746994 0.162035 0.244728 0.687817 0.198854
会 0.251305 2.251682 -1.399466 -0.337654 0.045722 -0.106565 0.032094 -0.726640 -1.039147 -0.168732 0.892288 0.767289 1.075632 0.101124 0.883591 0.221363
此时 0.172978 2.039588 0.595262 -0.420309 0.617831 0.031889 -0.015258 -0.289585 0.940333 0.347553 -0.468366 0.893002 -0.305447 0.915314 0.061654 0.545540
六怪 0.821871 1.743474 -0.110968 0.143801 0.859358 0.430311 -0.094989 -0.901228 0.030484 0.462956 0.140720 1.072214 0.068402 0.482342 0.295261 0.055445
敌人 0.074479 2.055149 0.733213 -0.353142 0.532235 -0.398466 -0.087068 -0.443161 1.083652 0.447726 -0.561976 1.121296 -0.462558 0.791716 0.000570 0.380623
难道 0.621597 2.319436 -2.020495 -0.117202 0.330766 0.417901 0.043749 -1.219160 -1.587722 -0.237364 1.081630 0.836114 0.876650 -0.141393 0.819177 0.433987
姑娘 0.998539 2.783171 -2.545412 0.345292 0.505960 0.142835 0.371112 -0.688692 -2.388852 0.177178 1.468716 0.074963 0.528220 0.104428 0.556068 -0.226459
于 0.179856 1.816697 0.267377 -0.639869 0.410362 0.582242 0.003299 -0.527326 0.506945 -0.005377 -0.573201 1.131991 0.050437 0.715281 0.303441 0.549620
一般 0.477642 1.851922 0.164567 -0.304936 0.569059 -0.042762 0.090945 -0.401436 0.306833 0.192267 -0.295120 0.600916 -0.129589 0.640486 -0.031951 0.250736
一灯 0.767022 2.001647 -0.644463 0.758568 0.692298 0.255593 0.214274 -0.219618 -0.946109 0.674022 0.677749 0.548694 -0.790015 0.396753 -0.167045 0.133341
之下 0.249022 1.980007 0.769317 -0.309476 0.497955 0.367017 0.219793 0.072218 1.026615 0.446818 -0.978680 0.905273 -0.772614 1.320982 -0.177315 0.244423
师哥 0.653454 2.274805 -1.738588 0.035725 0.236890 0.169701 0.202965 -0.581176 -1.668007 0.116922 0.666124 0.390545 0.606929 0.130523 0.550159 -0.102932
后来 -0.020092 2.143671 -0.937409 0.013327 0.280987 -0.299908 -0.512167 -0.579288 -0.318450 0.552229 0.255046 0.636757 0.238035 0.366040 0.590398 0.354845
声音 1.360391 2.361578 -0.624162 1.040763 0.412604 -0.116737 -0.496160 0.175313 -0.697647 0.354886 0.437156 -0.312322 0.044686 0.629099 -0.048524 0.362319
既 0.478142 2.299690 -0.859404 -0.037272 0.456420 0.230332 -0.181298 -0.730136 -1.031131 -0.197796 0.993306 0.779325 0.719033 -0.107351 0.620846 0.577013
手 0.340177 1.739275 0.013487 -0.125302 0.369223 0.161817 0.699766 0.416259 0.647304 0.413929 -0.642517 0.763234 -0.105203 1.575662 0.108016 -0.049303
当下 0.188287 2.062467 0.004108 -0.044090 0.503057 -0.133077 -0.015523 -0.163645 0.221807 0.453226 -0.050035 0.770726 -0.142060 0.513855 0.203130 0.170577
不到 0.348975 2.061065 -0.469318 -0.069436 0.194794 0.077539 -0.179676 -0.286791 0.000614 -0.145679 0.315015 0.789678 0.550026 0.314765 0.523155 0.457461
曾 0.801539 2.272142 -0.387864 0.300166 0.860135 -0.039485 -0.859971 -0.716596 -0.187397 0.205388 0.069671 0.489661 0.449373 0.072039 0.129756 0.685504
朱聪 0.679269 2.057707 -0.186529 0.411193 0.909099 -0.194378 -0.026979 -0.372519 -0.264290 0.583516 0.154994 0.435686 -0.477820 0.400651 -0.207228 0.113920
找 -0.479731 2.130061 -1.838054 -0.157403 -0.375258 0.343989 0.231137 -0.386404 -1.160949 0.114232 0.808240 1.262858 1.496933 0.654814 1.680833 0.187088
王处一 0.611779 1.910664 -0.555257 0.410305 0.895325 0.147459 0.187636 -0.384039 -0.672513 0.726249 0.206486 0.455051 -0.627371 0.384359 -0.170742 -0.025881
并 0.141785 2.188463 0.330044 -0.354906 0.276696 0.027503 -0.080882 -0.337658 0.341699 0.147930 0.338928 1.310861 0.061503 0.122221 0.366445 0.807899
不可 0.303396 1.980398 -0.605335 0.012977 0.279397 0.342549 0.001373 -0.288661 -0.403619 0.065879 0.364102 0.819345 0.285392 0.475585 0.470260 0.306434
这个 0.542150 2.203572 -1.522655 -0.126758 0.416315 0.177160 0.026495 -0.682728 -1.506056 0.092954 0.851326 0.369944 0.659935 0.158258 0.521739 0.059304
派 0.258151 1.841388 -1.112514 -1.004062 0.559311 0.801069 0.292385 -1.508388 -0.962159 0.249881 -0.070884 1.063241 0.107871 0.038368 0.425636 0.316463
跟着 0.063851 1.679245 -0.225725 -0.040190 0.253969 0.480111 0.447680 0.181154 0.113708 0.257465 -0.278212 0.933978 0.062959 1.185181 0.393408 0.002180
九阴真经 0.558485 2.131520 -0.713842 -0.180228 0.523818 -0.143688 -0.136217 -1.009324 -0.712798 0.138610 0.276592 0.657835 0.181645 0.219916 0.267599 0.224643
当真 0.410271 2.121216 -1.192220 -0.058050 0.323123 0.244150 0.066403 -0.666640 -1.119060 0.055574 0.561090 0.582809 0.419751 0.236607 0.610767 0.176016
想起 0.831050 1.756144 -0.415530 0.200357 0.391883 0.983824 0.374686 -0.094278 -0.118442 -0.028842 -0.010292 0.764466 -0.241686 0.883552 0.177751 0.396007
厉害 0.490547 2.062687 -0.538785 -0.154624 0.102809 0.151171 -0.410665 -0.832770 -0.670144 -0.323429 0.550518 0.673617 0.423009 0.195587 0.517746 0.658668
住 -0.217037 1.873763 0.201988 -0.125200 -0.140666 -0.017085 0.154299 0.213226 0.411357 0.427581 -0.504767 0.822878 0.266720 1.327199 0.063781 0.079819
瑛 0.624091 2.010916 -0.186101 0.669993 0.188599 0.322054 0.266508 -0.027396 -0.099050 0.229130 -0.154760 0.905233 -1.109576 1.135219 0.060613 0.166349
这些 0.286019 1.998549 -0.864481 -0.183893 0.547564 0.353800 -0.144349 -0.985121 -1.017566 0.152347 0.044710 0.798734 0.157677 0.026899 0.410392 0.336848
只要 0.155388 1.976685 -0.730246 -0.197771 0.250984 0.135589 -0.096376 -0.628768 -0.349063 -0.015413 0.203208 0.941477 0.309753 0.379596 0.518763 0.399953
只得 0.328688 2.051982 0.240432 -0.076948 0.646415 0.120142 0.167999 0.045451 0.400827 0.383206 -0.120928 0.915337 -0.468037 0.790241 0.147985 0.161945
一人 0.505130 2.037876 0.135291 0.143130 0.250264 0.305320 0.060876 0.191263 0.146801 0.486751 -0.348943 0.420022 -0.177336 0.994356 0.061122 0.107066
帮主 0.845010 2.041821 -1.313815 -0.462023 0.498824 0.139569 0.040283 -1.449276 -1.196805 0.023704 0.505931 0.677456 0.284927 0.002612 0.259883 0.533179
孩子 0.559777 2.030805 -1.435117 0.070340 0.356241 -0.013844 0.166187 -0.470521 -1.088635 0.113500 0.642159 0.220011 0.663242 0.325301 0.437173 0.086738
靖哥哥 0.691602 2.520237 -2.243791 0.716675 0.453766 0.002546 0.403828 -0.287714 -2.211360 0.385829 1.516342 0.153827 0.730088 0.231885 0.544062 -0.388417
不得 0.295848 1.990172 -0.763580 -0.274217 0.294121 0.222262 0.058993 -0.523444 -0.512805 0.065868 0.500950 0.821946 0.502489 0.372061 0.581351 0.310426
还是 0.635135 2.332826 -1.698812 -0.036152 0.311729 0.056341 0.132577 -0.702350 -1.602179 0.067546 1.039809 0.479207 0.617154 0.025738 0.660122 0.108337
往 -0.006469 1.936161 1.131629 -0.382964 0.563214 0.545626 0.988558 0.861266 1.680644 0.528316 -1.534619 1.324469 -0.761010 2.053062 -0.078800 -0.326870
先 -0.158627 2.101531 -1.536862 -0.093481 0.104375 -0.097835 0.260958 -0.428839 -1.110791 0.435921 0.686077 0.732086 0.957869 0.510378 0.924552 -0.140352
女子 0.776489 2.180835 -0.766746 0.218849 0.214023 -0.016100 0.012118 -0.711585 -0.593490 0.075155 0.268943 0.229536 0.169165 0.544108 0.184513 0.390671
低声 0.921303 1.873122 -1.687400 1.096363 0.609899 0.897445 0.516621 0.030037 -2.060947 0.457126 0.947181 0.216532 -0.101074 0.535311 0.288329 -0.031063
抢 -0.355735 1.805028 -0.142277 -0.059321 0.221039 0.073179 -0.072468 0.260473 0.752543 0.971276 -0.598964 1.102482 -0.211729 1.291492 0.787174 0.036883
这般 0.413301 2.170274 -0.715260 -0.116786 0.371432 -0.004813 -0.206086 -0.500125 -0.534072 0.108302 0.449782 0.575413 0.553570 0.313560 0.555781 0.321361
父亲 0.619845 2.131444 -0.222691 0.272041 0.597454 -0.295485 -0.280564 -0.449736 -0.151253 0.357822 0.324618 0.555948 0.000588 0.253859 0.117194 0.434123
想到 0.622535 1.863413 -0.357843 0.000771 0.378117 0.654433 -0.017599 -0.512710 -0.189494 -0.115692 0.084494 0.813550 0.118192 0.603338 0.276070 0.628157
有人 0.634404 2.056780 -0.107906 0.595207 0.111935 0.064450 -0.286280 0.235872 -0.091394 0.289392 0.025393 0.378598 0.063712 0.761506 0.214263 0.206864
怕 0.520383 2.099780 -1.161090 0.024046 0.235461 0.797647 0.201649 -0.268053 -1.050461 -0.172406 0.762724 0.601420 0.725039 0.551996 0.784434 0.245336
包惜弱 0.620825 2.022694 -0.924995 0.660431 0.562698 -0.003978 0.027374 -0.116422 -1.001934 0.435323 0.773746 0.414104 -0.145261 0.285618 0.081463 0.064207
大叫 1.027529 1.801796 -1.359924 1.231693 -0.278641 1.121188 0.260813 0.335021 -0.715766 0.012314 0.337996 1.034865 -0.715444 0.964039 0.558657 0.216301
韩小莹 0.661870 1.805568 -0.600895 0.532240 0.903190 0.118914 0.099713 -0.537612 -0.869742 0.695140 0.357632 0.488512 -0.695021 0.356249 -0.145060 0.021724
华筝 0.619961 1.941008 -0.890814 0.461991 0.768659 -0.048116 0.097392 -0.472956 -0.993803 0.672143 0.707387 0.402389 -0.179255 0.286430 0.168266 0.114827
出去 0.111945 1.977857 -0.418788 0.010806 0.084116 -0.060401 0.381375 0.220935 -0.079196 0.273229 -0.068084 0.680045 0.205442 0.984718 0.354900 -0.204674
奔 -0.338112 2.158504 0.557812 0.069442 0.322758 0.074069 0.171047 0.695379 1.231338 1.095369 -0.736362 1.203038 -0.440100 1.687436 0.726286 -0.058505
听到 0.493718 2.076493 0.029056 0.189893 -0.122296 0.822804 -0.061635 0.291775 0.081655 -0.107451 -0.227251 0.640647 0.454424 1.193051 0.553420 0.495465
倘若 0.276258 2.086127 -1.241074 -0.323083 0.435141 0.058145 0.190799 -0.903386 -1.107060 0.226212 0.641936 0.577111 0.548578 0.160461 0.526579 0.109814
三人 0.433271 1.912382 0.054791 0.033904 0.335537 0.286210 0.192535 -0.034626 0.249955 0.299921 -0.306560 0.715024 -0.211690 0.874299 0.198115 0.317772
骂 0.656495 2.199793 -1.788438 0.730383 0.187600 0.907658 0.192181 -0.293255 -2.173779 0.157454 1.175953 0.581282 0.519629 0.615727 0.733297 0.168877
老顽童 0.859370 2.389257 -1.524889 0.331670 0.423944 -0.074140 -0.041399 -0.483739 -1.566104 0.146227 1.133277 0.198233 0.572181 0.162445 0.497551 -0.030476
不会 0.316274 2.325247 -1.265573 -0.345429 0.259246 0.072807 -0.204041 -0.924262 -1.016454 -0.211440 0.821136 0.766447 0.915799 -0.072418 0.812929 0.388125
怎样 0.780430 2.122446 -1.600346 0.435005 0.427626 0.724482 0.307699 -0.248733 -1.603123 0.031140 0.875130 0.461616 0.433886 0.361855 0.532409 0.045934
登时 0.570242 2.050607 0.610951 -0.043544 0.517194 0.272344 0.271751 0.056354 0.807295 0.451144 -0.775871 0.763302 -0.875467 1.241320 -0.212245 0.122293
这样 0.506676 2.495916 -1.688536 0.031834 0.276255 -0.155481 -0.085959 -0.613946 -1.380664 0.168492 0.894862 0.419577 0.729705 0.179514 0.662066 0.069515
轻轻 0.422321 1.909825 0.347018 0.190453 0.381394 0.254817 0.503113 0.500982 0.738804 0.558672 -0.735401 0.609102 -0.574212 1.483433 -0.168084 -0.082019
转身 0.064193 2.003348 0.013244 0.282621 0.194887 0.228865 0.483474 0.875648 0.476765 0.624001 -0.344848 0.746687 -0.138782 1.265721 0.443819 -0.225335
出手 0.201539 2.018724 -0.034228 -0.314982 0.259839 0.282064 0.106233 -0.199603 0.212486 0.030342 0.019745 0.742527 0.263172 0.654338 0.369040 0.308387
韩宝驹 0.625195 1.709150 -0.226479 0.433816 0.672928 0.328997 0.153808 -0.296479 -0.420036 0.522957 -0.023098 0.560870 -0.705983 0.596475 -0.128670 0.126109
哪知 0.128073 2.019834 0.423291 -0.269526 0.234490 0.359423 0.117487 0.010206 0.775590 0.154399 -0.577614 1.014017 0.119708 1.149300 0.322941 0.401944
不肯 0.432426 2.128348 -1.089216 -0.030128 0.256259 0.272797 0.008614 -0.593050 -1.011431 -0.127174 0.754742 0.764735 0.730178 0.121657 0.704445 0.404328
却是 0.527120 1.833515 -0.265034 -0.224800 0.338389 0.564975 0.194224 -0.437373 0.083790 0.089577 -0.418515 0.784638 -0.126448 0.760973 0.152455 0.380362
黄蓉笑 0.472726 2.328261 -2.156406 0.838965 0.712413 0.349178 0.162657 -0.694702 -2.776393 0.691392 1.520973 0.512592 0.356563 0.366639 0.530975 -0.047897
内功 0.509338 1.819464 -0.226846 -0.399023 0.613210 0.547633 0.045799 -0.845412 -0.051538 0.053115 -0.136293 0.868810 -0.030237 0.394414 0.182219 0.602276
丐帮 0.531107 1.984971 -0.314972 -0.550294 0.490966 -0.186215 -0.137297 -1.075775 -0.385604 0.131706 -0.205889 0.587217 -0.180018 0.263517 -0.101289 0.443289
侯通海 0.395492 2.020319 0.178922 0.209393 0.728462 -0.065672 0.089598 -0.153972 0.141091 0.604488 -0.225214 0.582692 -0.540106 0.779814 -0.135943 0.083256
过来 0.276438 1.991189 -0.308780 0.137130 0.336244 0.157120 0.331706 0.194643 0.021625 0.332362 -0.074307 0.746748 -0.061491 0.924570 0.322460 -0.066042
比 0.463742 2.064714 -0.823170 -0.122096 0.231792 0.395071 -0.158000 -0.884644 -0.276614 0.163467 0.383587 0.995636 0.842724 0.250088 0.786227 0.587283
立时 0.183699 2.251488 0.544033 -0.271364 0.465131 0.014647 0.101063 0.088494 0.834235 0.467306 -0.554313 0.944022 -0.199570 1.161875 0.146859 0.147144
沙通天 0.598972 2.020438 0.063232 0.285300 0.897904 0.107551 0.026820 -0.618302 -0.065219 0.574843 -0.190739 0.724113 -0.718223 0.531030 -0.201960 0.334660
望 0.218648 1.847788 -0.389306 0.159904 0.435239 0.639116 0.408019 0.787416 0.787611 1.245462 -0.359546 0.767037 -0.329167 1.515164 0.802379 0.440492
救 0.071235 2.082030 -1.762146 -0.269011 0.070895 0.611774 0.403458 -0.594526 -1.236187 -0.087416 0.914116 0.991654 1.208618 0.341786 1.161015 0.214728
自然 0.580062 2.131584 -1.206859 -0.080227 0.399707 0.049608 -0.021414 -0.791101 -1.301734 -0.014291 0.731178 0.574395 0.464523 0.022797 0.523311 0.315603
大喜 0.908131 2.045551 -0.691169 0.233355 0.777185 0.667180 0.690108 0.331195 -0.443107 0.550165 0.157965 0.269369 -0.250723 0.953273 0.014893 -0.202117
众 0.525893 2.127079 -0.331795 -0.062580 0.521754 -0.143564 0.031973 -0.272358 -0.183924 0.461698 -0.045948 0.454403 -0.198006 0.678526 0.057817 -0.001648
一时 0.386132 2.164416 0.092715 -0.130131 0.259015 0.149023 -0.220288 -0.288846 0.101344 0.011540 0.163726 0.697704 0.249931 0.614983 0.370236 0.531513
同时 0.346425 2.046320 0.695569 -0.023093 0.628775 0.367824 0.431381 0.319592 1.176616 0.618858 -1.052947 1.000950 -1.012526 1.539158 -0.180995 0.001782
过去 0.181931 1.987894 0.305974 0.020694 0.425131 0.087836 0.454301 0.458305 0.775067 0.573818 -0.608223 0.771518 -0.409717 1.261419 0.124507 -0.098991
坐 -0.019443 1.758152 -0.686417 0.218659 -0.006587 0.220440 0.203440 0.448100 0.143285 0.772308 -0.260770 0.892796 -0.006304 1.148696 0.721175 0.207589
手中 0.137016 2.039036 0.310972 -0.380632 0.423503 0.121451 0.368410 -0.069996 0.855196 0.602162 -0.906545 0.861284 -0.345498 1.212606 0.015599 0.194622
两位 0.581980 2.206083 -1.480776 0.165428 0.514398 -0.040978 0.111089 -0.553749 -1.343192 0.329540 0.838182 0.474434 0.149710 0.074589 0.386696 -0.054607
本来 0.522963 2.033723 -0.490704 -0.327344 0.543332 0.233808 0.022604 -0.756415 -0.389216 -0.015996 0.217578 0.712851 0.309939 0.218740 0.321320 0.487960
一惊 0.753766 2.186696 -0.095638 0.668089 0.519020 0.150556 0.236628 -0.082138 -0.582147 0.201496 0.248053 0.296105 -0.403784 0.517302 -0.197351 0.395511
不见 0.236774 2.128951 0.033629 -0.112412 0.183760 0.172583 0.003573 -0.101009 0.163932 0.059388 -0.155875 0.895676 0.207856 0.823391 0.356887 0.464882
前 0.121743 1.990350 0.190062 -0.196410 0.411849 -0.090608 0.178294 -0.067599 0.675700 0.648966 -0.764269 0.741117 -0.440294 1.094053 0.033511 0.157428
一条 0.138770 1.974456 0.345733 -0.257124 0.330025 -0.159975 0.149449 -0.213309 0.522062 0.462940 -0.673152 0.789053 -0.379394 1.022281 0.066031 0.044528
坐在 0.241564 1.980892 0.877536 -0.292596 0.542036 0.675373 0.581377 0.422213 1.418210 0.377860 -1.431934 1.268053 -0.508692 1.663291 -0.039927 0.117065
女儿 0.424567 2.128258 -0.840597 -0.338327 0.615138 -0.122146 0.231393 -0.570637 -0.710570 0.200706 0.444749 0.553088 0.330455 0.225996 0.270862 0.031387
下来 0.056900 2.078007 0.156606 -0.191615 0.352573 -0.087077 0.195473 -0.121181 0.340847 0.409260 -0.395454 0.814592 -0.100566 1.078294 0.165045 0.009308
正 0.417927 2.047043 0.514818 0.087182 0.424430 0.139110 0.099273 0.116407 0.629290 0.506975 -0.410497 0.650747 -0.342531 1.030858 -0.022239 0.186403
间 0.476231 2.305637 1.339765 -0.050037 0.481604 0.182486 0.176576 0.269305 1.553577 0.492233 -1.208251 0.774939 -0.948863 1.634977 -0.306915 0.316176
抓住 0.163946 1.861078 1.028102 -0.428154 0.558328 0.545634 0.595715 0.139155 1.437386 0.165493 -1.179071 1.200783 -0.524951 1.613849 -0.133455 0.200470
即 0.315226 2.076816 0.275606 -0.325959 0.457005 0.444800 0.028665 -0.043105 0.788342 0.360245 -0.681313 1.265716 -0.260172 0.946758 0.381542 0.032834
当即 0.394717 1.957866 0.160835 -0.047986 0.485307 0.063913 0.366180 0.084684 0.470790 0.523037 -0.452581 0.740133 -0.549552 1.011854 0.040469 -0.028333
天下 0.667798 2.021775 -0.864333 -0.260573 0.514116 0.137748 -0.019892 -1.075281 -0.863419 0.078104 0.317244 0.601519 0.131906 0.124202 0.296525 0.384170
似乎 0.428964 2.141668 0.338135 0.023048 0.346533 -0.018839 -0.390569 -0.150743 0.621050 0.228897 -0.343320 0.847477 -0.218754 0.630013 0.237547 0.695548
字 0.510596 2.161050 -0.898540 -0.062870 0.089224 -0.164195 -0.238438 -0.680461 -0.454626 0.070846 0.129943 0.649766 0.248162 0.296517 0.462495 0.365868
黄老邪 0.571872 2.264279 -1.337218 0.126742 0.394853 -0.108192 0.058276 -0.770379 -1.543709 0.260786 0.934170 0.364760 0.461236 0.131096 0.422264 0.107141
抓 -0.311759 1.910990 0.432871 -0.310079 0.436055 0.124261 0.449552 0.300768 1.212853 0.768142 -0.830217 1.279714 -0.295591 1.403626 0.452546 -0.031458
铁掌 0.580754 2.114083 -0.565105 -0.556064 0.528437 -0.088458 -0.009792 -0.878586 -0.475938 0.172134 -0.023888 0.787276 -0.259079 0.339762 0.077655 0.227158
写 0.094055 1.941492 -0.510565 -0.217524 0.050845 0.146851 -0.330068 -0.599752 -0.147038 0.286157 -0.203475 0.853530 0.337579 0.675876 0.613202 0.585775
之极 0.614302 2.001195 -0.127884 -0.110607 0.387445 0.368953 0.016306 -0.255405 0.161390 0.031589 -0.113933 0.663256 -0.121909 0.702931 0.115961 0.373603
定 0.414972 2.008684 -0.837750 -0.279418 0.492675 0.028368 0.116573 -0.678685 -0.752878 0.126183 0.159346 0.764611 0.047001 0.187263 0.373090 0.242880
掌 0.314119 1.961828 0.491627 -0.299934 0.571313 0.021656 0.107630 -0.336313 0.859424 0.429733 -0.600707 0.993938 -0.497232 1.040587 0.078117 0.221252
未 0.348904 2.072622 0.450701 -0.170721 0.477912 0.128017 -0.326200 -0.342365 0.867080 0.206395 -0.422135 0.958905 -0.240257 0.847833 0.194159 0.590551
之间 0.246143 2.210773 0.589147 -0.243913 0.485635 0.028770 -0.020104 -0.246678 0.991287 0.410022 -0.802484 0.926702 -0.431460 1.134596 -0.000645 0.454911
儿子 0.640346 2.131237 -1.001756 -0.215887 0.360916 -0.179892 -0.059390 -0.966659 -0.760246 0.027306 0.412563 0.600183 0.356144 0.116163 0.351731 0.360777
便是 0.473580 1.800095 -0.775776 -0.286301 0.352532 0.468649 0.337711 -0.467101 -0.573755 0.025882 0.075530 0.530005 0.180220 0.565353 0.289145 0.109798
老毒物 0.601098 2.250467 -1.575387 0.409813 0.209109 0.020310 -0.019548 -0.628455 -1.229516 0.141876 0.933189 0.692065 0.430171 0.085635 0.664342 0.236222
郭 0.659143 2.072513 -0.972445 0.010623 0.565417 -0.057140 0.343506 -0.534358 -0.652017 0.462996 0.154394 0.368065 -0.128182 0.246028 0.101372 -0.170866
暗暗 0.836767 2.076079 -0.232064 0.191559 0.435691 0.713255 0.204290 0.065872 -0.166725 0.020940 0.157508 0.567509 -0.191835 0.888965 0.185632 0.387598
就算 0.344457 2.251540 -1.516850 -0.244424 0.213363 0.172071 -0.029063 -0.755960 -1.359038 -0.109782 0.979748 0.731843 0.815271 0.001061 0.798349 0.232209
动手 0.334843 2.033278 -0.855443 0.168556 0.472702 0.146109 -0.064621 -0.433637 -0.559294 0.396141 0.543042 0.823990 0.209197 0.216033 0.490588 0.279600
喝 0.479436 1.941538 -0.701907 0.368739 -0.061426 0.409349 0.258811 0.225428 -0.474529 0.190340 0.195892 0.480216 0.189475 1.002887 0.436596 -0.100454
旁 0.279903 2.100504 0.466264 -0.109775 0.730299 -0.192006 0.047214 -0.584493 1.170398 1.334153 -0.871887 0.561545 -0.532124 0.950009 -0.099175 0.412473
不及 0.270406 1.993372 0.327445 -0.393305 0.531505 0.325887 -0.054201 -0.573658 0.671266 0.026038 -0.350109 1.029445 -0.034189 0.720653 0.235485 0.467200
对方 0.317719 2.153056 0.666085 -0.340370 0.568480 -0.121627 0.021980 -0.361356 0.860953 0.366840 -0.553286 0.992500 -0.509775 0.776986 -0.010541 0.367472
之上 0.134730 2.017297 0.571168 -0.180632 0.411842 -0.147033 -0.000595 -0.211988 0.837181 0.562354 -0.778001 0.696671 -0.439394 1.158926 -0.132385 0.363934
此 0.100815 2.062305 -0.439798 -0.406378 0.528409 -0.255157 -0.205703 -0.820623 -0.128178 0.533472 -0.084862 0.603634 -0.058606 0.311291 0.246854 0.478276
母亲 0.371575 2.011309 -0.439087 -0.002863 0.471307 -0.128492 -0.048879 -0.472905 -0.089809 0.501583 0.096123 0.613207 0.030328 0.427852 0.240749 0.359790
大声 0.783086 1.921063 -0.773884 0.448992 0.452158 0.549295 0.381510 0.031771 -0.818876 0.398037 0.200684 0.283608 -0.274093 0.868640 0.030753 -0.032171
急 0.547836 2.090703 0.194466 0.396956 0.308922 0.275277 0.100065 0.406966 0.466621 0.399286 -0.180360 0.429906 -0.283730 1.109021 0.144001 0.110563
这才 0.457799 1.914141 -0.164430 0.006311 0.426846 0.230997 0.284623 0.069879 0.104811 0.364262 -0.176717 0.696576 -0.327647 0.857570 0.190857 -0.000613
明白 0.371073 2.123374 -0.590522 0.108292 0.075652 0.133553 -0.197237 -0.137192 -0.469955 -0.021315 0.605144 0.681318 0.611506 0.442609 0.584476 0.432629
帮 0.453969 1.782219 -1.264525 -0.292577 0.404789 0.237808 0.245678 -0.965402 -1.090824 0.047402 0.408621 0.870226 0.211010 0.282288 0.420924 0.285053
或 0.207852 1.932989 0.443263 -0.684355 0.726570 0.256714 0.037074 -0.793171 0.750024 0.350413 -0.709864 1.154582 -0.501562 0.520266 0.063720 0.525198
教 0.476555 2.259083 -1.984165 -0.305022 -0.011312 0.654593 0.214637 -0.823132 -1.579603 -0.335962 0.807708 0.745775 1.417009 0.353058 1.088952 0.283314
再也 0.232689 2.071335 0.203909 -0.175643 0.309536 0.189239 0.153048 0.069273 0.422947 0.209623 -0.174432 0.836212 -0.002542 0.801729 0.285400 0.269285
全身 0.333290 2.086477 0.693099 -0.120748 0.391551 0.070850 0.024790 -0.105330 0.716529 0.395060 -0.696558 0.750111 -0.457229 1.179432 -0.119309 0.363022
别 0.534320 2.465042 -1.688029 0.636884 0.213463 -0.180963 0.058558 -0.037418 -1.359443 0.361493 1.143169 0.393656 0.583580 0.306355 0.740857 -0.138551
一会 0.590332 2.118458 -0.135674 0.639219 0.344795 0.061575 -0.496622 0.520204 -0.063729 0.596203 0.224819 0.470603 0.137968 0.938962 0.547622 0.077426
不由得 0.736026 2.102045 0.262469 0.167037 0.581122 0.206606 0.052472 0.096954 0.361343 0.326418 -0.271767 0.484262 -0.437675 0.902569 -0.065389 0.265018
虽然 0.394080 2.065046 -0.149175 -0.244432 0.289097 0.425596 -0.084518 -0.492202 -0.170791 -0.061215 0.224636 0.826526 0.303605 0.556100 0.405732 0.501411
这是 0.813539 1.839237 -1.175415 0.156410 0.526503 0.275969 0.297646 -0.628157 -0.958296 0.243020 0.396295 0.478006 -0.241987 0.426049 0.114794 -0.001225
这位 0.899392 2.343225 -1.711651 0.103043 0.670963 0.118592 0.155328 -0.781235 -1.934783 0.283467 0.989968 0.275600 0.085166 -0.049414 0.279328 -0.079982
全 0.439777 1.912008 -0.092231 -0.142544 0.717956 0.227533 -0.201206 -0.956377 0.015988 0.179893 -0.060470 0.728856 -0.450156 0.491382 0.176256 0.460604
朮 0.528463 1.910893 -0.625222 -0.262876 0.440165 0.183499 0.402280 -0.514251 -0.606640 0.408503 -0.121206 0.477847 -0.354422 0.714630 0.284610 -0.145982
均 0.559664 2.189849 0.331695 -0.106837 0.667834 0.062878 -0.356522 -0.664313 0.390518 0.116982 -0.056269 0.914328 -0.387227 0.386075 0.011526 0.690395
更加 0.601085 2.080571 -0.064399 -0.060256 0.361819 0.257439 0.007588 -0.045830 0.080074 0.129889 -0.056376 0.522211 -0.020170 0.726121 0.184986 0.231295
小子 0.545778 2.111438 -1.510516 -0.208641 0.395302 0.093550 0.272175 -0.850556 -1.376000 -0.124022 0.697342 0.394910 0.792505 0.282716 0.434759 0.133535
当年 0.508338 2.050499 -0.458611 -0.145953 0.527724 0.222308 -0.130514 -0.901819 -0.304066 0.306450 -0.010734 0.674757 0.072466 0.393831 0.203283 0.481674
头 0.107244 1.937080 0.185287 -0.227362 0.370792 0.029163 0.256157 -0.118968 0.525825 0.404940 -0.405363 0.976088 -0.132760 0.968287 0.209788 0.268046
命 0.294416 1.786530 -0.470248 -0.222720 0.283805 0.392415 0.320413 -0.357117 -0.117949 0.236778 -0.173334 0.764671 0.152084 0.737294 0.314551 0.182488
听得 0.623933 1.995275 0.097250 0.035643 0.231358 0.685696 0.259735 0.312016 0.347668 0.123544 -0.403322 0.592864 -0.167613 1.128325 0.225526 0.258530
的话 0.814686 2.321448 -1.103803 0.347141 0.297251 0.065394 -0.437912 -0.107726 -0.760322 -0.085516 0.792834 0.302039 0.917301 0.117636 0.583955 0.398387
伤 0.160574 1.835559 -0.806389 -0.463329 0.094914 0.392207 0.136652 -0.567288 -0.633138 -0.210328 0.430493 0.808186 0.917517 0.499410 0.644206 0.341356
姑 0.877776 2.381471 -0.372148 0.192607 0.672678 0.386947 0.155832 0.054560 -0.245560 0.610383 -0.251794 0.625726 -0.908860 0.914935 -0.257547 -0.232419
一起 0.009638 2.033552 -1.207001 0.038333 0.046097 -0.314052 -0.041961 -0.500732 -0.556008 0.496153 0.218705 0.613819 0.306468 0.471367 0.540897 0.185725
早已 0.287560 2.134118 0.394808 -0.312085 0.399430 0.269796 0.182567 0.002377 0.670350 0.323891 -0.550487 0.970412 -0.224603 1.086593 0.099739 0.325846
岛上 0.030528 1.859546 -0.519422 -0.366257 0.279264 -0.063319 -0.094589 -0.647841 -0.324737 0.393132 -0.123528 0.612165 0.300782 0.614535 0.328117 0.261059
傻姑 0.531459 2.271136 -0.784142 0.419120 0.300934 -0.174653 0.033742 -0.115613 -0.855780 0.369769 0.604275 0.327542 0.173260 0.382185 0.287060 -0.028244
鲁有脚 0.564664 1.934247 -0.362190 0.385838 0.796549 -0.049672 0.048153 -0.364039 -0.557915 0.601523 0.363888 0.522782 -0.505417 0.385028 -0.109795 0.046076
没有 0.436796 2.126518 -1.069564 0.027342 0.254773 0.122741 0.050567 -0.497982 -0.986082 0.053037 0.668677 0.590805 0.583842 0.382426 0.608122 0.202966
起身 -0.240702 1.821931 -0.653363 0.993330 -0.008111 0.196253 0.657959 1.336830 -0.106037 0.669070 -0.196145 1.666391 -0.112872 1.469894 0.995962 -0.370001
大汗 0.376072 2.048600 -0.845706 0.145704 0.396070 -0.084511 0.002967 -0.645859 -0.737086 0.417046 0.455876 0.711401 0.170644 0.280858 0.473154 0.276256
果然 0.558087 2.081774 -0.567551 0.005489 0.432035 0.076932 0.082473 -0.366269 -0.576802 0.241456 0.183411 0.534785 -0.268086 0.470598 0.178380 0.101521
随即 0.514036 1.929466 0.051216 0.186560 0.661338 0.362095 0.277316 0.056479 0.035632 0.557162 -0.235645 0.639897 -0.688286 0.931513 -0.122696 0.047730
正要 0.316026 1.946435 -0.010157 0.213099 0.341965 0.307611 0.323673 0.338283 0.215903 0.546254 -0.251170 0.744033 -0.222981 1.077496 0.333734 -0.056111
要是 0.244914 2.240737 -1.476672 0.010971 0.130699 0.183536 -0.033633 -0.545162 -1.260754 0.061353 0.858143 0.704891 0.830601 0.171650 0.886488 0.166333
摇头 0.875158 2.084248 -1.838051 0.720368 0.599095 0.986234 0.479764 -0.177272 -1.969112 0.234198 1.043817 0.476297 0.137013 0.428439 0.450941 0.142844
心道 1.023497 1.756330 -1.921633 0.902930 -0.068390 1.126473 0.121090 -0.288318 -1.117549 -0.374139 0.824407 1.088164 -0.169409 0.281592 0.746720 0.586768
几个 0.251741 2.054185 -0.251928 -0.186361 0.367279 0.037792 -0.283669 -0.560127 -0.087030 0.127530 -0.288952 0.698819 0.167062 0.459744 0.383551 0.387776
程瑶迦 0.680993 2.117973 -0.561215 0.623720 0.695897 0.036530 -0.028802 -0.186861 -0.653333 0.554301 0.487952 0.441674 -0.449985 0.355004 0.057506 0.136865
掷 -0.024474 1.967850 0.644188 -0.182333 0.551124 -0.074777 0.302662 0.073502 1.078959 0.770142 -0.744561 1.214868 -0.618057 1.289070 0.176392 -0.016232
马钰 0.593999 2.103811 -0.044726 0.189519 0.785961 0.048716 -0.053465 -0.630655 -0.012805 0.630733 -0.129131 0.764202 -0.657349 0.504881 -0.089085 0.396743
头顶 0.298421 2.228571 0.947118 -0.075144 0.515039 0.003101 0.061918 0.279466 1.285791 0.764450 -1.034131 0.858640 -0.742344 1.440566 -0.118203 0.217061
不错 0.683379 2.047364 -1.386431 0.380410 0.491632 0.553101 0.171154 -0.467734 -1.596013 0.089175 0.855932 0.392307 0.355674 0.325663 0.373638 0.105644
踢 0.041194 2.013583 0.795760 -0.249406 0.279225 0.294888 0.255460 0.325997 1.032035 0.447980 -0.841984 1.099956 -0.318432 1.674559 0.207433 0.070027
一掌 0.387911 1.871243 0.285840 -0.162799 0.210133 0.114220 0.213210 0.020375 0.591948 0.056783 -0.392023 0.689198 -0.059612 1.072336 0.039230 0.213212
还有 0.365023 1.977991 -1.302653 -0.018072 0.196230 0.360763 0.293942 -0.473724 -1.089683 -0.007305 0.493386 0.585410 0.491505 0.307398 0.509701 0.043527
被 0.214838 1.994345 0.159107 -0.336703 0.367807 0.511123 0.114910 -0.341812 0.540421 0.139659 -0.641344 0.977226 -0.099088 0.984729 0.222426 0.411491
慢慢 0.099534 2.172440 -0.040817 0.007447 0.341887 0.029109 0.250276 0.309256 0.405875 0.532984 -0.374971 0.875213 -0.028712 1.057679 0.411329 -0.034006
一只 0.079130 2.075711 0.090113 -0.137362 0.160537 -0.266936 0.148026 0.019892 0.491431 0.558316 -0.511877 0.733587 -0.207547 1.093850 0.174830 0.014066
胸口 0.122824 2.085664 0.689342 -0.270810 0.335799 0.181130 0.259580 0.096310 1.002869 0.448585 -0.901022 0.929384 -0.409413 1.402173 0.022578 0.236308
急忙 0.367184 2.079092 0.792879 -0.103772 0.555567 0.272693 0.302877 0.374545 1.010370 0.543818 -0.814873 0.911880 -0.695802 1.385407 -0.091725 0.123150
身旁 0.211660 2.037638 0.130219 -0.112417 0.326589 0.232110 0.315745 0.259847 0.637039 0.541169 -0.747945 0.724761 -0.312510 1.287364 0.083149 0.063427
始终 0.194941 2.148119 0.168820 -0.156982 0.308558 0.041830 -0.176033 -0.332104 0.321891 0.272148 -0.052710 0.915136 0.018443 0.557715 0.376148 0.464677
尹志平 0.747521 1.946926 -0.347872 0.297304 0.779754 0.110155 0.088352 -0.368017 -0.370131 0.635153 0.126659 0.406944 -0.524236 0.536759 -0.118845 0.031375
神色 0.649997 2.103784 0.033529 -0.004303 0.630689 0.181920 0.077037 -0.196270 0.067983 0.383022 0.020395 0.605518 -0.388874 0.577262 -0.046692 0.383796
哼 1.056454 2.161748 -1.269535 0.429780 0.049956 1.131085 0.480762 -0.253720 -1.487000 -0.053314 0.514876 0.406617 -0.116268 0.777622 0.291674 -0.074476
上前 0.338317 1.932945 -0.092248 -0.093026 0.511498 0.389993 0.424817 0.117761 0.055835 0.467732 -0.150235 0.598238 -0.254834 0.942285 0.090082 -0.052111
真 0.577038 2.315592 -1.375615 0.019573 0.191979 0.251899 -0.045311 -0.540489 -1.237627 -0.006071 0.782250 0.592048 0.620692 0.169782 0.667760 0.204937
刚才 0.474955 2.058265 -1.078750 -0.105657 0.310391 0.100102 0.175419 -0.527511 -0.964860 0.099732 0.632116 0.317824 0.792509 0.319497 0.511361 0.092267
扑 -0.087834 2.125583 0.761023 -0.223865 0.543252 0.067740 0.298795 0.376069 1.374622 0.950049 -1.060157 1.272514 -0.826262 1.556596 0.198094 -0.079827
三个 0.255578 1.983744 -0.243970 -0.023663 0.324755 -0.059652 0.014055 -0.250606 0.030735 0.303457 -0.264665 0.641891 -0.037292 0.663923 0.282094 0.173983
至 0.153682 2.011635 0.930072 -0.326264 0.691136 0.289261 0.230226 -0.065262 1.498504 0.697465 -1.139044 1.227647 -0.682948 1.168607 -0.036785 0.454812
下去 0.217210 2.054307 -0.339910 0.068258 0.269922 -0.022647 -0.017905 -0.008674 -0.096385 0.320618 0.060050 0.667285 0.119348 0.714759 0.348109 0.127448
干 0.350018 2.112014 -1.592874 0.096748 0.295810 0.328594 0.301701 -0.250485 -1.288699 0.114009 0.793144 0.648906 0.753905 0.367921 0.766872 0.036219
放在 0.169656 1.915734 0.426082 -0.162725 0.389125 0.120231 0.471072 0.265301 0.707769 0.377568 -0.747850 1.001965 -0.354351 1.282915 0.010110 -0.083410
只有 0.289611 2.074270 -0.371988 -0.161672 0.329847 0.091033 -0.005037 -0.416242 -0.258789 0.183706 0.093558 0.691004 0.278124 0.508828 0.336212 0.223750
送 -0.105989 1.845972 -0.659448 -0.350619 0.121854 0.032799 0.258966 -0.225126 -0.164709 0.225276 0.126826 0.860478 0.599135 0.648036 0.690078 -0.017082
处 0.717950 2.088311 0.504242 0.084918 1.026155 0.351921 -0.072296 -1.217393 1.463685 1.135008 -0.666120 0.880381 -0.148869 0.583825 0.211063 0.801455
身后 0.406265 2.063202 0.424451 0.272987 0.115331 0.127334 -0.099340 0.450747 0.794680 0.447316 -0.577743 0.628357 -0.203845 1.282542 0.128019 0.316630
手掌 0.265838 2.030115 0.330910 -0.177026 0.435925 0.319008 0.199871 -0.024664 0.682254 0.322702 -0.552305 0.899591 -0.273354 1.172511 0.090857 0.289402
黄 0.754656 2.194709 -1.799878 0.008224 0.486660 0.376489 0.499777 -0.528255 -1.718175 0.194331 0.913719 0.326474 0.098682 0.139870 0.434234 -0.394690
蛇 0.313150 1.915684 0.119153 -0.359852 0.359695 -0.060503 0.086366 -0.419661 0.214145 0.291363 -0.402721 0.691501 -0.254608 0.698034 0.067325 0.224421
尽 0.273230 1.998744 0.468493 -0.382118 0.545904 -0.166756 -0.154577 -0.615190 0.405322 0.358088 -0.545578 0.780156 -0.442418 0.594942 0.031568 0.471476
手里 0.109216 1.916030 -0.367991 -0.213117 0.033278 -0.079110 0.262031 0.018627 0.145838 0.558983 -0.385822 0.597514 0.198209 1.098601 0.302633 0.162988
少年 0.589167 2.068789 -0.660758 0.139817 0.421252 0.043243 -0.043936 -0.620486 -0.433801 0.103602 0.290014 0.492598 0.123234 0.339758 0.310695 0.390897
跳 0.298625 1.812330 -0.167847 0.322426 0.249184 0.133706 0.287968 0.447915 0.327145 0.610722 -0.186099 0.687688 -0.349489 1.278894 0.346120 -0.044907
段天德 0.224123 1.812841 -0.370890 0.115337 0.536745 -0.033583 0.209238 -0.212723 -0.177533 0.478741 0.189792 0.577897 -0.114949 0.576203 0.129927 -0.030787
带 -0.016067 1.797879 -0.550825 -0.238928 0.156649 0.117882 0.234721 -0.179341 0.033019 0.299380 -0.127736 0.870614 0.371684 0.827490 0.590822 0.215278
许多 0.402856 1.933331 -0.675392 -0.346778 0.400528 0.299361 0.041714 -0.616744 -0.404355 -0.233846 -0.034247 0.636626 0.508264 0.506848 0.447992 0.369138
不用 0.398319 2.017739 -1.243392 0.191998 0.249673 0.229145 0.118537 -0.387552 -1.137514 0.037965 0.794760 0.643919 0.780070 0.380386 0.596368 0.116775
金兵 0.247531 1.950070 0.050777 -0.048603 0.376689 -0.114494 -0.025178 -0.349352 0.226805 0.460988 -0.198715 0.731539 -0.078867 0.729892 0.155913 0.212847
心下 0.511192 1.943607 0.001911 0.022744 0.353298 0.370339 0.000086 -0.161611 0.096795 0.211200 -0.118078 0.687370 -0.156113 0.749208 0.179900 0.431023
侄儿 0.316028 1.914149 -0.920360 0.105025 0.474457 0.034662 0.044844 -0.560278 -0.638671 0.411615 0.457632 0.753722 0.223065 0.278602 0.448638 0.254347
十分 0.465945 2.040019 -0.116847 -0.209556 0.453703 0.342040 -0.259777 -0.598908 -0.076988 0.107659 -0.043225 0.683202 0.216963 0.512142 0.240202 0.574232
哲别 0.456732 1.793092 -0.145355 0.049532 0.648192 0.063089 0.210978 -0.190336 -0.155802 0.523849 -0.013548 0.512468 -0.339678 0.616738 -0.001115 0.071837
全金发 0.501300 1.870806 -0.368631 0.302158 0.649285 0.068088 0.237536 -0.335515 -0.244392 0.609885 -0.064532 0.585568 -0.561242 0.701850 -0.078930 0.062291
似 0.519456 2.068212 0.291663 -0.197419 0.355073 0.007768 -0.318924 -0.322650 0.226457 0.106751 -0.411385 0.666169 -0.314291 0.567570 0.087590 0.571486
立即 0.262068 2.067773 0.588179 -0.250507 0.461233 0.210460 0.257930 0.136998 0.928179 0.399878 -0.736843 0.920772 -0.558999 1.246315 0.004949 0.203758
必 0.393680 2.109782 -0.362082 -0.384531 0.391932 0.201662 -0.181229 -0.759119 -0.368943 -0.094771 0.138184 0.879989 0.232682 0.253612 0.432746 0.542769
哈哈大笑 0.791884 2.192066 -0.954927 0.293921 0.496506 0.429694 0.495359 0.158291 -0.815961 0.441234 0.282450 0.052566 0.096181 0.861535 0.130046 -0.195950
追 -0.078879 1.840837 -0.441974 0.038929 0.240812 0.180667 0.297574 0.064139 0.058998 0.411156 -0.003078 1.067335 0.118245 0.878503 0.633429 0.112798
逃 0.053578 1.955011 -0.219852 0.067772 0.092969 0.060344 0.048322 0.183208 0.166433 0.325593 0.131252 0.973992 0.164099 0.846941 0.513732 0.148079
早 0.264491 2.023402 -0.544441 0.211138 0.312194 0.130964 -0.168137 -0.166445 -0.414967 0.300589 0.195618 0.591572 0.307962 0.507129 0.372033 0.183721
帐 0.113965 1.954714 0.267208 -0.237246 0.287073 -0.039325 0.017774 -0.125431 0.458124 0.459832 -0.594360 0.726382 -0.297939 0.968415 0.112624 0.130927
抱 0.009078 1.862823 -0.202345 -0.011486 0.199910 0.315234 0.275587 0.478638 0.669671 0.810818 -0.450666 1.043301 -0.057473 1.511349 0.660562 0.196914
跃起 0.380089 2.025818 0.682327 -0.065391 0.466344 0.340092 0.410862 0.320825 1.022995 0.467844 -1.013554 0.824920 -0.770384 1.474129 -0.124478 0.070404
片刻 0.590560 2.152355 -0.002664 0.341616 0.469268 0.087552 -0.205661 0.233674 0.072547 0.487779 0.011581 0.488787 0.025374 0.872319 0.269342 0.130514
临安 -0.007139 1.858769 -0.435083 -0.237531 0.276457 -0.123291 0.064835 -0.281449 0.114509 0.551357 -0.369270 0.769704 -0.126042 0.679757 0.309949 0.134642
极 0.603441 2.218798 -0.355848 -0.103976 0.487396 0.034144 -0.145296 -0.611917 -0.164296 0.237902 0.126618 0.678244 0.088378 0.414434 0.368592 0.421599
放 0.151408 1.987234 -1.034978 -0.061455 0.107680 0.283527 0.288531 -0.008365 -0.631936 0.174300 0.362848 0.671325 0.487157 0.666034 0.684944 -0.004279
回来 0.347550 2.032882 -0.878139 0.065600 0.346896 0.134824 0.222816 -0.114861 -0.629633 0.263537 0.476942 0.600735 0.191654 0.418880 0.491756 -0.001166
之际 0.193907 2.058995 0.502138 -0.293552 0.545760 0.051127 0.084645 -0.257799 0.886425 0.504690 -0.735407 0.952160 -0.441151 1.019936 0.070267 0.279027
郭靖见 0.300193 1.945998 0.175057 -0.219461 0.383412 0.350388 0.186196 -0.139726 0.413933 0.223475 -0.373091 0.807716 -0.088746 0.968580 0.243209 0.290837
练 0.125990 2.137794 -0.449153 -0.198524 0.181878 0.058013 -0.226885 -0.504886 -0.234408 0.142128 0.169103 0.679074 0.370684 0.569174 0.572066 0.297362
全真 0.716992 1.940234 -0.913887 -0.586571 0.908960 0.065081 -0.038186 -1.462700 -0.565161 0.412145 0.371637 0.529830 -0.039701 -0.229221 0.154077 0.306017
南希仁 0.390847 1.784458 -0.177584 0.072304 0.552813 0.132740 0.211115 -0.294181 -0.193198 0.432792 -0.128816 0.580300 -0.417764 0.708138 0.001115 0.021138
短剑 0.154710 1.773861 0.049815 -0.123789 0.490856 0.030268 0.320640 -0.090710 0.330880 0.540690 -0.453811 0.660584 -0.328737 0.945137 -0.000179 0.033728
最 0.537331 2.011230 -0.512643 -0.300863 0.436834 0.104741 -0.128047 -0.846074 -0.521600 0.113891 0.037433 0.553127 0.043721 0.272192 0.211623 0.418031
三 0.444186 1.974357 -0.322060 -0.116617 0.628723 0.233232 0.260243 -0.454982 -0.200851 0.579727 -0.087909 0.550219 -0.283193 0.704262 0.045456 -0.067283
小王爷 0.465351 2.049287 -0.934989 0.180962 0.347855 0.062906 0.117890 -0.410234 -0.828355 0.396714 0.470047 0.617699 0.096814 0.457629 0.333743 0.040459
半晌 0.578172 2.050981 -0.059506 0.319759 0.448238 0.303922 -0.111706 0.358745 -0.133955 0.466107 0.078263 0.373454 0.032695 0.949333 0.242946 0.078081
只觉 0.429275 2.045120 0.757729 -0.215208 0.487107 0.276171 0.201454 0.123819 1.014306 0.308665 -0.784986 0.868051 -0.595849 1.275456 -0.044131 0.282992
陆庄主 0.670863 2.079391 -0.945881 0.346670 0.693172 0.197092 0.166982 -0.399132 -1.006032 0.432069 0.550098 0.559162 -0.326249 0.317362 0.126128 0.056129
来到 0.283661 2.046386 0.252012 -0.315271 0.471307 0.235557 0.180512 -0.057122 0.545494 0.317432 -0.613528 0.786111 -0.251937 0.927379 0.133833 0.174344
手腕 0.084887 1.817365 0.825822 -0.333743 0.471478 0.136942 0.493895 0.165278 1.258149 0.376688 -0.982529 1.014538 -0.427746 1.455806 -0.117806 0.070873
大师 0.558412 2.286654 -0.656258 -0.113073 0.687346 0.376829 0.313431 -0.143365 -0.687087 0.428246 0.245286 0.429123 -0.072253 0.705004 0.165390 0.008703
取出 0.148300 2.083117 0.506699 -0.338377 0.440886 0.172321 0.437487 0.150297 0.911259 0.502294 -0.973182 0.867446 -0.601383 1.424624 0.031786 -0.045958
哪 0.549064 2.119602 -0.824620 -0.052158 0.404459 0.155626 -0.014140 -0.470039 -0.785563 0.137703 0.350173 0.486027 0.164808 0.344896 0.280708 0.144176
真经 0.322981 2.089725 -0.361280 -0.341407 0.318845 -0.081257 -0.009470 -0.580748 -0.131380 0.184336 -0.048226 0.729022 0.191935 0.583713 0.334948 0.212879
微笑 0.651617 1.859931 -1.113951 0.682531 0.488068 0.645485 0.250397 -0.027571 -1.265267 0.397726 0.655177 0.404759 -0.078308 0.677311 0.236964 0.156400
西毒 0.476549 1.779927 -0.502840 -0.059708 0.395927 0.167693 0.079981 -0.616867 -0.429640 0.294190 0.155912 0.654401 -0.092063 0.353482 0.254078 0.280773
大家 0.515941 2.098987 -1.197547 0.110982 0.141358 0.067709 0.156567 -0.398452 -1.085087 0.147453 0.527696 0.534777 0.439443 0.339010 0.481726 0.058884
本事 0.479517 2.059454 -1.310085 -0.237024 0.244403 -0.002811 0.031978 -0.626661 -0.941582 -0.033711 0.587566 0.629640 0.597919 0.319524 0.612423 0.271006
非 0.373370 1.912120 -0.184079 -0.247269 0.510652 0.272845 -0.092552 -0.787096 0.090638 0.161814 0.054642 0.863396 0.321082 0.457865 0.363921 0.592332
四人 0.292751 2.156641 0.207778 -0.303808 0.502035 0.051553 0.160922 -0.154436 0.556916 0.483613 -0.633313 0.792601 -0.339469 1.023243 0.103763 0.184828
汗 0.866591 2.290728 -1.244397 -0.410988 0.461314 0.307516 0.398369 -0.632003 -1.217694 0.207573 0.068509 0.565880 0.057171 0.554515 0.157034 -0.147779
手指 0.175648 1.939259 0.525398 -0.308277 0.444992 -0.054506 0.278703 -0.026012 0.856857 0.501431 -0.778026 0.840300 -0.445731 1.169368 -0.030250 0.135327
上来 0.268399 1.936347 0.197418 -0.093400 0.366274 0.115069 0.269684 0.074052 0.377311 0.420007 -0.304338 0.766549 -0.321887 0.995924 0.099955 0.100976
因此 0.314144 2.077015 -0.544254 -0.275262 0.340436 0.279333 0.026274 -0.528523 -0.148409 0.026976 0.088868 0.902645 0.309032 0.437062 0.483777 0.387376
渔人 0.533534 2.132567 -0.575858 0.301085 0.667957 0.305094 0.368085 -0.476636 -0.645989 0.545398 0.368767 0.311723 -0.117179 0.632051 0.134110 0.082462
肩头 0.093821 2.061984 0.653746 -0.266753 0.450934 0.321612 0.448467 0.214244 1.019176 0.539702 -0.892441 0.948035 -0.373412 1.586540 0.008565 0.146554
点点头 0.668217 1.994427 -0.932519 0.281200 0.470342 0.801626 0.567576 0.128869 -0.719517 0.320688 0.331873 0.522253 -0.077862 0.848647 0.364564 -0.003890
道长 0.644081 1.873020 -1.484466 0.242422 0.477151 0.303763 0.338913 -0.327848 -1.503855 0.375770 0.842508 0.119391 0.260648 0.257009 0.347990 -0.236721
脸色 0.484119 1.947048 -0.040828 0.074997 0.629085 0.412738 0.260043 -0.081251 -0.120575 0.494715 -0.163216 0.648392 -0.513025 0.833463 -0.051199 0.127602
小红马 0.192503 1.843326 0.206505 -0.009180 0.361030 0.050307 0.234799 0.046786 0.583544 0.464176 -0.473315 0.757351 -0.368289 1.004365 0.181642 0.119895
受 0.415773 1.918594 -0.564079 -0.218955 0.165460 0.381123 0.117685 -0.333171 -0.309147 -0.038200 0.187746 0.727499 0.336991 0.635492 0.478674 0.272113
撞 -0.173323 2.076992 0.329422 -0.258964 0.259032 0.003941 0.216430 0.095312 0.815706 0.740140 -0.735520 1.036736 -0.297004 1.461493 0.313198 -0.017674
心 0.334283 1.962098 0.135336 -0.214708 0.441119 0.126238 0.138775 -0.110418 0.452697 0.312800 -0.360882 0.799316 -0.260029 0.911796 0.114028 0.335095
东西 0.345159 1.942340 -0.702776 -0.078271 0.267086 -0.026562 0.024895 -0.574977 -0.538446 0.049934 0.163726 0.589042 0.176189 0.531381 0.366262 0.299609
由 0.227273 1.908310 -0.105232 -0.362500 0.218752 0.298652 0.098226 -0.334969 0.160512 0.158403 -0.313545 0.894801 0.079757 0.880980 0.325132 0.326773
一件 0.372244 1.958764 -0.700383 -0.212021 0.612754 0.390084 -0.135389 -0.777606 -0.411870 0.189214 -0.138561 0.784017 -0.037333 0.087132 0.220895 0.347727
一块 0.139797 1.873343 0.296649 -0.316762 0.385567 -0.093808 0.244213 0.082069 0.720501 0.567856 -0.749329 0.821059 -0.437594 1.116337 0.062435 0.037819
怎能 0.471548 2.080880 -0.812034 -0.084385 0.338847 0.058774 -0.002159 -0.486583 -0.592438 0.052591 0.468672 0.606053 0.354685 0.337963 0.492658 0.179787
口中 0.310761 2.005488 -0.030907 0.015211 0.328213 0.111780 0.215163 0.112227 0.203049 0.386055 -0.228290 0.721062 -0.188798 0.883654 0.233693 0.165363
之声 0.546683 2.069779 0.676917 0.099736 0.436587 0.210570 -0.172183 0.203809 0.819037 0.446550 -0.755873 0.534185 -0.528581 1.186920 -0.047308 0.361089
一笑 0.586499 1.899682 -0.997610 0.210464 0.459132 0.605101 0.582234 0.023081 -1.040903 0.391822 0.317534 0.242844 0.071773 0.732055 0.188738 -0.238667
爱 0.337852 2.195970 -1.127542 -0.156852 0.122931 0.290297 0.124378 -0.371643 -0.955116 -0.031727 0.684125 0.581654 1.038426 0.343926 0.730426 0.238841
答应 0.556700 2.004902 -0.773656 0.268992 0.315040 0.386942 0.100884 0.105793 -0.550773 0.151269 0.457780 0.503583 0.283866 0.562432 0.453867 0.091690
点头 0.706989 1.813598 -0.921014 0.460231 0.582870 0.610249 0.381025 0.031594 -0.950411 0.240438 0.624409 0.258890 0.071116 0.554707 0.240471 0.045309
丝毫 0.263756 1.995095 0.315561 -0.301883 0.377302 0.181105 -0.078419 -0.207577 0.438626 0.123528 -0.080138 0.890346 -0.020904 0.584181 0.352206 0.569000
此人 0.613556 2.031860 -0.340568 -0.146734 0.620558 0.110254 -0.111508 -0.842395 -0.440789 0.184252 0.280056 0.633533 -0.196355 0.164307 0.102974 0.392767
怔 0.681883 2.024033 0.041394 0.262855 0.695497 0.520521 0.646636 0.273519 -0.088984 0.397526 -0.320800 0.291311 -0.710751 1.172461 -0.363826 0.010209
一眼 0.572940 2.137032 -0.035933 0.105195 0.794090 -0.008588 0.538734 0.350058 0.165487 0.723737 -0.212402 0.424858 -0.380519 0.592808 -0.298546 -0.227898
穴道 0.227414 2.030796 0.205768 -0.356848 0.366002 0.180600 0.196590 -0.343597 0.466781 0.245397 -0.374012 0.894915 -0.011083 0.927808 0.104715 0.224377
手臂 0.211656 1.951950 0.410486 -0.203912 0.487632 0.239040 0.334558 0.003076 0.702954 0.399516 -0.700123 0.953390 -0.375833 1.226427 0.022696 0.171430
人家 0.557995 2.154347 -1.210159 0.123268 0.407534 -0.011238 -0.017602 -0.515459 -1.020967 0.179919 0.726111 0.469293 0.404189 0.153059 0.467723 0.075181
越 0.722970 2.387584 -0.664111 0.675669 -0.024436 -0.150868 -0.420120 0.336355 -0.338592 0.089778 0.641272 0.300779 0.559833 0.502049 0.596525 0.251526
桃花 0.222402 1.903833 -0.597465 -0.321908 0.483885 -0.166787 -0.021837 -0.583343 -0.276183 0.433179 -0.018708 0.602345 -0.066540 0.488864 0.265413 0.107638
贫道 0.517559 2.098812 -0.921099 0.040652 0.578085 0.044521 0.081450 -0.577810 -0.786901 0.354588 0.442947 0.464510 0.051576 0.215983 0.254146 0.026531
蒙古人 0.444572 1.962728 -0.365370 -0.196185 0.404980 -0.091167 -0.037637 -0.645916 -0.247161 0.210945 -0.128356 0.662276 -0.115689 0.453932 0.141570 0.238840
不必 0.289644 1.929587 -1.060306 -0.028849 0.328021 0.215129 0.086930 -0.466337 -0.804004 0.085149 0.553666 0.725172 0.606665 0.286493 0.614177 0.158404
竹棒 0.231679 1.921288 0.400732 -0.214943 0.414667 0.092468 0.369540 0.168384 0.781125 0.535971 -0.672856 0.840054 -0.379093 1.271082 -0.012920 -0.001991
功力 0.342247 1.961241 0.084163 -0.368583 0.421299 0.250699 0.020334 -0.591762 0.377359 0.166547 -0.281894 0.877083 0.039478 0.802269 0.222297 0.591813
缓缓 0.326567 1.833346 0.064302 0.039893 0.403460 0.334213 0.307068 0.150941 0.320096 0.526014 -0.486451 0.768670 -0.443609 1.100586 0.113673 0.017072
子 0.441767 1.732909 -0.108607 -0.169867 0.457798 0.472916 0.142175 -0.226059 0.007472 0.300122 -0.397116 0.694085 -0.313623 0.741171 0.047696 0.109301
于是 0.179075 2.134378 -0.037416 -0.321146 0.442149 0.048377 0.114805 -0.433115 0.233175 0.500129 -0.220057 0.866289 0.011711 0.749428 0.279517 0.177959
经文 0.264076 2.030730 0.049678 -0.250761 0.430284 -0.132035 -0.017782 -0.446932 0.121178 0.370593 -0.236212 0.740370 -0.074644 0.629370 0.096777 0.241908
受伤 0.290767 1.928836 -0.263904 -0.297273 0.388744 0.186222 0.188277 -0.333135 -0.158065 0.190536 0.090939 0.731459 0.267916 0.584741 0.353924 0.238039
乱 0.345923 2.053786 0.603695 0.010664 0.449153 -0.002295 0.199162 0.401900 0.823096 0.453734 -0.549102 0.843721 -0.631444 1.189072 -0.128762 0.180696
欲 0.375226 2.146347 0.056389 0.043538 0.277861 0.118229 0.113493 0.163211 0.351558 0.426181 -0.193529 0.772234 -0.035847 0.943617 0.339722 0.006106
眼前 0.313067 2.185018 0.487814 -0.117388 0.442428 0.118867 0.064804 -0.107375 0.700010 0.446588 -0.573898 0.764512 -0.351318 1.039353 0.054676 0.304359
另 0.387680 2.253323 -0.008390 -0.308355 0.356340 -0.052744 -0.071737 -0.433927 0.175415 0.243085 -0.374892 0.661285 -0.042673 0.701327 0.185061 0.301501
前面 0.379130 2.122972 0.239590 0.186027 0.483572 -0.004693 -0.050514 -0.003489 0.480190 0.578322 -0.554101 0.665837 -0.592076 0.958072 0.014072 0.174021
瞧瞧 0.159789 1.958895 -1.177258 0.127137 0.135011 0.182508 0.212988 -0.128331 -0.828255 0.188035 0.534252 0.604569 0.583817 0.539705 0.763507 -0.016764
回头 0.367542 2.025573 -0.119788 0.043703 0.455601 0.063111 0.207547 0.092163 0.127687 0.506244 -0.008580 0.579557 -0.219733 0.753969 0.167391 0.076981
再说 0.251535 2.065138 -0.860831 -0.044596 0.189326 0.159722 0.132691 -0.062637 -0.430680 0.130760 0.367039 0.605280 0.502865 0.488476 0.630549 0.083941
拉 0.183269 1.685440 -0.212785 -0.116600 0.215078 0.346499 0.428143 0.305346 0.426960 0.402607 -0.372593 0.720838 -0.084618 1.192823 0.369295 -0.024328
回 0.027185 1.909688 -0.348965 -0.122316 0.258635 0.180759 0.380724 0.295627 0.084302 0.449877 -0.105849 0.797506 0.131346 0.881671 0.452600 -0.085142
之前 0.158059 1.999375 -0.101616 -0.187689 0.319876 0.081252 0.068609 -0.221001 0.211498 0.447858 -0.449409 0.694447 -0.250943 0.876778 0.209994 0.186470
兵刃 0.311814 2.008352 0.374228 -0.300469 0.384440 0.113103 0.052806 -0.276187 0.541539 0.304003 -0.550053 0.892024 -0.277281 0.951738 0.132077 0.344305
一把 0.137920 1.786717 0.572765 -0.223219 0.460336 -0.011375 0.351370 0.137843 0.952151 0.501561 -0.841613 0.905814 -0.385483 1.214360 -0.066480 -0.000771
地道 0.808296 1.801287 -1.395664 0.663001 0.015233 0.614306 0.075706 -0.052317 -0.860576 -0.074996 0.627630 0.823170 -0.024659 0.345968 0.585289 0.357040
微微 0.457912 2.011441 0.360484 0.054445 0.431533 0.333507 0.189867 0.168653 0.541733 0.383305 -0.543519 0.680371 -0.503051 1.171358 -0.093266 0.202252
黄蓉见 0.448992 1.886471 0.174098 -0.079943 0.460878 0.413537 0.157784 -0.082713 0.341151 0.212163 -0.305599 0.676031 -0.212156 0.893524 0.056283 0.269872
冷笑 0.769224 1.836894 -0.904072 0.729483 0.479000 0.701319 0.300733 -0.261450 -1.380424 0.439819 0.473988 0.442080 -0.338351 0.698361 0.047419 0.005224
个个 0.571393 2.156132 0.045761 -0.174082 0.372563 0.226480 -0.124203 -0.479102 0.066285 0.100402 -0.263093 0.629994 -0.060502 0.691045 0.219211 0.458944
本 0.320150 2.025812 -0.249865 -0.203543 0.397813 0.160480 -0.028527 -0.271566 0.142536 0.135837 -0.084902 0.825540 0.202170 0.544977 0.396154 0.368774
这次 0.353159 2.004719 -0.493861 -0.194646 0.353595 0.143321 0.061406 -0.362987 -0.269134 0.137815 0.109382 0.739349 0.225607 0.516136 0.409416 0.212366
妻子 0.465670 2.038978 -0.528414 -0.188372 0.447312 0.030443 0.134905 -0.350924 -0.151404 0.240014 0.067893 0.693717 0.134811 0.535192 0.275575 0.171694
其中 0.421145 2.156734 -0.239708 -0.200956 0.508210 0.159962 -0.130581 -0.754474 -0.016198 0.238189 -0.143897 0.792908 -0.128199 0.509916 0.255479 0.459587
异常 0.464784 2.092011 0.251943 -0.096812 0.454230 0.133408 -0.027954 -0.124135 0.496557 0.281499 -0.401644 0.711133 -0.282409 0.901994 0.073712 0.352470
叹 0.734856 1.956351 -1.491246 0.641101 0.575547 0.793961 0.278537 -0.516794 -1.776690 0.365795 0.720873 0.616423 -0.163099 0.427749 0.328623 0.110033
少女 0.481562 2.007780 -0.107969 0.038805 0.430585 0.146195 0.200630 -0.331686 0.285358 0.434661 -0.212945 0.601418 -0.344785 0.827253 0.131296 0.191795
高 0.383797 2.108426 -0.201288 -0.218671 0.266769 0.150936 -0.150181 -0.634178 -0.103724 0.054027 -0.062421 0.871698 0.253897 0.555506 0.456185 0.462705
不再 0.411981 2.091436 -0.350303 -0.076645 0.463315 0.052299 0.092659 -0.089187 -0.010882 0.224934 0.128887 0.632355 0.199552 0.554813 0.340268 0.118300
李萍 0.408785 1.971515 -0.347504 0.153690 0.549339 -0.048693 0.141653 -0.186747 -0.176522 0.530515 0.019006 0.631024 -0.322841 0.548619 0.092966 0.092471
掌法 0.465359 1.836002 -0.119381 -0.259353 0.456844 0.214826 0.134419 -0.533888 0.042307 0.112791 -0.124619 0.782166 -0.105165 0.687729 0.154518 0.305321
岂 0.348289 2.152020 -0.960482 -0.366486 0.295699 0.022818 0.048663 -0.810410 -0.858171 0.048474 0.612861 0.736313 0.505253 -0.045908 0.494987 0.291043
是不是 0.628269 1.856095 -1.274829 0.024563 0.234365 0.613660 0.323096 -0.177699 -0.909533 -0.087200 0.550946 0.480066 0.428289 0.398572 0.544186 0.080629
皇帝 0.469658 2.084414 -0.789809 -0.130552 0.418716 0.024011 0.044653 -0.638450 -0.540115 0.115776 0.269482 0.685782 0.142485 0.328597 0.358860 0.249885
不少 0.302170 2.116786 0.055765 -0.345848 0.525386 0.150530 -0.086318 -0.543474 0.196955 0.195814 -0.288699 0.877491 -0.038052 0.690557 0.249310 0.371583
忽地 0.274003 1.939253 0.462742 -0.172832 0.484701 0.185823 0.327551 0.195224 0.785379 0.485773 -0.724585 0.889950 -0.552584 1.276498 0.020687 0.021249
大哥 0.583228 1.990302 -1.277996 0.304180 0.386048 0.264477 0.246093 -0.233481 -1.321177 0.310413 0.692574 0.268646 0.177753 0.330918 0.339561 -0.130495
可惜 0.460250 2.082118 -0.992015 0.572661 -0.312063 0.485425 -0.144499 -0.074600 -1.294549 0.081611 0.819414 0.200411 0.680620 0.499261 0.529834 0.293566
一直 0.290788 1.922260 -0.437752 -0.154949 0.295493 0.207532 -0.012925 -0.325922 -0.037226 0.159076 -0.012136 0.798531 0.186563 0.541930 0.438674 0.346546
比武 0.373514 1.853880 -0.548144 -0.029588 0.497217 0.124986 0.009852 -0.526551 -0.207993 0.343138 0.080873 0.732984 -0.018135 0.324568 0.319879 0.211570
六位 0.392195 2.147646 -1.207199 -0.384287 0.591117 0.314111 0.126149 -0.761136 -1.070190 0.389077 0.601187 0.590322 0.452378 0.332452 0.577443 -0.134759
远远 0.274852 1.985588 0.405867 -0.052049 0.256153 0.033574 0.068792 0.055287 0.623802 0.413470 -0.534454 0.785475 -0.240250 1.151704 0.187504 0.239791
动 0.177589 1.897777 0.070915 -0.238277 0.297152 0.112477 0.093036 0.078465 0.439279 0.094282 -0.040865 0.996577 0.053617 0.540872 0.450140 0.416152
终于 0.408238 2.137197 -0.004869 -0.141735 0.407168 0.003817 0.111329 -0.153285 0.346495 0.327169 -0.241890 0.837674 -0.172830 0.848736 0.197050 0.157238
齐声 0.600040 2.056762 -0.306733 0.279957 0.525454 0.387190 0.199933 -0.002187 -0.338104 0.510525 -0.037985 0.524199 -0.378122 0.939074 0.019639 0.053894
江湖 0.339681 1.858039 -0.189250 -0.525941 0.485003 -0.003696 0.130733 -0.654333 -0.057056 0.242975 -0.434909 0.839452 -0.077189 0.644139 0.237452 0.134135
旁人 0.397750 2.006099 -0.354290 -0.167228 0.361095 0.047151 -0.111732 -0.418941 -0.235137 0.098274 0.287939 0.672556 0.229282 0.229954 0.327577 0.379115
好好 0.311748 2.016324 -1.154679 0.026727 0.134719 0.084670 0.124919 -0.339204 -0.904232 0.165576 0.499837 0.596157 0.545848 0.426214 0.577507 0.092283
总是 0.319915 2.007663 -0.704198 -0.099959 0.272013 0.207032 -0.089460 -0.461532 -0.470496 0.130792 0.305175 0.741623 0.286809 0.407301 0.513312 0.300113
灵智上人 0.397548 1.797939 0.292051 0.120757 0.597613 -0.001289 0.039340 -0.297369 0.196812 0.507912 -0.317917 0.566542 -0.465720 0.671822 -0.124857 0.276743
老人家 0.273365 1.859658 -1.217158 -0.168255 0.121399 0.401336 0.188142 -0.396381 -0.983603 0.011552 0.599997 0.606891 0.783724 0.434006 0.654537 0.129139
否则 0.201122 1.973342 -0.569829 -0.274215 0.189135 0.146792 0.042349 -0.393409 -0.259187 0.060531 0.260340 0.806648 0.490667 0.469370 0.598215 0.267697
这一下 0.289755 2.071236 0.269531 -0.177596 0.270810 0.150839 0.005445 -0.131610 0.412114 0.241564 -0.414381 0.789167 -0.054322 0.991724 0.197389 0.372760
逼 -0.061418 2.043067 -0.039498 -0.107746 -0.018819 -0.040330 -0.163336 -0.172537 0.221468 0.326781 0.074635 0.837771 0.453020 0.934026 0.622758 0.347578
饶 0.267919 1.900123 -1.040145 -0.270364 0.113102 0.358623 0.146937 -0.344713 -0.767175 -0.043054 0.428361 0.623787 0.703636 0.391838 0.700694 0.105777
罢 0.299685 2.032454 -0.874066 0.202951 0.078164 0.146069 0.082995 -0.070732 -0.630471 0.146452 0.384806 0.632272 0.415660 0.414897 0.519248 0.077124
英雄 0.646181 1.726992 -1.032956 -0.148762 0.277235 0.170776 0.136001 -0.619841 -1.072929 0.036892 0.393344 0.469438 0.147844 0.307287 0.252931 0.176952
难以 0.214190 1.953150 -0.006882 -0.275036 0.312016 0.179749 -0.061141 -0.259532 0.283834 0.019634 -0.101546 0.790765 0.260261 0.714616 0.339317 0.394907
开 0.316964 1.869726 -0.007521 -0.093611 0.331375 0.215624 0.193221 -0.058189 0.156422 0.351997 -0.167333 0.668578 -0.113502 0.828709 0.150585 0.045850
飞 0.162077 2.009654 0.684465 -0.253016 0.452619 0.204243 0.345472 0.230798 1.027372 0.714933 -0.851601 1.028110 -0.583739 1.475791 0.181418 0.025524
扶 0.153252 1.744183 -0.252580 0.110628 0.292492 0.508058 0.530341 0.608844 0.563341 0.809991 -0.349906 0.982864 -0.238737 1.435841 0.639691 0.073494
高手 0.372142 1.930818 -0.051767 -0.346329 0.553566 0.077025 -0.067797 -0.559034 0.249363 0.252580 -0.380326 0.738891 -0.194183 0.524316 0.123345 0.333920
全真教 0.462855 1.853247 -0.574979 -0.254579 0.492721 0.094375 -0.007478 -0.749762 -0.561355 0.221744 0.141141 0.574863 -0.008486 0.253904 0.198938 0.163981
指点 0.326943 1.914354 -0.338240 -0.231814 0.367055 0.392542 0.170512 -0.282024 -0.130083 0.211546 -0.131981 0.754041 -0.013328 0.740418 0.280204 0.160782
未必 0.242742 2.002676 -0.682175 -0.337487 0.350939 0.175179 -0.176346 -0.693206 -0.304632 -0.113985 0.324406 0.918746 0.546005 0.273371 0.563187 0.392351
一句 0.413520 2.021739 -0.627058 0.190913 -0.059566 0.259476 -0.344864 -0.022496 -0.486688 -0.082219 0.522328 0.591033 0.839731 0.398006 0.809636 0.455597
劲力 0.224848 1.884401 0.596935 -0.364784 0.384351 0.210294 -0.005495 -0.181180 0.900411 0.168270 -0.685862 0.951853 -0.273022 0.928628 0.135335 0.389430
前辈 0.650007 1.944489 -0.951307 0.011100 0.570556 0.134791 0.192252 -0.611901 -0.917830 0.308113 0.446104 0.368111 -0.024138 0.267524 0.156519 0.054930
一齐 0.326006 1.955042 0.083692 -0.009100 0.387008 0.294656 0.180207 0.104480 0.403177 0.436184 -0.559719 0.792842 -0.394905 1.007667 0.170508 0.125955
真七子 0.416353 1.712211 -0.251849 -0.404163 0.516524 0.252476 0.196083 -0.553628 -0.066747 0.199526 -0.104254 0.705992 -0.298022 0.603632 0.175327 0.340820
百姓 0.378899 1.968607 -0.235896 -0.309051 0.483013 0.044710 0.035311 -0.649635 -0.030732 0.252637 -0.141334 0.754587 -0.025196 0.517031 0.228979 0.276609
向来 0.416963 2.008588 -0.491926 -0.181447 0.455725 0.241128 -0.025377 -0.486487 -0.469071 0.156773 0.174233 0.641740 0.165712 0.317990 0.308998 0.287485
劈 0.158756 2.027790 0.302784 -0.095717 0.422508 0.110214 0.211350 0.033719 0.625377 0.583868 -0.582398 0.824833 -0.417691 1.172905 0.158647 0.039507
刚 0.203856 2.113610 0.026971 -0.014944 0.205405 0.048382 0.031922 -0.022763 0.277059 0.373166 -0.246656 0.756297 -0.096413 0.951000 0.300939 0.193324
降龙十八掌 0.284848 1.868863 0.193470 -0.310621 0.465389 -0.035455 -0.115988 -0.575874 0.294827 0.186036 -0.448992 0.729316 -0.217796 0.697233 0.030884 0.297989
言语 0.533246 1.944511 -0.200250 -0.067307 0.387959 0.122365 -0.178226 -0.087513 0.044210 0.047727 0.089017 0.539008 0.199019 0.512698 0.247785 0.468213
声响 0.532763 2.163074 1.004549 0.270926 0.221201 0.175592 -0.208730 0.539972 1.200784 0.418608 -0.993966 0.621382 -0.399243 1.427765 -0.028737 0.430803
岂能 0.399381 1.975706 -0.672673 -0.278832 0.414621 0.098852 -0.041394 -0.634706 -0.394355 0.200141 0.162290 0.699020 0.274314 0.274395 0.397248 0.248369
成 0.269428 1.903843 -0.227751 -0.114906 0.235569 0.153670 0.006173 -0.320438 -0.095626 0.089725 0.015477 0.705062 0.190600 0.616728 0.373928 0.259839
不好 0.493774 1.864852 -1.197324 0.223355 0.295556 0.255943 0.141018 -0.236855 -1.138347 0.157039 0.592947 0.425904 0.211873 0.313113 0.420738 0.081490
年纪 0.347570 1.937322 -0.297681 -0.264917 0.298039 0.264196 -0.051110 -0.510161 -0.196556 0.033126 0.005394 0.781454 0.241045 0.561354 0.365173 0.387247
背 0.233154 1.819786 -0.344473 -0.020054 0.208874 0.221785 0.057659 -0.215441 -0.014459 0.234346 -0.074092 0.767577 0.269890 0.736007 0.455537 0.296625
吓 0.059632 2.305316 0.498909 0.569003 -0.759551 0.520498 -0.736201 0.431607 0.135012 0.187823 -0.130066 0.602257 0.693109 1.735514 0.614605 0.795313
江南七怪 0.518367 2.016270 -0.373296 0.028931 0.542223 -0.060964 -0.042615 -0.494926 -0.264182 0.401481 0.146305 0.512028 -0.093867 0.375182 0.166742 0.228454
当日 0.467222 1.830862 -0.267153 -0.181058 0.519065 0.238835 0.108439 -0.364817 -0.092357 0.274406 -0.171053 0.509945 -0.127620 0.630006 0.060885 0.201510
大惊 0.599197 1.963582 0.108193 -0.008027 0.521733 0.440558 0.476278 0.205754 0.375764 0.390279 -0.357590 0.569363 -0.399838 1.135140 -0.031681 0.068643
懂 0.309435 1.895384 -0.711849 -0.008545 0.135477 0.210863 -0.071094 -0.214755 -0.657414 -0.026063 0.712232 0.922921 0.481793 0.235023 0.560842 0.504638
武艺 0.366974 1.982499 -0.394804 -0.104619 0.254185 0.200102 -0.119981 -0.436660 -0.416464 0.071690 0.282831 0.561220 0.402837 0.464564 0.411134 0.360188
纵身 0.277198 1.907781 0.193671 -0.033809 0.466178 0.261407 0.384875 0.238072 0.617082 0.518200 -0.546000 0.840910 -0.533415 1.172814 0.080703 0.018302
两名 0.280375 2.016945 0.185318 -0.189345 0.462159 0.061029 0.213277 0.037903 0.481018 0.508237 -0.510636 0.702817 -0.361212 0.942240 0.071662 0.053788
一名 0.479612 1.841677 0.064138 -0.053818 0.456818 0.136631 0.195812 -0.017643 0.227300 0.374754 -0.474846 0.607670 -0.450838 0.861846 -0.029823 0.036417
躲 -0.023545 1.755316 -0.093044 -0.116162 0.064812 -0.123716 0.043250 -0.099327 0.286493 0.442128 -0.444311 0.563442 0.053102 0.950589 0.224528 0.260300
其实 0.480067 1.969177 -0.423530 -0.107591 0.351402 0.262372 -0.010945 -0.569870 -0.233934 0.053001 0.169989 0.717664 0.187258 0.339496 0.386955 0.422100
报仇 0.316548 2.010653 -0.923785 -0.205530 0.316410 0.047182 0.208165 -0.518732 -0.604166 0.234202 0.522794 0.583329 0.513528 0.244085 0.525149 -0.012479
史 0.445568 2.162342 -0.195916 -0.277318 0.039488 -0.088851 0.187016 -0.640193 -0.026624 0.091731 -0.265775 0.714914 0.154347 0.865561 0.305102 0.553932
空中 0.092400 1.975996 0.560392 -0.146216 0.282150 -0.292478 0.028697 -0.032645 0.830675 0.759200 -0.883919 0.576971 -0.523521 1.236048 -0.105452 0.226442
岛主 0.494114 1.763448 -0.996744 -0.366368 0.555114 0.322467 0.390965 -0.629159 -0.845523 0.178675 0.255520 0.335420 0.055568 0.268843 0.209960 -0.141154
外 0.363529 2.224038 0.410359 -0.144695 0.405402 -0.042690 0.043520 -0.118586 0.715152 0.536449 -0.695240 0.681303 -0.404917 1.081840 -0.004295 0.240835
各人 0.303339 2.043340 0.406703 -0.170607 0.419780 0.022919 0.071392 -0.203075 0.514679 0.402730 -0.500280 0.764669 -0.251611 0.837997 0.062295 0.262989
背后 0.336626 1.987344 0.401002 0.052609 0.116296 0.080957 -0.072089 0.165924 0.573326 0.456266 -0.534022 0.615581 -0.224003 1.139172 0.125474 0.298367
一根 0.200903 2.058770 0.363465 -0.239155 0.329752 -0.066812 0.106777 -0.040980 0.727982 0.472919 -0.651741 0.853713 -0.273850 1.117930 0.067527 0.215979
一口 0.396699 1.852277 -0.057418 -0.165962 0.435770 0.209253 0.242895 -0.108106 0.124274 0.343976 -0.249919 0.600453 -0.235308 0.814537 0.126910 0.002036
远 0.164719 1.950129 0.128000 -0.102360 0.197016 0.104930 -0.148487 -0.141378 0.371680 0.180658 -0.254909 0.827105 0.066523 0.808465 0.396236 0.369727
朋友 0.490226 1.834250 -1.213926 -0.137805 0.204712 0.139796 0.145387 -0.573618 -1.066088 0.152677 0.469505 0.355804 0.442278 0.378015 0.416973 0.050708
丈夫 0.335246 1.886826 -0.248062 -0.057072 0.437253 0.046658 0.070335 -0.374438 -0.032512 0.305777 0.090186 0.708180 -0.026803 0.445877 0.211968 0.187588
眼睛 0.311687 1.846944 -0.452550 -0.216006 0.203794 0.210306 0.102965 -0.238894 -0.141206 0.118445 0.041686 0.643724 0.227833 0.521141 0.341804 0.235992
靖儿 0.578928 1.847615 -1.447857 0.412124 0.377782 0.262487 0.203595 -0.385599 -1.265674 0.208549 0.733007 0.440865 0.183704 0.277117 0.392391 -0.045718
唉 0.467889 1.979231 -1.037803 0.039773 0.315727 0.316160 0.002352 -0.551859 -0.918826 0.065743 0.482692 0.527862 0.363046 0.254565 0.462760 0.273511
现下 0.308283 2.031575 -0.758029 -0.057765 0.223802 0.087596 -0.018049 -0.377781 -0.710873 0.119365 0.435348 0.631594 0.426350 0.325773 0.467454 0.242963
呆 0.431695 1.788244 0.121707 0.160856 0.306614 0.180890 0.171142 0.180123 0.256529 0.382614 -0.225076 0.438934 -0.369798 0.877118 0.046447 0.181557
就要 0.228876 1.842683 -0.261566 -0.196259 0.432421 0.117915 0.222897 -0.126213 0.051873 0.397705 -0.091472 0.711904 -0.075968 0.685675 0.242552 0.025377
当时 0.286192 1.954657 -0.206533 -0.293419 0.398645 0.308230 -0.039303 -0.532618 -0.000645 0.226086 -0.175040 0.762062 0.091992 0.637395 0.283092 0.328792
算 0.143275 1.696492 -0.563827 -0.045526 0.104432 0.055634 -0.113279 -0.419448 -0.530196 0.056551 0.427333 0.677903 0.408933 0.421258 0.500315 0.256028
长 0.434856 1.962357 -0.323307 -0.103245 0.364840 0.032109 0.131261 -0.260471 -0.059542 0.336544 -0.068999 0.600737 -0.070733 0.675367 0.151060 0.196912
向前 0.234970 2.106674 0.653172 -0.168151 0.443462 0.274827 0.178561 0.138760 0.926410 0.405271 -0.811576 1.019928 -0.457951 1.266742 0.088239 0.203532
背上 0.185598 1.888579 0.345741 -0.248751 0.277113 0.107347 0.238602 0.008788 0.568128 0.426139 -0.602707 0.651255 -0.230097 1.158997 0.020494 0.099999
窝阔台 0.538307 2.046574 -0.271641 -0.002339 0.667732 0.054560 0.113447 -0.434836 -0.256630 0.519992 -0.065820 0.585707 -0.249485 0.620131 0.060698 0.174817
一片 0.360765 2.063967 0.631578 -0.128075 0.530897 0.088567 -0.069392 -0.160953 0.740152 0.448601 -0.590649 0.775698 -0.433472 0.927698 -0.021593 0.409354
后面 0.117134 1.921595 -0.005110 -0.078878 0.246632 -0.202951 -0.058374 -0.206452 0.388099 0.512930 -0.350729 0.679385 -0.165245 0.764140 0.238154 0.265744
怒道 0.682112 1.881595 -1.634637 0.375427 0.004420 0.843070 0.228193 -0.368032 -1.114485 -0.194417 0.640558 0.891488 0.190345 0.394161 0.735797 0.312399
欢喜 0.645888 1.738039 -0.405530 0.001116 0.236795 0.293985 0.027276 -0.244506 -0.465586 0.023488 0.239595 0.264792 0.142737 0.455910 0.200759 0.277876
直 0.299877 2.122473 0.650462 -0.147133 0.486584 0.142530 0.208151 0.133227 0.886006 0.571147 -0.748444 0.893729 -0.621056 1.228410 -0.015654 0.072923
一张 0.276000 1.989798 0.188095 -0.121223 0.383666 0.137585 0.072296 -0.082226 0.444075 0.353045 -0.461984 0.783049 -0.222608 0.952631 0.172967 0.228045
盼 -0.072098 2.123289 0.217959 0.244143 -0.695521 0.521848 -0.364681 -0.047482 -0.362002 0.164276 -0.021506 0.626063 0.968786 1.115350 0.719922 0.606038
面前 0.135174 1.863833 0.039951 -0.229280 0.329352 0.243598 0.214709 0.025003 0.426044 0.471733 -0.475760 0.751671 -0.267659 1.076185 0.128623 0.080322
模样 0.541356 1.967200 -0.151760 -0.072784 0.417236 -0.029431 0.023103 -0.431769 -0.008498 0.184250 -0.130527 0.560469 -0.112631 0.537568 0.107980 0.316850
内力 0.377250 2.039483 0.085777 -0.183159 0.422171 0.259839 0.123703 -0.217444 0.413218 0.284896 -0.339049 0.870663 -0.250864 0.856744 0.172127 0.283012
因 0.120084 2.019348 0.165664 -0.087396 -0.232007 0.524584 -0.173272 -0.277422 0.089447 0.190541 -0.220282 0.807677 0.513324 0.886771 0.521274 0.631425
一股 0.243065 2.029814 0.642020 -0.273546 0.467359 0.151985 0.106720 -0.028510 0.889606 0.492591 -0.760745 0.882973 -0.573395 1.132500 0.010012 0.206070
郭啸天 0.442292 1.497254 -0.699556 0.311925 0.432369 0.071229 0.142924 -0.199762 -0.577424 0.315857 0.347437 0.387415 -0.200573 0.380755 0.107943 0.036872
之外 0.253166 1.951174 0.341129 -0.206118 0.362521 0.087749 -0.051767 -0.247867 0.545714 0.341729 -0.564239 0.791457 -0.274007 0.954735 0.113569 0.358709
满脸 0.446768 1.963964 0.077469 -0.050678 0.358921 0.218650 0.064099 -0.079797 0.204826 0.302073 -0.229956 0.663443 -0.211192 0.837450 0.168458 0.230062
须 0.174221 2.046871 -0.274114 0.013548 -0.035877 0.241955 -0.292952 -0.203414 -0.254590 0.127162 0.170413 0.597100 0.436162 0.785468 0.468796 0.360723
牛家村 0.085246 1.911114 -0.453326 -0.235934 0.396488 0.023667 0.066796 -0.340399 0.009541 0.469959 -0.258900 0.713405 -0.113857 0.676179 0.306371 0.127699
恩师 0.466338 1.961313 -0.747960 -0.135446 0.409807 0.134468 0.000719 -0.570201 -0.532121 0.177374 0.290262 0.526718 0.253178 0.298758 0.340978 0.205712
杖 0.275539 1.937165 0.391271 -0.350720 0.470000 0.117414 0.274279 -0.141170 0.723342 0.457361 -0.750329 0.865278 -0.586299 1.065455 0.015528 0.069045
您 0.493470 2.240730 -1.385048 -0.012041 0.320971 0.040101 0.248332 -0.419722 -1.345340 0.262441 0.800799 0.343114 0.414451 0.250616 0.521772 -0.194651
只道 0.451400 1.722319 -0.349489 -0.041333 0.299284 0.417549 0.089977 -0.337984 -0.245316 -0.039274 0.059160 0.699231 0.087175 0.529816 0.286427 0.404054
不要 0.358875 1.890778 -1.346130 -0.054251 0.066576 0.290600 0.239105 -0.299106 -0.974929 -0.063649 0.713529 0.619982 0.786727 0.288624 0.696610 0.014375
官兵 0.197225 1.848625 -0.070917 0.002595 0.379651 -0.046818 0.030297 -0.292775 0.158883 0.437462 -0.132579 0.716393 -0.210043 0.696848 0.235524 0.199747
二 0.377259 1.905374 -0.426024 -0.406207 0.503361 0.251797 0.204106 -0.405126 -0.388214 0.302419 0.017887 0.518401 0.095739 0.583843 0.250155 -0.051533
正在 0.385739 1.926245 -0.069554 -0.066466 0.376263 0.365703 0.167138 -0.080805 0.131472 0.215591 -0.322798 0.734854 -0.109615 0.782000 0.201646 0.241553
那书生 0.449294 1.838481 -0.456328 0.198127 0.577015 0.085510 0.120531 -0.316038 -0.613149 0.472366 0.245753 0.414075 -0.284139 0.454818 0.030022 -0.012907
相助 0.387043 1.869656 -0.228707 -0.063371 0.310357 0.271830 0.163688 -0.099387 0.099120 0.237090 -0.102550 0.694820 -0.052133 0.710898 0.302702 0.174680
相救 0.398281 1.996969 -0.403489 -0.117475 0.355183 0.367973 0.184885 -0.229427 -0.136936 0.189950 0.021632 0.763189 0.046683 0.699500 0.357149 0.182972
沉吟 0.745986 1.807263 -0.655618 0.356344 0.468604 0.527574 0.345910 0.026750 -0.664257 0.241512 0.335303 0.294412 -0.058173 0.706818 0.158320 0.049253
道士 0.406719 1.717190 -0.998953 -0.164080 0.316743 0.166427 0.155175 -0.583406 -0.820812 0.038901 0.412588 0.453748 0.315521 0.193584 0.426619 0.140482
左 0.218733 2.091475 0.715119 -0.276420 0.754463 0.102349 0.371845 0.105951 1.050058 0.848122 -0.836249 0.965928 -0.852160 1.236623 -0.119876 0.012446
伸出 0.082055 1.852386 0.596143 -0.189501 0.395196 0.132841 0.456786 0.227204 0.972556 0.534918 -0.862094 0.934593 -0.588153 1.328746 -0.014766 0.010430
一定 0.394279 2.020363 -1.112926 0.028249 0.103341 0.204672 0.072530 -0.365727 -0.867084 0.018325 0.588841 0.546923 0.522604 0.388852 0.642481 0.162574
害死 0.468312 1.972109 -1.034212 -0.242401 0.248260 0.432578 0.199292 -0.620224 -0.864542 -0.052650 0.323347 0.491537 0.597219 0.386813 0.523464 0.233653
睡 0.075362 1.883391 -0.478354 0.139725 0.200553 -0.000656 0.047766 0.046068 -0.102091 0.456336 0.061495 0.739304 0.108449 0.770791 0.496321 0.039645
心里 0.403634 2.011073 -0.637462 -0.090681 0.136770 0.220717 -0.026668 -0.304052 -0.345869 0.077909 0.184796 0.587524 0.353522 0.528100 0.529199 0.351837
